<?xml version="1.0"?>
<opencv_storage>
<opencv_ml_svm>
  <format>3</format>
  <svmType>C_SVC</svmType>
  <kernel>
    <type>LINEAR</type></kernel>
  <C>1.</C>
  <term_criteria><epsilon>1.0000000000000000e-03</epsilon>
    <iterations>1000</iterations></term_criteria>
  <var_count>400</var_count>
  <class_count>2</class_count>
  <class_labels type_id="opencv-matrix">
    <rows>2</rows>
    <cols>1</cols>
    <dt>i</dt>
    <data>
      0 1</data></class_labels>
  <sv_total>1</sv_total>
  <support_vectors>
    <_>
      0. 0. 0. 0. 0. 0. 0. 0. 0. 0. 0. 0. 0. 0. 0. 0. 0. 0. 0. 0. 0. 0.
      0. 0. 0. 0. 0. 0. 0. 0. 0. 0. 0. 0. 0. 0. 0. 0. 0. 0. 0. 0. 0. 0.
      0. 0. 0. -1.78717778e-06 -1.75783352e-05 -5.53784739e-05
      -1.51373912e-04 -2.69702345e-04 -7.65772202e-05 1.14240349e-04
      2.26322427e-05 0. 0. 0. 0. 0. 0. 0. 0. 0. 0. -6.25512257e-06
      -2.25631193e-05 -3.99881028e-05 -4.66940000e-05 1.32113128e-04
      6.37674762e-04 1.64553741e-04 -6.71071102e-05 -7.14276830e-05
      4.47503044e-06 3.83480801e-05 0. 0. 0. 0. 0. 0. 0. 0. 0.
      -4.36262326e-06 -2.74541908e-05 4.45664082e-05 1.95033848e-04
      1.97923873e-04 3.12038144e-04 1.19601078e-04 2.85597314e-04
      -3.48086003e-04 -8.17315158e-05 1.23307145e-05 -3.26408117e-05 0.
      0. 0. 0. 0. 0. 0. -4.77479043e-05 -1.39801967e-04 1.14694421e-05
      2.26633347e-04 8.94842451e-05 -1.96151814e-05 4.83651493e-05
      -2.01795585e-04 2.26956297e-04 -2.08875193e-04 -2.15554639e-04
      -7.63388598e-05 2.64619139e-05 0. 0. 0. 0. 0. 0. 0.
      -1.07000080e-04 -2.61881010e-04 4.95259046e-05 2.04885044e-04
      -1.81909854e-04 -2.88215961e-04 2.12439627e-04 -3.04748846e-05
      1.34003276e-04 3.24575776e-05 4.88619080e-05 3.19040613e-04
      2.14101747e-04 1.23159216e-05 0. 0. 0. 0. 0. 2.28367458e-06
      -1.08923450e-04 -7.19889649e-05 2.16407556e-04 7.09204505e-06
      -2.57132517e-04 2.08115904e-04 3.77260476e-05 -2.47759366e-04
      -9.80349359e-05 3.12729135e-05 4.55733883e-04 4.59061906e-04
      4.26638231e-04 8.44094830e-05 -7.28409359e-05 0. 0. 0. 0.
      4.61162235e-05 4.59194125e-05 -1.61364835e-04 -1.27600986e-04
      -4.71006730e-04 1.34357688e-04 1.62770390e-04 -2.89880176e-04
      -4.83022915e-04 -7.40035975e-05 2.73567042e-04 6.21110259e-04
      2.99637264e-04 3.56830074e-04 2.50352343e-04 -6.34421085e-05 0. 0.
      0. 0. 1.10377790e-04 1.94377993e-04 -2.99385938e-05 8.31876241e-05
      2.99209787e-04 5.81614673e-04 -3.22294916e-04 -1.06008200e-03
      -5.80553024e-04 -8.51699515e-05 7.51158441e-05 5.89092204e-04
      2.75942002e-04 3.02580913e-04 3.48162925e-04 -1.41979046e-06 0. 0.
      0. 0. 1.67727267e-04 4.24006081e-04 4.12287773e-04 9.74652066e-05
      8.79499537e-04 3.77446384e-04 -5.23012131e-04 -1.35653489e-03
      -3.41222127e-04 2.67863797e-04 1.35191047e-04 4.87232406e-04
      1.85459634e-04 3.47733061e-04 3.26631911e-04 -1.98770649e-05
      -3.54947611e-06 0. 0. 1.76516380e-06 1.97443529e-04 4.38103278e-04
      3.89136403e-04 4.03861777e-04 9.16605699e-04 1.87020909e-04
      -9.10420436e-04 -1.05670711e-03 -4.18913623e-05 3.43245629e-04
      1.92363700e-06 4.31593246e-04 3.37007019e-04 4.50798078e-04
      2.31462705e-04 -3.54947611e-06 0. 0. 0. 1.89303398e-06
      1.56967726e-04 3.18454608e-04 4.00033110e-04 1.89882077e-04
      7.64188939e-04 2.47243675e-04 -5.68748510e-04 -2.21573529e-04
      2.87065719e-04 6.98699499e-04 3.06894392e-04 3.71842179e-04
      5.19371126e-04 3.83154897e-04 9.21297033e-05 0. 0. 0. 0.
      2.71793579e-06 1.05229483e-04 2.90712283e-04 5.09226578e-04
      5.60572917e-05 2.67284544e-04 2.63397436e-04 -8.60842178e-04
      -3.56838282e-04 5.24131290e-04 5.04988362e-04 1.06055893e-04
      -9.05322449e-05 2.15531196e-04 9.23921834e-05 -4.98731570e-05
      -4.46794445e-07 0. 0. 0. 4.47389993e-06 8.77131824e-05
      8.64821995e-05 3.60930862e-04 -1.26401777e-04 1.29245906e-04
      3.10180243e-04 -4.59985051e-04 -5.22576622e-04 3.51996277e-04
      -8.78541177e-05 -3.36544472e-04 -2.76114064e-04 -1.36080285e-04
      -3.17882368e-04 -3.04249232e-04 -4.11124020e-05 0. 0. 0.
      1.64897574e-06 6.45967521e-05 3.91939211e-05 -4.46911035e-05
      -2.11331906e-04 3.91377282e-04 3.67384724e-04 1.81453332e-04
      1.49346990e-04 1.91412561e-04 -2.47334014e-04 -1.42662800e-04
      -6.15959434e-05 -1.41483135e-04 -2.85460963e-04 -3.12084507e-04
      -1.57495248e-04 0. 0. 0. 3.92810300e-08 5.14131607e-05
      1.86354519e-04 -4.76717723e-05 -1.11001773e-05 3.95964686e-04
      3.93722439e-04 6.73197617e-04 5.60725573e-04 1.27857220e-05
      -2.39963774e-04 1.34061091e-04 1.14790106e-04 -3.16950536e-05
      -6.25640168e-05 -6.63944666e-05 -3.70276830e-05 0. 0. 0. 0.
      8.09454577e-05 1.78556147e-04 1.48546140e-04 1.23473699e-04
      1.98136680e-04 1.26906816e-04 2.28538891e-04 2.91300326e-04
      1.12767229e-04 -1.52039211e-04 4.97143992e-05 6.69194651e-06 0. 0.
      0. 0. 0. 0. 0. 0. 0. 0. 0. 0. 0. 0. 0. 0. 0. 0. 0. 0. 0. 0. 0. 0.
      0. 0. 0. 0. 0. 0. 0. 0. 0. 0. 0. 0. 0. 0. 0. 0. 0. 0. 0. 0. 0.</_></support_vectors>
  <uncompressed_sv_total>30</uncompressed_sv_total>
  <uncompressed_support_vectors>
    <_>
      0. 0. 0. 0. 0. 0. 0. 0. 0. 0. 0. 0. 0. 0. 0. 0. 0. 0. 0. 0. 0. 0.
      0. 0. 0. 0. 0. 0. 0. 0. 0. 0. 0. 0. 0. 0. 0. 0. 0. 0. 0. 0. 0. 0.
      0. 0. 0. 0. 0. 0. 0. 0. 0. 0. 0. 0. 0. 0. 0. 0. 0. 0. 0. 0. 0. 0.
      0. 0. 0. 39. 114. 97. 41. 0. 0. 0. 0. 0. 0. 0. 0. 0. 0. 0. 0. 0.
      0. 0. 55. 212. 213. 222. 201. 6. 0. 0. 0. 0. 0. 0. 0. 0. 0. 0. 0.
      0. 0. 25. 210. 213. 10. 13. 164. 160. 1. 0. 0. 0. 0. 0. 0. 0. 0.
      0. 0. 0. 0. 111. 226. 58. 0. 0. 27. 197. 81. 0. 0. 0. 0. 0. 0. 0.
      0. 0. 0. 0. 35. 195. 48. 0. 0. 0. 0. 125. 171. 0. 0. 0. 0. 0. 0.
      0. 0. 0. 0. 0. 125. 134. 0. 0. 0. 0. 0. 59. 204. 15. 0. 0. 0. 0.
      0. 0. 0. 0. 0. 23. 164. 40. 0. 0. 0. 0. 0. 1. 169. 68. 0. 0. 0. 0.
      0. 0. 0. 0. 0. 56. 162. 13. 0. 0. 0. 0. 0. 0. 168. 125. 0. 0. 0.
      0. 0. 0. 0. 0. 0. 55. 161. 14. 0. 0. 0. 0. 0. 0. 143. 117. 0. 0.
      0. 0. 0. 0. 0. 0. 0. 55. 160. 14. 0. 0. 0. 0. 0. 0. 145. 114. 0.
      0. 0. 0. 0. 0. 0. 0. 0. 56. 169. 15. 0. 0. 0. 0. 0. 14. 167. 28.
      0. 0. 0. 0. 0. 0. 0. 0. 0. 35. 192. 38. 0. 0. 0. 0. 0. 87. 127. 0.
      0. 0. 0. 0. 0. 0. 0. 0. 0. 0. 129. 188. 20. 0. 0. 10. 97. 142. 18.
      0. 0. 0. 0. 0. 0. 0. 0. 0. 0. 0. 27. 166. 200. 118. 149. 188. 150.
      16. 0. 0. 0. 0. 0. 0. 0. 0. 0. 0. 0. 0. 0. 8. 115. 210. 203. 104.
      8. 0. 0. 0. 0. 0. 0. 0. 0. 0. 0. 0. 0. 0. 0. 0. 0. 0. 0. 0. 0. 0.
      0. 0. 0. 0. 0. 0. 0. 0. 0. 0. 0. 0. 0. 0. 0. 0. 0. 0. 0. 0. 0. 0.
      0. 0. 0. 0.</_>
    <_>
      0. 0. 0. 0. 0. 0. 0. 0. 0. 0. 0. 0. 0. 0. 0. 0. 0. 0. 0. 0. 0. 0.
      0. 0. 0. 0. 0. 0. 0. 0. 0. 0. 0. 0. 0. 0. 0. 0. 0. 0. 0. 0. 0. 0.
      0. 0. 0. 0. 0. 0. 0. 0. 0. 0. 0. 0. 0. 0. 0. 0. 0. 0. 0. 0. 0. 0.
      0. 0. 0. 2. 63. 110. 118. 107. 44. 0. 0. 0. 0. 0. 0. 0. 0. 0. 0.
      68. 168. 110. 52. 166. 204. 151. 137. 215. 220. 46. 0. 0. 0. 0. 0.
      0. 0. 0. 48. 237. 221. 239. 247. 170. 35. 0. 0. 17. 154. 181. 19.
      0. 0. 0. 0. 0. 0. 0. 125. 211. 33. 108. 223. 63. 0. 0. 0. 0. 10.
      191. 86. 0. 0. 0. 0. 0. 0. 13. 200. 133. 0. 1. 41. 21. 0. 0. 0. 0.
      0. 105. 153. 5. 0. 0. 0. 0. 0. 18. 194. 58. 0. 0. 0. 0. 0. 0. 0.
      0. 0. 22. 174. 33. 0. 0. 0. 0. 0. 18. 179. 18. 0. 0. 0. 0. 0. 0.
      0. 0. 0. 8. 170. 70. 0. 0. 0. 0. 0. 19. 178. 12. 0. 0. 0. 0. 0. 0.
      0. 0. 0. 0. 155. 88. 0. 0. 0. 0. 0. 19. 189. 40. 0. 0. 0. 0. 0. 0.
      0. 0. 0. 13. 188. 86. 0. 0. 0. 0. 0. 14. 197. 93. 0. 0. 0. 0. 0.
      0. 0. 0. 0. 31. 196. 41. 0. 0. 0. 0. 0. 0. 132. 169. 0. 0. 0. 0.
      0. 0. 0. 0. 0. 90. 202. 20. 0. 0. 0. 0. 0. 0. 38. 229. 87. 0. 0.
      0. 0. 0. 0. 0. 12. 191. 119. 0. 0. 0. 0. 0. 0. 0. 0. 108. 224. 88.
      4. 0. 0. 0. 0. 19. 177. 204. 30. 0. 0. 0. 0. 0. 0. 0. 0. 1. 100.
      225. 177. 142. 107. 78. 85. 188. 218. 60. 0. 0. 0. 0. 0. 0. 0. 0.
      0. 0. 0. 29. 113. 206. 218. 208. 203. 112. 23. 0. 0. 0. 0. 0. 0.
      0. 0. 0. 0. 0. 0. 0. 0. 0. 0. 0. 0. 0. 0. 0. 0. 0. 0. 0. 0. 0. 0.
      0. 0. 0. 0. 0. 0. 0. 0. 0. 0. 0. 0. 0. 0. 0. 0. 0.</_>
    <_>
      0. 0. 0. 0. 0. 0. 0. 0. 0. 0. 0. 0. 0. 0. 0. 0. 0. 0. 0. 0. 0. 0.
      0. 0. 0. 0. 0. 0. 0. 0. 0. 0. 0. 0. 0. 0. 0. 0. 0. 0. 0. 0. 0. 0.
      0. 0. 0. 0. 0. 0. 0. 0. 0. 0. 0. 0. 0. 0. 0. 0. 0. 0. 0. 0. 0. 0.
      0. 0. 0. 0. 0. 0. 0. 0. 0. 0. 0. 0. 0. 0. 0. 0. 0. 0. 0. 0. 0. 0.
      0. 0. 0. 0. 0. 0. 0. 0. 0. 0. 0. 0. 0. 0. 0. 0. 0. 0. 0. 0. 0. 0.
      20. 40. 37. 37. 8. 0. 0. 0. 0. 0. 0. 0. 0. 0. 0. 0. 45. 165. 86.
      61. 148. 134. 149. 164. 181. 83. 9. 0. 0. 0. 0. 0. 0. 0. 0. 75.
      211. 136. 11. 158. 141. 12. 20. 21. 98. 210. 200. 40. 0. 0. 0. 0.
      0. 0. 113. 214. 108. 0. 0. 47. 87. 3. 0. 0. 0. 36. 198. 167. 0. 0.
      0. 0. 0. 53. 226. 82. 0. 0. 0. 0. 0. 0. 0. 0. 0. 0. 86. 207. 0. 0.
      0. 0. 0. 115. 177. 0. 0. 0. 0. 0. 0. 0. 0. 0. 0. 0. 115. 175. 0.
      0. 0. 0. 0. 117. 150. 0. 0. 0. 0. 0. 0. 0. 0. 0. 0. 121. 191. 62.
      0. 0. 0. 0. 0. 105. 200. 5. 0. 0. 0. 0. 0. 0. 13. 64. 151. 169.
      42. 0. 0. 0. 0. 0. 0. 21. 191. 146. 23. 0. 0. 21. 89. 122. 124.
      133. 83. 6. 0. 0. 0. 0. 0. 0. 0. 0. 32. 94. 144. 171. 176. 192.
      155. 91. 34. 0. 0. 0. 0. 0. 0. 0. 0. 0. 0. 0. 0. 0. 10. 42. 47.
      39. 4. 0. 0. 0. 0. 0. 0. 0. 0. 0. 0. 0. 0. 0. 0. 0. 0. 0. 0. 0. 0.
      0. 0. 0. 0. 0. 0. 0. 0. 0. 0. 0. 0. 0. 0. 0. 0. 0. 0. 0. 0. 0. 0.
      0. 0. 0. 0. 0. 0. 0. 0. 0. 0. 0. 0. 0. 0. 0. 0. 0. 0. 0. 0. 0. 0.
      0. 0. 0. 0. 0. 0. 0. 0. 0. 0. 0. 0. 0. 0. 0. 0. 0. 0. 0. 0. 0. 0.
      0. 0. 0.</_>
    <_>
      0. 0. 0. 0. 0. 0. 0. 0. 0. 0. 0. 0. 0. 0. 0. 0. 0. 0. 0. 0. 0. 0.
      0. 0. 0. 0. 0. 0. 0. 0. 0. 0. 0. 0. 0. 0. 0. 0. 0. 0. 0. 0. 0. 0.
      0. 0. 0. 0. 0. 0. 0. 0. 61. 200. 49. 0. 0. 0. 0. 0. 0. 0. 0. 0. 0.
      0. 0. 0. 0. 0. 0. 0. 172. 255. 85. 0. 0. 0. 0. 0. 0. 0. 0. 0. 0.
      0. 0. 0. 0. 0. 0. 51. 226. 245. 60. 0. 0. 0. 0. 0. 0. 0. 0. 0. 0.
      0. 0. 0. 0. 0. 76. 235. 249. 255. 77. 0. 0. 0. 0. 0. 0. 0. 0. 0.
      0. 0. 0. 0. 0. 66. 239. 202. 133. 255. 124. 0. 0. 0. 0. 0. 0. 0.
      0. 0. 0. 0. 0. 0. 60. 224. 210. 53. 64. 255. 139. 0. 0. 0. 0. 0.
      0. 0. 0. 0. 0. 0. 0. 32. 227. 230. 26. 0. 76. 255. 107. 0. 0. 0.
      0. 0. 0. 0. 0. 0. 0. 0. 0. 139. 255. 107. 0. 0. 137. 255. 73. 0.
      0. 0. 0. 0. 0. 0. 0. 0. 0. 0. 85. 243. 140. 7. 0. 51. 235. 209.
      35. 0. 0. 0. 0. 0. 0. 0. 0. 0. 0. 38. 222. 184. 7. 0. 12. 182.
      252. 75. 0. 0. 0. 0. 0. 0. 0. 0. 0. 0. 5. 159. 245. 63. 0. 56.
      194. 254. 125. 1. 0. 0. 0. 0. 0. 0. 0. 0. 0. 0. 98. 249. 98. 30.
      141. 249. 240. 106. 1. 0. 0. 0. 0. 0. 0. 0. 0. 0. 0. 0. 179. 239.
      165. 224. 255. 192. 55. 0. 0. 0. 0. 0. 0. 0. 0. 0. 0. 0. 0. 29.
      223. 255. 238. 193. 95. 9. 0. 0. 0. 0. 0. 0. 0. 0. 0. 0. 0. 0. 0.
      8. 88. 109. 62. 1. 0. 0. 0. 0. 0. 0. 0. 0. 0. 0. 0. 0. 0. 0. 0. 0.
      0. 0. 0. 0. 0. 0. 0. 0. 0. 0. 0. 0. 0. 0. 0. 0. 0. 0. 0. 0. 0. 0.
      0. 0. 0. 0. 0. 0. 0. 0. 0. 0. 0. 0. 0. 0. 0. 0. 0. 0. 0. 0. 0. 0.
      0. 0. 0. 0. 0. 0. 0. 0. 0. 0. 0. 0.</_>
    <_>
      0. 0. 0. 0. 0. 0. 0. 0. 0. 0. 0. 0. 0. 0. 0. 0. 0. 0. 0. 0. 0. 0.
      0. 0. 0. 0. 0. 0. 0. 0. 0. 0. 0. 0. 0. 0. 0. 0. 0. 0. 0. 0. 0. 0.
      0. 0. 0. 0. 0. 0. 0. 0. 0. 0. 0. 0. 0. 0. 0. 0. 0. 0. 0. 0. 0. 0.
      0. 0. 3. 39. 77. 53. 0. 0. 0. 0. 0. 0. 0. 0. 0. 0. 0. 0. 0. 0. 0.
      92. 188. 220. 242. 227. 117. 0. 0. 0. 0. 0. 0. 0. 0. 0. 0. 0. 0.
      0. 29. 230. 254. 167. 73. 98. 187. 75. 0. 0. 0. 0. 0. 0. 0. 0. 0.
      0. 0. 4. 130. 231. 78. 0. 0. 0. 57. 167. 17. 0. 0. 0. 0. 0. 0. 0.
      0. 0. 0. 43. 231. 156. 0. 0. 0. 0. 0. 140. 77. 0. 0. 0. 0. 0. 0.
      0. 0. 0. 0. 97. 238. 43. 0. 0. 0. 0. 0. 71. 137. 2. 0. 0. 0. 0. 0.
      0. 0. 0. 0. 124. 203. 13. 0. 0. 0. 0. 0. 0. 145. 44. 0. 0. 0. 0.
      0. 0. 0. 0. 1. 166. 105. 0. 0. 0. 0. 0. 0. 0. 106. 97. 0. 0. 0. 0.
      0. 0. 0. 0. 6. 165. 67. 0. 0. 0. 0. 0. 0. 0. 34. 144. 2. 0. 0. 0.
      0. 0. 0. 0. 9. 162. 55. 0. 0. 0. 0. 0. 0. 0. 11. 184. 32. 0. 0. 0.
      0. 0. 0. 0. 21. 184. 25. 0. 0. 0. 0. 0. 0. 0. 10. 187. 53. 0. 0.
      0. 0. 0. 0. 0. 13. 160. 30. 0. 0. 0. 0. 0. 0. 0. 29. 188. 19. 0.
      0. 0. 0. 0. 0. 0. 1. 139. 110. 0. 0. 0. 0. 0. 0. 13. 173. 138. 0.
      0. 0. 0. 0. 0. 0. 0. 0. 22. 126. 127. 34. 26. 26. 32. 90. 186.
      155. 23. 0. 0. 0. 0. 0. 0. 0. 0. 0. 0. 5. 84. 121. 159. 185. 138.
      87. 65. 3. 0. 0. 0. 0. 0. 0. 0. 0. 0. 0. 0. 0. 0. 0. 0. 0. 0. 0.
      0. 0. 0. 0. 0. 0. 0. 0. 0. 0. 0. 0. 0. 0. 0. 0. 0. 0. 0. 0. 0. 0.
      0. 0. 0. 0. 0.</_>
    <_>
      0. 0. 0. 0. 0. 0. 0. 0. 0. 0. 0. 0. 0. 0. 0. 0. 0. 0. 0. 0. 0. 0.
      0. 0. 0. 0. 0. 0. 0. 0. 0. 0. 0. 0. 0. 0. 0. 0. 0. 0. 0. 0. 0. 0.
      0. 0. 0. 0. 0. 0. 0. 0. 0. 0. 0. 0. 0. 0. 0. 0. 0. 0. 0. 0. 0. 0.
      0. 0. 0. 0. 0. 0. 50. 75. 102. 42. 0. 0. 0. 0. 0. 0. 0. 0. 0. 0.
      0. 0. 0. 0. 56. 168. 218. 246. 255. 176. 1. 0. 0. 0. 0. 0. 0. 0.
      0. 0. 0. 0. 2. 136. 238. 145. 153. 255. 206. 205. 57. 0. 0. 0. 0.
      0. 0. 0. 0. 0. 0. 0. 97. 216. 68. 121. 255. 135. 16. 200. 90. 0.
      0. 0. 0. 0. 0. 0. 0. 0. 0. 5. 156. 80. 98. 243. 134. 0. 20. 223.
      69. 0. 0. 0. 0. 0. 0. 0. 0. 0. 0. 0. 26. 112. 231. 124. 0. 0. 78.
      165. 4. 0. 0. 0. 0. 0. 0. 0. 0. 0. 0. 0. 33. 215. 166. 0. 0. 7.
      182. 92. 0. 0. 0. 0. 0. 0. 0. 0. 0. 0. 0. 18. 213. 209. 7. 0. 0.
      100. 210. 6. 0. 0. 0. 0. 0. 0. 0. 0. 0. 0. 0. 134. 247. 82. 0. 0.
      3. 172. 176. 0. 0. 0. 0. 0. 0. 0. 0. 0. 0. 0. 86. 248. 109. 0. 0.
      0. 37. 243. 87. 0. 0. 0. 0. 0. 0. 0. 0. 0. 0. 65. 234. 132. 0. 0.
      0. 46. 182. 131. 0. 0. 0. 0. 0. 0. 0. 0. 0. 0. 8. 229. 163. 0. 0.
      0. 50. 232. 182. 7. 0. 0. 0. 0. 0. 0. 0. 0. 0. 0. 146. 205. 21. 0.
      15. 128. 225. 162. 11. 0. 0. 0. 0. 0. 0. 0. 0. 0. 0. 49. 232. 131.
      50. 102. 202. 242. 134. 8. 0. 0. 0. 0. 0. 0. 0. 0. 0. 0. 0. 102.
      225. 200. 201. 216. 184. 53. 0. 0. 0. 0. 0. 0. 0. 0. 0. 0. 0. 0.
      0. 0. 0. 0. 0. 0. 0. 0. 0. 0. 0. 0. 0. 0. 0. 0. 0. 0. 0. 0. 0. 0.
      0. 0. 0. 0. 0. 0. 0. 0. 0. 0. 0. 0. 0. 0. 0. 0.</_>
    <_>
      0. 0. 0. 0. 0. 0. 0. 0. 0. 0. 0. 0. 0. 0. 0. 0. 0. 0. 0. 0. 0. 0.
      0. 0. 0. 0. 0. 0. 0. 0. 0. 0. 0. 0. 0. 0. 0. 0. 0. 0. 0. 0. 0. 0.
      0. 0. 0. 0. 0. 10. 37. 25. 0. 0. 0. 0. 0. 0. 0. 0. 0. 0. 0. 0. 0.
      0. 0. 0. 0. 71. 255. 228. 67. 0. 0. 0. 0. 0. 0. 0. 0. 0. 0. 0. 0.
      0. 0. 0. 0. 69. 249. 255. 171. 0. 0. 0. 0. 0. 0. 0. 0. 0. 0. 0. 0.
      0. 0. 0. 0. 67. 249. 255. 180. 0. 0. 0. 0. 0. 0. 0. 0. 0. 0. 0. 0.
      0. 0. 0. 0. 99. 253. 255. 177. 0. 0. 0. 0. 0. 0. 0. 0. 0. 0. 0. 0.
      0. 0. 0. 72. 224. 255. 255. 194. 13. 0. 0. 0. 0. 0. 0. 0. 0. 0. 0.
      0. 0. 0. 4. 172. 255. 255. 255. 222. 46. 0. 0. 0. 0. 0. 0. 0. 0.
      0. 0. 0. 0. 0. 75. 238. 198. 120. 255. 184. 1. 0. 0. 0. 0. 0. 0.
      0. 0. 0. 0. 0. 0. 14. 196. 255. 166. 64. 255. 206. 27. 0. 0. 0. 0.
      0. 0. 0. 0. 0. 0. 0. 0. 71. 244. 255. 92. 60. 255. 177. 0. 0. 0.
      0. 0. 0. 0. 0. 0. 0. 0. 0. 0. 10. 193. 255. 120. 155. 255. 229.
      47. 0. 0. 0. 0. 0. 0. 0. 0. 0. 0. 0. 0. 0. 179. 255. 75. 179. 255.
      153. 15. 0. 0. 0. 0. 0. 0. 0. 0. 0. 0. 0. 0. 0. 180. 255. 210.
      237. 229. 37. 0. 0. 0. 0. 0. 0. 0. 0. 0. 0. 0. 0. 0. 0. 187. 255.
      255. 255. 165. 5. 0. 0. 0. 0. 0. 0. 0. 0. 0. 0. 0. 0. 0. 0. 106.
      188. 253. 181. 66. 0. 0. 0. 0. 0. 0. 0. 0. 0. 0. 0. 0. 0. 0. 0. 0.
      12. 34. 11. 0. 0. 0. 0. 0. 0. 0. 0. 0. 0. 0. 0. 0. 0. 0. 0. 0. 0.
      0. 0. 0. 0. 0. 0. 0. 0. 0. 0. 0. 0. 0. 0. 0. 0. 0. 0. 0. 0. 0. 0.
      0. 0. 0. 0. 0. 0. 0. 0. 0.</_>
    <_>
      0. 0. 0. 0. 0. 0. 0. 0. 0. 0. 0. 0. 0. 0. 0. 0. 0. 0. 0. 0. 0. 0.
      0. 0. 0. 0. 0. 0. 0. 0. 0. 0. 0. 0. 0. 0. 0. 0. 0. 0. 0. 0. 0. 0.
      0. 0. 0. 0. 0. 0. 0. 0. 0. 0. 0. 0. 0. 0. 0. 0. 0. 0. 0. 0. 0. 0.
      0. 0. 0. 0. 0. 0. 0. 0. 0. 0. 0. 0. 0. 0. 0. 0. 0. 0. 0. 0. 0. 0.
      0. 0. 0. 0. 0. 6. 2. 0. 0. 0. 0. 0. 0. 0. 0. 0. 0. 0. 0. 53. 104.
      55. 0. 65. 120. 157. 177. 85. 5. 0. 0. 0. 0. 0. 0. 0. 0. 77. 170.
      238. 207. 61. 27. 179. 104. 63. 123. 220. 113. 0. 0. 0. 0. 0. 0.
      0. 98. 248. 202. 77. 14. 0. 11. 62. 2. 0. 0. 77. 222. 50. 0. 0. 0.
      0. 0. 77. 248. 137. 9. 0. 0. 0. 0. 0. 0. 0. 0. 18. 201. 134. 0. 0.
      0. 0. 0. 113. 255. 8. 0. 0. 0. 0. 0. 0. 0. 0. 0. 0. 162. 211. 0.
      0. 0. 0. 0. 110. 255. 5. 0. 0. 0. 0. 0. 0. 0. 0. 0. 0. 161. 221.
      0. 0. 0. 0. 0. 68. 232. 42. 0. 0. 0. 0. 0. 0. 0. 0. 0. 25. 213.
      147. 0. 0. 0. 0. 0. 8. 182. 176. 0. 0. 0. 0. 0. 0. 0. 0. 0. 132.
      214. 33. 0. 0. 0. 0. 0. 0. 39. 186. 112. 26. 0. 0. 0. 0. 0. 8.
      114. 226. 76. 0. 0. 0. 0. 0. 0. 0. 0. 49. 205. 201. 117. 33. 13.
      31. 98. 184. 199. 63. 2. 0. 0. 0. 0. 0. 0. 0. 0. 0. 27. 111. 159.
      184. 190. 192. 188. 120. 18. 0. 0. 0. 0. 0. 0. 0. 0. 0. 0. 0. 0.
      0. 0. 10. 14. 14. 6. 0. 0. 0. 0. 0. 0. 0. 0. 0. 0. 0. 0. 0. 0. 0.
      0. 0. 0. 0. 0. 0. 0. 0. 0. 0. 0. 0. 0. 0. 0. 0. 0. 0. 0. 0. 0. 0.
      0. 0. 0. 0. 0. 0. 0. 0. 0. 0. 0. 0. 0. 0. 0. 0. 0. 0. 0. 0. 0. 0.
      0. 0. 0. 0. 0. 0. 0. 0.</_>
    <_>
      0. 0. 0. 0. 0. 0. 0. 0. 0. 0. 0. 0. 0. 0. 0. 0. 0. 0. 0. 0. 0. 0.
      0. 0. 0. 0. 0. 0. 0. 0. 0. 0. 0. 0. 0. 0. 0. 0. 0. 0. 0. 0. 0. 0.
      0. 0. 0. 0. 0. 0. 0. 0. 0. 0. 0. 0. 0. 0. 0. 0. 0. 0. 0. 0. 0. 0.
      0. 0. 0. 0. 0. 0. 0. 0. 0. 0. 0. 0. 0. 0. 0. 0. 0. 0. 0. 0. 0. 0.
      0. 0. 0. 0. 0. 0. 0. 0. 0. 0. 0. 0. 0. 0. 0. 0. 0. 0. 0. 5. 57.
      97. 93. 19. 0. 0. 0. 0. 0. 0. 0. 0. 0. 0. 0. 0. 0. 0. 76. 174.
      234. 255. 255. 144. 11. 0. 0. 0. 0. 0. 0. 0. 0. 0. 0. 0. 54. 172.
      239. 233. 255. 237. 231. 229. 214. 175. 57. 0. 0. 0. 0. 0. 0. 0.
      0. 52. 235. 232. 109. 16. 167. 166. 49. 47. 74. 148. 205. 134. 10.
      0. 0. 0. 0. 0. 0. 93. 222. 43. 0. 0. 17. 61. 49. 5. 0. 1. 51. 187.
      146. 3. 0. 0. 0. 0. 0. 89. 229. 53. 0. 0. 0. 0. 3. 1. 0. 0. 0. 48.
      208. 65. 0. 0. 0. 0. 0. 31. 191. 227. 161. 105. 27. 0. 0. 0. 0. 0.
      0. 14. 195. 178. 0. 0. 0. 0. 0. 0. 18. 132. 220. 240. 233. 188.
      102. 60. 35. 21. 42. 160. 255. 155. 0. 0. 0. 0. 0. 0. 0. 0. 7. 66.
      120. 153. 192. 190. 207. 200. 251. 251. 175. 36. 0. 0. 0. 0. 0. 0.
      0. 0. 0. 0. 0. 0. 14. 31. 52. 65. 61. 56. 14. 0. 0. 0. 0. 0. 0. 0.
      0. 0. 0. 0. 0. 0. 0. 0. 0. 0. 0. 0. 0. 0. 0. 0. 0. 0. 0. 0. 0. 0.
      0. 0. 0. 0. 0. 0. 0. 0. 0. 0. 0. 0. 0. 0. 0. 0. 0. 0. 0. 0. 0. 0.
      0. 0. 0. 0. 0. 0. 0. 0. 0. 0. 0. 0. 0. 0. 0. 0. 0. 0. 0. 0. 0. 0.
      0. 0. 0. 0. 0. 0. 0. 0. 0. 0. 0. 0. 0. 0. 0. 0. 0. 0. 0. 0. 0. 0.
      0. 0. 0. 0. 0. 0. 0. 0.</_>
    <_>
      0. 0. 0. 0. 0. 0. 0. 0. 0. 0. 0. 0. 0. 0. 0. 0. 0. 0. 0. 0. 0. 0.
      0. 0. 0. 0. 0. 0. 0. 0. 0. 0. 0. 0. 0. 0. 0. 0. 0. 0. 0. 0. 0. 0.
      0. 0. 0. 0. 0. 0. 0. 0. 0. 0. 0. 0. 0. 0. 0. 0. 0. 0. 0. 0. 0. 0.
      0. 0. 0. 0. 0. 0. 0. 0. 0. 0. 0. 0. 0. 0. 0. 0. 0. 0. 0. 0. 0. 0.
      0. 7. 10. 9. 3. 0. 0. 0. 0. 0. 0. 0. 0. 0. 0. 0. 0. 0. 0. 27. 104.
      222. 243. 242. 187. 129. 70. 20. 2. 0. 0. 0. 0. 0. 0. 0. 0. 0. 54.
      202. 255. 255. 255. 255. 255. 255. 255. 185. 44. 0. 0. 0. 0. 0. 0.
      0. 0. 54. 214. 255. 255. 243. 235. 255. 177. 163. 231. 255. 174.
      10. 0. 0. 0. 0. 0. 0. 70. 240. 236. 163. 117. 76. 150. 159. 7. 0.
      60. 246. 241. 29. 0. 0. 0. 0. 0. 71. 245. 238. 85. 0. 0. 31. 129.
      14. 0. 0. 0. 131. 234. 25. 0. 0. 0. 0. 0. 146. 255. 83. 0. 0. 0.
      28. 26. 0. 0. 0. 0. 80. 226. 22. 0. 0. 0. 0. 12. 189. 209. 7. 0.
      0. 0. 0. 0. 0. 0. 0. 0. 72. 243. 31. 0. 0. 0. 0. 11. 187. 188. 5.
      0. 0. 0. 0. 0. 0. 0. 0. 0. 101. 255. 37. 0. 0. 0. 0. 11. 185. 195.
      5. 0. 0. 0. 0. 0. 0. 0. 0. 48. 242. 238. 29. 0. 0. 0. 0. 20. 215.
      248. 34. 0. 0. 0. 0. 0. 0. 26. 126. 221. 189. 54. 2. 0. 0. 0. 0.
      4. 151. 255. 206. 137. 97. 71. 51. 90. 149. 225. 246. 184. 8. 0.
      0. 0. 0. 0. 0. 0. 23. 88. 142. 255. 255. 244. 141. 118. 187. 107.
      69. 14. 0. 0. 0. 0. 0. 0. 0. 0. 0. 0. 0. 51. 106. 87. 30. 0. 11.
      0. 0. 0. 0. 0. 0. 0. 0. 0. 0. 0. 0. 0. 0. 0. 0. 0. 0. 0. 0. 0. 0.
      0. 0. 0. 0. 0. 0. 0. 0. 0. 0. 0. 0. 0. 0. 0. 0. 0. 0. 0. 0. 0. 0.
      0. 0. 0. 0.</_>
    <_>
      0. 0. 0. 0. 0. 0. 0. 0. 0. 0. 0. 0. 0. 0. 0. 0. 0. 0. 0. 0. 0. 0.
      0. 0. 0. 0. 0. 0. 0. 0. 0. 0. 0. 0. 0. 0. 0. 0. 0. 0. 0. 0. 0. 0.
      0. 0. 0. 0. 0. 0. 0. 5. 0. 6. 0. 0. 0. 0. 0. 0. 0. 0. 0. 0. 0. 0.
      0. 0. 0. 0. 46. 160. 141. 165. 122. 11. 0. 0. 0. 0. 0. 0. 0. 0. 0.
      0. 0. 0. 0. 66. 226. 205. 195. 236. 219. 151. 22. 0. 0. 0. 0. 0.
      0. 0. 0. 0. 0. 0. 46. 200. 210. 48. 26. 65. 51. 205. 134. 0. 0. 0.
      0. 0. 0. 0. 0. 0. 0. 59. 217. 213. 43. 0. 0. 0. 0. 90. 209. 27. 0.
      0. 0. 0. 0. 0. 0. 0. 59. 232. 207. 51. 0. 0. 0. 0. 0. 21. 189.
      128. 0. 0. 0. 0. 0. 0. 0. 65. 226. 186. 33. 0. 0. 0. 0. 0. 0. 0.
      120. 188. 0. 0. 0. 0. 0. 0. 58. 223. 241. 47. 0. 0. 0. 0. 0. 0. 0.
      0. 122. 222. 0. 0. 0. 0. 0. 33. 217. 208. 95. 66. 0. 0. 0. 0. 0.
      0. 0. 0. 123. 170. 0. 0. 0. 0. 0. 78. 246. 113. 0. 0. 0. 0. 0. 0.
      0. 0. 0. 6. 172. 106. 0. 0. 0. 0. 0. 110. 233. 19. 0. 0. 0. 0. 0.
      0. 0. 0. 0. 75. 179. 20. 0. 0. 0. 0. 0. 113. 224. 1. 0. 0. 0. 0.
      0. 0. 0. 0. 33. 161. 67. 0. 0. 0. 0. 0. 0. 101. 255. 97. 3. 4. 4.
      7. 27. 75. 125. 164. 175. 88. 0. 0. 0. 0. 0. 0. 0. 28. 155. 215.
      196. 209. 205. 183. 208. 221. 177. 91. 23. 0. 0. 0. 0. 0. 0. 0. 0.
      0. 2. 50. 98. 128. 120. 79. 67. 46. 5. 0. 0. 0. 0. 0. 0. 0. 0. 0.
      0. 0. 0. 0. 0. 0. 0. 0. 0. 0. 0. 0. 0. 0. 0. 0. 0. 0. 0. 0. 0. 0.
      0. 0. 0. 0. 0. 0. 0. 0. 0. 0. 0. 0. 0. 0. 0. 0. 0. 0. 0. 0. 0. 0.
      0. 0. 0. 0. 0. 0. 0. 0. 0. 0. 0. 0. 0. 0.</_>
    <_>
      0. 0. 0. 0. 0. 0. 0. 0. 0. 0. 0. 0. 0. 0. 0. 0. 0. 0. 0. 0. 0. 0.
      0. 0. 0. 0. 0. 0. 0. 0. 0. 0. 0. 0. 0. 0. 0. 0. 0. 0. 0. 0. 0. 0.
      0. 0. 0. 0. 21. 118. 163. 115. 23. 0. 0. 0. 0. 0. 0. 0. 0. 0. 0.
      0. 0. 0. 0. 0. 27. 147. 140. 186. 175. 73. 0. 0. 0. 0. 0. 0. 0. 0.
      0. 0. 0. 0. 0. 0. 0. 0. 0. 24. 105. 176. 104. 8. 0. 0. 0. 0. 0. 0.
      0. 0. 0. 0. 0. 0. 0. 0. 0. 0. 0. 47. 222. 84. 0. 0. 0. 0. 0. 0. 0.
      0. 0. 0. 0. 0. 0. 0. 0. 0. 0. 24. 183. 188. 9. 0. 0. 0. 0. 0. 0.
      0. 0. 24. 62. 2. 0. 0. 0. 0. 0. 0. 50. 209. 58. 0. 0. 0. 0. 0. 0.
      0. 0. 82. 152. 5. 0. 0. 0. 0. 0. 0. 4. 202. 88. 0. 0. 0. 0. 0. 0.
      0. 14. 186. 151. 0. 0. 0. 0. 0. 0. 0. 9. 172. 40. 0. 0. 0. 0. 0.
      0. 0. 79. 231. 62. 0. 0. 0. 0. 0. 0. 0. 87. 175. 12. 0. 0. 0. 0.
      0. 0. 0. 84. 198. 13. 0. 0. 0. 0. 0. 0. 15. 199. 92. 0. 0. 0. 0.
      0. 0. 0. 0. 86. 212. 26. 0. 0. 0. 0. 0. 0. 109. 189. 7. 0. 0. 0.
      0. 0. 0. 0. 0. 51. 205. 133. 0. 0. 0. 0. 0. 35. 199. 63. 0. 0. 0.
      0. 0. 0. 0. 0. 0. 0. 70. 221. 131. 36. 41. 45. 108. 160. 64. 2. 0.
      0. 0. 0. 0. 0. 0. 0. 0. 0. 10. 80. 210. 252. 233. 204. 171. 78. 0.
      0. 0. 0. 0. 0. 0. 0. 0. 0. 0. 0. 0. 0. 41. 95. 70. 33. 0. 0. 0. 0.
      0. 0. 0. 0. 0. 0. 0. 0. 0. 0. 0. 0. 0. 0. 0. 0. 0. 0. 0. 0. 0. 0.
      0. 0. 0. 0. 0. 0. 0. 0. 0. 0. 0. 0. 0. 0. 0. 0. 0. 0. 0. 0. 0. 0.
      0. 0. 0. 0. 0. 0. 0. 0. 0. 0. 0. 0. 0. 0. 0. 0. 0. 0. 0. 0. 0.</_>
    <_>
      0. 0. 0. 0. 0. 0. 0. 0. 0. 0. 0. 0. 0. 0. 0. 0. 0. 0. 0. 0. 0. 0.
      0. 0. 0. 0. 0. 0. 0. 0. 0. 0. 0. 0. 0. 0. 0. 0. 0. 0. 0. 0. 0. 0.
      0. 0. 0. 0. 0. 0. 0. 0. 0. 0. 0. 0. 0. 0. 0. 0. 0. 0. 0. 0. 0. 0.
      0. 0. 0. 0. 0. 0. 0. 0. 0. 0. 0. 0. 0. 0. 0. 0. 0. 0. 0. 0. 0. 0.
      13. 41. 16. 0. 0. 0. 0. 0. 0. 0. 0. 0. 0. 0. 0. 0. 0. 0. 0. 74.
      192. 255. 149. 0. 0. 0. 0. 0. 0. 0. 0. 0. 0. 0. 0. 0. 0. 0. 105.
      231. 156. 204. 139. 48. 14. 0. 0. 0. 0. 0. 0. 0. 0. 0. 0. 0. 0.
      97. 255. 180. 21. 159. 239. 242. 230. 222. 117. 11. 0. 0. 0. 0. 0.
      0. 0. 0. 37. 224. 212. 92. 210. 245. 225. 209. 199. 237. 255. 170.
      21. 0. 0. 0. 0. 0. 0. 0. 141. 255. 92. 129. 194. 60. 51. 42. 21.
      47. 103. 240. 132. 0. 0. 0. 0. 0. 0. 50. 230. 193. 17. 60. 43. 0.
      0. 0. 0. 0. 0. 90. 249. 35. 0. 0. 0. 0. 0. 112. 255. 88. 0. 0. 0.
      0. 0. 0. 0. 0. 0. 55. 251. 39. 0. 0. 0. 0. 7. 174. 194. 15. 0. 0.
      0. 0. 0. 0. 0. 0. 2. 170. 254. 33. 0. 0. 0. 0. 28. 244. 119. 0. 0.
      0. 0. 0. 0. 0. 0. 10. 132. 255. 133. 1. 0. 0. 0. 0. 39. 255. 70.
      0. 0. 0. 0. 0. 0. 0. 53. 183. 254. 131. 9. 0. 0. 0. 0. 0. 27. 229.
      86. 0. 0. 0. 11. 34. 94. 164. 240. 221. 96. 8. 0. 0. 0. 0. 0. 0.
      1. 88. 69. 0. 0. 0. 34. 80. 133. 142. 116. 44. 0. 0. 0. 0. 0. 0.
      0. 0. 0. 0. 0. 0. 0. 0. 3. 3. 0. 0. 0. 0. 0. 0. 0. 0. 0. 0. 0. 0.
      0. 0. 0. 0. 0. 0. 0. 0. 0. 0. 0. 0. 0. 0. 0. 0. 0. 0. 0. 0. 0. 0.
      0. 0. 0. 0. 0. 0. 0. 0. 0. 0. 0. 0. 0. 0. 0. 0.</_>
    <_>
      0. 0. 0. 0. 0. 0. 0. 0. 0. 0. 0. 0. 0. 0. 0. 0. 0. 0. 0. 0. 0. 0.
      0. 0. 0. 0. 0. 0. 0. 0. 0. 0. 0. 0. 0. 0. 0. 0. 0. 0. 0. 0. 0. 0.
      0. 0. 0. 0. 0. 0. 0. 28. 24. 0. 0. 0. 0. 0. 0. 0. 0. 0. 0. 0. 0.
      0. 0. 0. 0. 34. 118. 171. 192. 106. 0. 0. 0. 0. 0. 0. 0. 0. 0. 0.
      0. 0. 0. 0. 113. 142. 63. 30. 86. 207. 37. 0. 0. 0. 0. 0. 0. 0. 0.
      0. 0. 0. 0. 104. 214. 185. 0. 0. 0. 168. 103. 0. 0. 0. 0. 0. 0. 0.
      0. 0. 0. 0. 87. 134. 27. 56. 5. 0. 0. 123. 158. 0. 0. 0. 0. 0. 0.
      0. 0. 0. 0. 30. 158. 33. 0. 0. 0. 0. 0. 91. 176. 4. 0. 0. 0. 0. 0.
      0. 0. 0. 0. 91. 99. 0. 0. 0. 0. 0. 0. 67. 157. 6. 0. 0. 0. 0. 0.
      0. 0. 0. 9. 148. 40. 0. 0. 0. 0. 0. 0. 66. 157. 6. 0. 0. 0. 0. 0.
      0. 0. 0. 17. 167. 0. 0. 0. 0. 0. 0. 0. 59. 190. 10. 0. 0. 0. 0. 0.
      0. 0. 0. 18. 160. 0. 0. 0. 0. 0. 0. 0. 91. 213. 8. 0. 0. 0. 0. 0.
      0. 0. 0. 18. 160. 0. 0. 0. 0. 0. 0. 0. 136. 138. 0. 0. 0. 0. 0. 0.
      0. 0. 0. 18. 158. 0. 0. 0. 0. 0. 0. 29. 213. 60. 0. 0. 0. 0. 0. 0.
      0. 0. 0. 13. 192. 37. 0. 0. 0. 0. 36. 182. 140. 5. 0. 0. 0. 0. 0.
      0. 0. 0. 0. 0. 135. 180. 69. 59. 77. 148. 209. 133. 0. 0. 0. 0. 0.
      0. 0. 0. 0. 0. 0. 0. 23. 168. 227. 206. 196. 153. 78. 1. 0. 0. 0.
      0. 0. 0. 0. 0. 0. 0. 0. 0. 0. 5. 27. 23. 17. 0. 0. 0. 0. 0. 0. 0.
      0. 0. 0. 0. 0. 0. 0. 0. 0. 0. 0. 0. 0. 0. 0. 0. 0. 0. 0. 0. 0. 0.
      0. 0. 0. 0. 0. 0. 0. 0. 0. 0. 0. 0. 0. 0. 0. 0. 0. 0. 0. 0. 0.</_>
    <_>
      0. 0. 0. 0. 0. 0. 0. 0. 0. 0. 0. 0. 0. 0. 0. 0. 0. 0. 0. 0. 0. 0.
      0. 0. 0. 0. 0. 0. 0. 0. 0. 0. 0. 0. 0. 0. 0. 0. 0. 0. 0. 0. 0. 0.
      0. 0. 0. 0. 0. 0. 36. 183. 79. 0. 0. 0. 0. 0. 0. 0. 0. 0. 0. 0. 0.
      0. 0. 0. 0. 0. 67. 255. 212. 0. 0. 0. 0. 0. 0. 0. 0. 0. 0. 0. 0.
      0. 0. 0. 0. 0. 100. 255. 175. 0. 0. 0. 0. 0. 0. 0. 0. 0. 0. 0. 0.
      0. 0. 0. 0. 29. 200. 255. 97. 0. 0. 0. 0. 0. 0. 0. 0. 0. 0. 0. 0.
      0. 0. 0. 13. 173. 255. 255. 96. 0. 0. 0. 0. 0. 0. 0. 0. 0. 0. 0.
      0. 1. 10. 36. 169. 244. 207. 255. 97. 0. 0. 0. 0. 0. 0. 0. 0. 0.
      0. 0. 21. 142. 196. 245. 203. 78. 89. 255. 96. 0. 0. 0. 0. 0. 0.
      0. 0. 0. 0. 0. 10. 81. 110. 84. 19. 0. 92. 255. 106. 0. 0. 0. 0.
      0. 0. 0. 0. 0. 0. 0. 0. 0. 0. 0. 0. 0. 69. 254. 148. 0. 0. 0. 0.
      0. 0. 0. 0. 0. 0. 0. 0. 0. 0. 0. 0. 0. 51. 244. 105. 0. 0. 0. 0.
      0. 0. 0. 0. 0. 0. 0. 0. 0. 0. 0. 0. 0. 39. 228. 80. 0. 11. 7. 0.
      0. 0. 0. 0. 0. 0. 0. 0. 0. 33. 120. 144. 135. 127. 210. 170. 115.
      187. 86. 0. 0. 0. 0. 0. 0. 0. 0. 18. 142. 223. 255. 250. 234. 196.
      168. 171. 171. 169. 55. 0. 0. 0. 0. 0. 0. 0. 0. 71. 252. 237. 134.
      32. 7. 4. 0. 1. 1. 1. 0. 0. 0. 0. 0. 0. 0. 0. 0. 11. 83. 52. 0. 0.
      0. 0. 0. 0. 0. 0. 0. 0. 0. 0. 0. 0. 0. 0. 0. 0. 0. 0. 0. 0. 0. 0.
      0. 0. 0. 0. 0. 0. 0. 0. 0. 0. 0. 0. 0. 0. 0. 0. 0. 0. 0. 0. 0. 0.
      0. 0. 0. 0. 0. 0. 0. 0. 0. 0. 0. 0. 0. 0. 0. 0. 0. 0. 0. 0. 0. 0.
      0. 0. 0. 0. 0.</_>
    <_>
      0. 0. 0. 0. 0. 0. 0. 0. 0. 0. 0. 0. 0. 0. 0. 0. 0. 0. 0. 0. 0. 0.
      0. 0. 0. 0. 0. 0. 0. 0. 0. 0. 0. 0. 0. 0. 0. 0. 0. 0. 0. 0. 0. 0.
      0. 0. 0. 0. 0. 0. 0. 0. 0. 24. 12. 0. 0. 0. 0. 0. 0. 0. 0. 0. 0.
      0. 0. 0. 0. 0. 0. 13. 119. 231. 106. 0. 0. 0. 0. 0. 0. 0. 0. 0. 0.
      0. 0. 0. 0. 0. 84. 196. 255. 255. 126. 33. 0. 0. 0. 0. 0. 0. 0. 0.
      0. 0. 0. 0. 35. 153. 242. 197. 122. 254. 255. 198. 27. 0. 0. 0. 0.
      0. 0. 0. 0. 0. 6. 122. 226. 231. 108. 10. 140. 255. 210. 74. 16.
      0. 0. 0. 0. 0. 0. 0. 0. 46. 200. 248. 152. 46. 0. 0. 217. 246. 63.
      0. 0. 0. 0. 0. 0. 0. 0. 0. 47. 207. 218. 95. 0. 0. 0. 112. 255.
      143. 0. 0. 0. 0. 0. 0. 0. 0. 0. 15. 185. 168. 28. 0. 0. 0. 20.
      205. 232. 27. 0. 0. 0. 0. 0. 0. 0. 0. 0. 33. 81. 11. 0. 0. 0. 0.
      107. 255. 102. 0. 0. 0. 0. 0. 0. 0. 0. 0. 0. 0. 0. 0. 0. 0. 0. 3.
      207. 212. 17. 0. 0. 0. 0. 0. 0. 0. 0. 0. 0. 0. 0. 0. 0. 0. 0. 18.
      224. 152. 0. 0. 0. 0. 0. 0. 0. 0. 0. 0. 0. 0. 0. 0. 0. 0. 0. 113.
      255. 104. 0. 6. 0. 0. 0. 0. 0. 0. 0. 0. 0. 0. 3. 4. 0. 0. 0. 150.
      233. 90. 112. 105. 0. 0. 0. 0. 0. 0. 0. 0. 0. 0. 113. 200. 133.
      126. 132. 229. 255. 245. 182. 65. 0. 0. 0. 0. 0. 0. 0. 0. 0. 0.
      61. 184. 249. 255. 255. 207. 155. 88. 24. 0. 0. 0. 0. 0. 0. 0. 0.
      0. 0. 0. 0. 10. 30. 37. 35. 18. 1. 0. 0. 0. 0. 0. 0. 0. 0. 0. 0.
      0. 0. 0. 0. 0. 0. 0. 0. 0. 0. 0. 0. 0. 0. 0. 0. 0. 0. 0. 0. 0. 0.
      0. 0. 0. 0. 0. 0. 0. 0. 0. 0. 0. 0. 0. 0. 0. 0. 0.</_>
    <_>
      0. 0. 0. 0. 0. 0. 0. 0. 0. 0. 0. 0. 0. 0. 0. 0. 0. 0. 0. 0. 0. 0.
      0. 0. 0. 0. 0. 0. 0. 0. 0. 0. 0. 0. 0. 0. 0. 0. 0. 0. 0. 0. 0. 0.
      0. 0. 0. 0. 0. 0. 0. 0. 0. 0. 0. 0. 0. 0. 0. 0. 0. 0. 0. 0. 0. 0.
      0. 0. 0. 17. 82. 30. 0. 0. 0. 0. 0. 0. 0. 0. 0. 0. 0. 0. 0. 0. 0.
      0. 18. 167. 255. 196. 22. 0. 0. 0. 0. 0. 0. 0. 0. 0. 0. 0. 0. 0.
      0. 0. 80. 246. 221. 201. 42. 0. 0. 0. 0. 0. 0. 0. 0. 0. 0. 0. 0.
      0. 0. 0. 129. 255. 98. 1. 1. 0. 0. 0. 0. 0. 0. 0. 0. 0. 0. 0. 0.
      0. 0. 12. 187. 246. 34. 0. 0. 0. 0. 0. 0. 0. 0. 0. 0. 0. 0. 0. 0.
      0. 0. 21. 215. 237. 7. 0. 0. 0. 0. 0. 0. 0. 0. 0. 0. 0. 0. 0. 0.
      0. 0. 21. 213. 238. 9. 0. 0. 0. 0. 0. 0. 0. 0. 0. 0. 0. 0. 0. 0.
      0. 0. 21. 213. 238. 9. 0. 0. 0. 0. 0. 0. 0. 0. 0. 0. 0. 0. 0. 0.
      0. 0. 21. 216. 238. 5. 0. 0. 0. 0. 0. 0. 0. 0. 0. 0. 0. 0. 0. 0.
      0. 0. 0. 143. 249. 51. 0. 0. 0. 0. 0. 0. 0. 0. 0. 0. 0. 0. 0. 0.
      0. 0. 0. 63. 243. 195. 6. 0. 0. 0. 0. 0. 0. 0. 0. 0. 0. 0. 0. 0.
      0. 0. 0. 11. 186. 255. 101. 0. 0. 0. 0. 0. 0. 0. 0. 0. 0. 0. 0. 0.
      0. 0. 0. 0. 40. 240. 247. 92. 0. 0. 0. 0. 0. 0. 0. 0. 0. 0. 0. 0.
      0. 0. 0. 0. 0. 75. 209. 228. 15. 0. 0. 0. 0. 0. 0. 0. 0. 0. 0. 0.
      0. 0. 0. 0. 0. 0. 40. 169. 18. 0. 0. 0. 0. 0. 0. 0. 0. 0. 0. 0. 0.
      0. 0. 0. 0. 0. 0. 0. 0. 0. 0. 0. 0. 0. 0. 0. 0. 0. 0. 0. 0. 0. 0.
      0. 0. 0. 0. 0. 0. 0. 0. 0. 0. 0. 0.</_>
    <_>
      0. 0. 0. 0. 0. 0. 0. 0. 0. 0. 0. 0. 0. 0. 0. 0. 0. 0. 0. 0. 0. 0.
      0. 0. 0. 0. 0. 0. 0. 0. 0. 0. 0. 0. 0. 0. 0. 0. 0. 0. 0. 0. 0. 0.
      0. 0. 0. 0. 0. 0. 23. 12. 0. 0. 0. 0. 0. 0. 0. 0. 0. 0. 0. 0. 0.
      0. 0. 0. 0. 9. 200. 74. 0. 0. 0. 0. 0. 0. 0. 0. 0. 0. 0. 0. 0. 0.
      0. 0. 0. 14. 221. 59. 0. 0. 0. 0. 0. 0. 0. 0. 0. 0. 0. 0. 0. 0. 0.
      0. 0. 13. 219. 60. 0. 0. 0. 0. 0. 0. 0. 0. 0. 0. 0. 0. 0. 0. 0. 0.
      0. 12. 220. 61. 0. 0. 0. 0. 0. 0. 0. 0. 0. 0. 0. 0. 0. 0. 0. 0. 0.
      23. 216. 53. 0. 0. 0. 0. 0. 0. 0. 0. 0. 0. 0. 0. 0. 0. 0. 0. 0.
      82. 202. 19. 0. 0. 0. 0. 0. 0. 0. 0. 0. 0. 0. 0. 0. 0. 0. 0. 0.
      68. 223. 52. 0. 0. 0. 0. 0. 0. 0. 0. 0. 0. 0. 0. 0. 0. 0. 0. 0.
      15. 220. 61. 0. 0. 0. 0. 0. 0. 0. 0. 0. 0. 0. 0. 0. 0. 0. 0. 0.
      13. 221. 60. 0. 0. 0. 0. 0. 0. 0. 0. 0. 0. 0. 0. 0. 0. 0. 0. 0. 5.
      205. 106. 0. 0. 0. 0. 0. 0. 0. 0. 0. 0. 0. 0. 0. 0. 0. 0. 0. 1.
      181. 155. 0. 0. 0. 0. 0. 0. 0. 0. 0. 0. 0. 0. 0. 0. 0. 0. 0. 2.
      183. 165. 3. 0. 0. 0. 0. 0. 0. 0. 0. 0. 0. 0. 0. 0. 0. 0. 0. 8.
      233. 103. 0. 0. 0. 0. 0. 0. 0. 0. 0. 0. 0. 0. 0. 0. 0. 0. 0. 13.
      230. 69. 0. 0. 0. 0. 0. 0. 0. 0. 0. 0. 0. 0. 0. 0. 0. 0. 0. 2. 30.
      7. 0. 0. 0. 0. 0. 0. 0. 0. 0. 0. 0. 0. 0. 0. 0. 0. 0. 0. 0. 0. 0.
      0. 0. 0. 0. 0. 0. 0. 0. 0. 0. 0. 0. 0. 0. 0. 0. 0. 0. 0. 0. 0. 0.
      0. 0. 0. 0. 0.</_>
    <_>
      0. 0. 0. 0. 0. 0. 0. 0. 0. 0. 0. 0. 0. 0. 0. 0. 0. 0. 0. 0. 0. 0.
      0. 0. 0. 0. 0. 0. 0. 0. 0. 0. 0. 0. 0. 0. 0. 0. 0. 0. 0. 0. 0. 0.
      0. 0. 0. 0. 0. 0. 0. 0. 0. 0. 0. 0. 0. 0. 0. 0. 0. 0. 0. 0. 0. 0.
      0. 0. 0. 0. 0. 0. 0. 59. 32. 0. 0. 0. 0. 0. 0. 0. 0. 0. 0. 0. 0.
      0. 0. 0. 0. 0. 91. 244. 100. 0. 0. 0. 0. 0. 0. 0. 0. 0. 0. 0. 0.
      0. 0. 0. 0. 46. 228. 239. 53. 0. 0. 0. 0. 0. 0. 0. 0. 0. 0. 0. 0.
      0. 0. 0. 30. 189. 255. 113. 0. 0. 0. 0. 0. 0. 0. 0. 0. 0. 0. 0. 0.
      0. 0. 17. 176. 255. 218. 18. 0. 0. 0. 0. 0. 0. 0. 0. 0. 0. 0. 0.
      0. 0. 0. 155. 255. 255. 151. 0. 0. 0. 0. 0. 0. 0. 0. 0. 0. 0. 0.
      0. 0. 15. 158. 238. 228. 255. 123. 0. 0. 0. 0. 0. 0. 0. 0. 0. 0.
      0. 0. 2. 41. 178. 227. 89. 170. 223. 29. 0. 0. 0. 0. 0. 0. 0. 0.
      0. 0. 0. 67. 168. 237. 208. 59. 15. 228. 160. 3. 0. 0. 0. 0. 0. 0.
      0. 0. 0. 0. 28. 192. 220. 109. 19. 0. 110. 253. 91. 0. 0. 0. 0. 0.
      0. 0. 0. 0. 0. 0. 0. 35. 18. 0. 0. 6. 204. 211. 18. 0. 0. 0. 0. 0.
      0. 0. 0. 0. 0. 0. 0. 0. 0. 0. 0. 38. 227. 193. 0. 0. 0. 0. 0. 0.
      0. 0. 0. 0. 0. 0. 0. 0. 0. 0. 0. 64. 244. 192. 0. 0. 0. 0. 0. 0.
      0. 0. 0. 0. 0. 0. 0. 0. 0. 0. 0. 84. 255. 163. 0. 0. 0. 0. 0. 0.
      0. 0. 0. 0. 0. 0. 0. 0. 0. 0. 0. 23. 181. 117. 0. 0. 0. 0. 0. 0.
      0. 0. 0. 0. 0. 0. 0. 0. 0. 0. 0. 0. 0. 0. 0. 0. 0. 0. 0. 0. 0. 0.
      0. 0. 0. 0. 0. 0. 0. 0. 0. 0. 0. 0. 0. 0. 0. 0. 0. 0. 0. 0. 0.</_>
    <_>
      0. 0. 0. 0. 0. 0. 0. 0. 0. 0. 0. 0. 0. 0. 0. 0. 0. 0. 0. 0. 0. 0.
      0. 0. 0. 0. 0. 0. 0. 0. 0. 0. 0. 0. 0. 0. 0. 0. 0. 0. 0. 0. 0. 0.
      0. 0. 0. 0. 0. 0. 11. 34. 10. 0. 0. 0. 0. 0. 0. 0. 0. 0. 0. 0. 0.
      0. 0. 0. 0. 0. 138. 255. 180. 88. 1. 0. 0. 0. 0. 0. 0. 0. 0. 0. 0.
      0. 0. 0. 0. 24. 230. 254. 255. 224. 40. 0. 0. 0. 0. 0. 0. 0. 0. 0.
      0. 0. 0. 0. 0. 91. 253. 252. 255. 192. 21. 0. 0. 0. 0. 0. 0. 0. 0.
      0. 0. 0. 0. 0. 0. 136. 255. 253. 249. 104. 0. 0. 0. 0. 0. 0. 0. 0.
      0. 0. 0. 0. 0. 0. 40. 204. 255. 254. 244. 82. 0. 0. 0. 0. 0. 0. 0.
      0. 0. 0. 0. 0. 0. 10. 177. 255. 252. 252. 255. 131. 0. 0. 0. 0. 0.
      0. 0. 0. 0. 0. 0. 0. 0. 10. 178. 255. 252. 253. 251. 118. 3. 4. 0.
      0. 2. 0. 0. 0. 0. 0. 0. 0. 0. 11. 181. 255. 252. 254. 245. 180.
      108. 62. 0. 4. 28. 5. 0. 0. 0. 0. 0. 0. 0. 35. 232. 254. 252. 246.
      114. 6. 16. 12. 0. 0. 5. 0. 0. 0. 0. 0. 0. 0. 0. 149. 255. 251.
      254. 231. 24. 0. 0. 0. 0. 0. 0. 0. 0. 0. 0. 0. 0. 0. 26. 225. 255.
      251. 254. 229. 26. 0. 0. 0. 0. 0. 0. 0. 0. 0. 0. 0. 0. 0. 68. 240.
      254. 252. 255. 161. 5. 0. 0. 0. 0. 0. 0. 0. 0. 0. 0. 0. 0. 0. 101.
      255. 253. 255. 214. 32. 0. 0. 0. 0. 0. 0. 0. 0. 0. 0. 0. 0. 0. 0.
      24. 170. 255. 213. 90. 0. 0. 0. 0. 0. 0. 0. 0. 0. 0. 0. 0. 0. 0.
      0. 0. 11. 37. 20. 0. 0. 0. 0. 0. 0. 0. 0. 0. 0. 0. 0. 0. 0. 0. 0.
      0. 0. 0. 0. 0. 0. 0. 0. 0. 0. 0. 0. 0. 0. 0. 0. 0. 0. 0. 0. 0. 0.
      0. 0. 0. 0. 0. 0. 0. 0. 0. 0. 0. 0.</_>
    <_>
      0. 0. 0. 0. 0. 0. 0. 0. 0. 0. 0. 0. 0. 0. 0. 0. 0. 0. 0. 0. 0. 0.
      0. 0. 0. 0. 0. 0. 0. 0. 0. 0. 0. 0. 0. 0. 0. 0. 0. 0. 0. 0. 0. 0.
      0. 0. 0. 0. 0. 0. 0. 31. 35. 8. 0. 0. 0. 0. 0. 0. 0. 0. 0. 0. 0.
      0. 0. 0. 0. 0. 102. 246. 255. 109. 0. 0. 0. 0. 0. 0. 0. 0. 0. 0.
      0. 0. 0. 0. 0. 23. 234. 255. 255. 200. 48. 0. 0. 0. 0. 0. 0. 0. 0.
      0. 0. 0. 0. 0. 0. 41. 248. 253. 253. 251. 124. 0. 0. 0. 0. 0. 0.
      0. 0. 0. 0. 0. 0. 0. 0. 127. 255. 253. 255. 210. 29. 0. 0. 0. 0.
      0. 0. 0. 0. 0. 0. 0. 0. 0. 39. 216. 255. 253. 255. 141. 0. 0. 0.
      0. 0. 0. 0. 0. 0. 0. 0. 0. 0. 0. 84. 248. 254. 253. 255. 124. 0.
      0. 0. 0. 0. 0. 0. 0. 0. 0. 0. 0. 0. 0. 136. 255. 253. 255. 239.
      67. 0. 0. 0. 0. 0. 0. 0. 0. 0. 0. 0. 0. 0. 72. 189. 251. 253. 255.
      239. 66. 0. 0. 0. 0. 0. 0. 0. 0. 0. 0. 0. 0. 0. 182. 255. 251.
      252. 255. 249. 86. 0. 0. 0. 0. 0. 0. 0. 0. 0. 0. 0. 0. 0. 53. 158.
      249. 253. 229. 198. 65. 0. 0. 0. 0. 0. 0. 0. 0. 0. 0. 0. 0. 6.
      128. 210. 254. 235. 78. 1. 0. 0. 0. 0. 0. 0. 0. 0. 0. 0. 0. 0. 0.
      121. 255. 255. 254. 248. 129. 1. 0. 0. 0. 0. 0. 0. 0. 0. 0. 0. 0.
      0. 0. 149. 255. 252. 255. 231. 62. 0. 0. 0. 0. 0. 0. 0. 0. 0. 0.
      0. 0. 0. 0. 34. 172. 255. 250. 102. 0. 0. 0. 0. 0. 0. 0. 0. 0. 0.
      0. 0. 0. 0. 0. 0. 9. 35. 32. 0. 0. 0. 0. 0. 0. 0. 0. 0. 0. 0. 0.
      0. 0. 0. 0. 0. 0. 0. 0. 0. 0. 0. 0. 0. 0. 0. 0. 0. 0. 0. 0. 0. 0.
      0. 0. 0. 0. 0. 0. 0. 0. 0. 0. 0. 0. 0. 0. 0. 0.</_>
    <_>
      0. 0. 0. 0. 0. 0. 0. 0. 0. 0. 0. 0. 0. 0. 0. 0. 0. 0. 0. 0. 0. 0.
      0. 0. 0. 0. 0. 0. 0. 0. 0. 0. 0. 0. 0. 0. 0. 0. 0. 0. 0. 0. 0. 0.
      0. 0. 0. 0. 0. 0. 14. 38. 14. 0. 0. 0. 0. 0. 0. 0. 0. 0. 0. 0. 0.
      0. 0. 0. 0. 40. 189. 255. 129. 0. 0. 0. 0. 0. 0. 0. 0. 0. 0. 0. 0.
      0. 0. 0. 0. 95. 255. 255. 189. 2. 0. 0. 0. 0. 0. 0. 0. 0. 0. 0. 0.
      0. 0. 0. 0. 151. 255. 255. 223. 8. 0. 0. 0. 0. 0. 0. 0. 0. 0. 0.
      0. 0. 0. 0. 16. 195. 255. 255. 199. 4. 0. 0. 0. 0. 0. 0. 0. 0. 0.
      0. 0. 0. 0. 0. 80. 247. 255. 255. 166. 0. 0. 0. 0. 0. 0. 0. 0. 0.
      0. 0. 0. 0. 0. 0. 95. 252. 254. 255. 162. 0. 0. 0. 0. 0. 0. 0. 0.
      0. 0. 0. 0. 0. 0. 0. 138. 255. 253. 255. 118. 0. 0. 0. 0. 0. 0. 0.
      0. 0. 0. 0. 0. 0. 0. 31. 208. 255. 255. 237. 47. 0. 0. 0. 0. 0. 0.
      0. 0. 0. 0. 0. 0. 0. 0. 72. 255. 251. 253. 251. 116. 0. 0. 0. 0.
      0. 0. 0. 0. 0. 0. 0. 0. 0. 0. 67. 255. 252. 252. 255. 146. 0. 0.
      0. 0. 0. 0. 0. 0. 0. 0. 0. 0. 0. 0. 84. 255. 252. 255. 241. 51. 0.
      0. 0. 0. 0. 0. 0. 0. 0. 0. 0. 0. 0. 12. 179. 255. 252. 255. 152.
      1. 0. 0. 0. 0. 0. 0. 0. 0. 0. 0. 0. 0. 0. 76. 248. 255. 255. 206.
      23. 0. 0. 0. 0. 0. 0. 0. 0. 0. 0. 0. 0. 0. 0. 57. 193. 212. 225.
      103. 0. 0. 0. 0. 0. 0. 0. 0. 0. 0. 0. 0. 0. 0. 0. 4. 17. 21. 24.
      2. 0. 0. 0. 0. 0. 0. 0. 0. 0. 0. 0. 0. 0. 0. 0. 0. 0. 0. 0. 0. 0.
      0. 0. 0. 0. 0. 0. 0. 0. 0. 0. 0. 0. 0. 0. 0. 0. 0. 0. 0. 0. 0. 0.
      0. 0. 0. 0. 0. 0.</_>
    <_>
      0. 0. 0. 0. 0. 0. 0. 0. 0. 0. 0. 0. 0. 0. 0. 0. 0. 0. 0. 0. 0. 0.
      0. 0. 0. 0. 0. 0. 0. 0. 0. 0. 0. 0. 0. 0. 0. 0. 0. 0. 0. 0. 0. 0.
      0. 0. 0. 0. 0. 0. 0. 0. 0. 0. 0. 0. 0. 0. 0. 0. 0. 0. 0. 0. 0. 0.
      0. 0. 0. 0. 0. 0. 0. 0. 0. 0. 0. 0. 0. 0. 0. 0. 0. 0. 0. 0. 0. 0.
      0. 0. 0. 0. 0. 80. 167. 146. 37. 0. 0. 0. 0. 0. 0. 0. 0. 0. 0. 0.
      0. 0. 0. 0. 29. 198. 255. 170. 49. 0. 0. 0. 0. 0. 0. 0. 0. 0. 0.
      0. 0. 0. 0. 33. 188. 255. 227. 15. 0. 0. 0. 0. 0. 0. 0. 0. 0. 0.
      0. 0. 0. 0. 85. 200. 255. 186. 57. 0. 0. 20. 62. 0. 0. 0. 0. 0. 0.
      0. 0. 0. 0. 106. 247. 255. 224. 61. 0. 0. 0. 17. 54. 0. 0. 0. 0.
      0. 0. 0. 0. 0. 101. 241. 255. 232. 76. 0. 0. 0. 0. 0. 0. 0. 0. 0.
      0. 0. 0. 0. 0. 93. 255. 255. 227. 66. 0. 0. 0. 0. 0. 0. 0. 0. 0.
      0. 0. 0. 0. 0. 31. 206. 255. 239. 71. 0. 0. 0. 0. 0. 0. 0. 0. 0.
      0. 0. 0. 0. 0. 41. 189. 255. 234. 129. 0. 0. 0. 0. 0. 0. 0. 0. 0.
      0. 0. 0. 0. 0. 103. 227. 255. 255. 144. 5. 0. 0. 0. 0. 0. 0. 0. 0.
      0. 0. 0. 0. 0. 0. 194. 255. 255. 164. 9. 0. 0. 0. 0. 0. 0. 0. 0.
      0. 0. 0. 0. 0. 0. 0. 113. 165. 128. 17. 0. 0. 0. 0. 0. 0. 0. 0. 0.
      0. 0. 0. 0. 0. 0. 0. 0. 0. 0. 0. 0. 0. 0. 0. 0. 0. 0. 0. 0. 0. 0.
      0. 0. 0. 0. 0. 0. 0. 0. 0. 0. 0. 0. 0. 0. 0. 0. 0. 0. 0. 0. 0. 0.
      0. 0. 0. 0. 0. 0. 0. 0. 0. 0. 0. 0. 0. 0. 0. 0. 0. 0. 0. 0. 0. 0.
      0. 0. 0. 0. 0. 0. 0. 0. 0. 0. 0. 0. 0. 0. 0. 0. 0.</_>
    <_>
      0. 0. 0. 0. 0. 0. 0. 0. 0. 0. 0. 0. 0. 0. 0. 0. 0. 0. 0. 0. 0. 0.
      0. 0. 0. 0. 0. 0. 0. 0. 0. 0. 0. 0. 0. 0. 0. 0. 0. 0. 0. 0. 0. 0.
      0. 0. 0. 0. 0. 0. 6. 30. 3. 0. 0. 0. 0. 0. 0. 0. 0. 0. 0. 0. 0. 0.
      0. 0. 0. 12. 156. 219. 23. 0. 0. 0. 0. 0. 0. 0. 0. 0. 0. 0. 0. 0.
      0. 0. 63. 185. 216. 189. 13. 0. 0. 0. 0. 0. 0. 0. 0. 0. 0. 0. 0.
      0. 0. 66. 234. 108. 117. 166. 3. 0. 0. 0. 0. 0. 0. 0. 0. 0. 0. 0.
      0. 0. 0. 141. 152. 0. 114. 181. 8. 0. 0. 0. 0. 0. 0. 0. 0. 0. 0.
      0. 0. 0. 0. 21. 13. 0. 126. 148. 0. 0. 0. 0. 0. 0. 0. 0. 0. 0. 0.
      0. 0. 0. 0. 0. 0. 0. 160. 120. 0. 0. 0. 0. 0. 0. 0. 0. 0. 0. 0. 0.
      0. 0. 0. 0. 0. 5. 189. 92. 0. 0. 0. 0. 0. 0. 0. 0. 0. 0. 0. 0. 0.
      0. 0. 0. 0. 14. 206. 65. 0. 0. 0. 0. 0. 0. 0. 0. 0. 0. 0. 0. 0. 0.
      0. 0. 0. 32. 219. 50. 0. 0. 0. 0. 0. 0. 0. 0. 0. 0. 0. 0. 0. 0. 0.
      0. 0. 71. 197. 17. 0. 0. 0. 0. 0. 0. 0. 0. 0. 0. 0. 0. 0. 0. 0. 0.
      0. 132. 159. 0. 0. 0. 0. 0. 0. 0. 0. 0. 0. 0. 0. 0. 0. 0. 0. 0. 0.
      165. 148. 0. 0. 0. 0. 0. 0. 0. 0. 0. 0. 0. 0. 0. 0. 0. 0. 15. 69.
      205. 211. 87. 0. 0. 0. 0. 0. 0. 0. 0. 0. 0. 0. 0. 0. 0. 79. 193.
      233. 253. 164. 62. 0. 0. 0. 0. 0. 0. 0. 0. 0. 0. 0. 0. 0. 0. 25.
      44. 30. 33. 3. 0. 0. 0. 0. 0. 0. 0. 0. 0. 0. 0. 0. 0. 0. 0. 0. 0.
      0. 0. 0. 0. 0. 0. 0. 0. 0. 0. 0. 0. 0. 0. 0. 0. 0. 0. 0. 0. 0. 0.
      0. 0. 0. 0. 0. 0. 0. 0. 0. 0.</_>
    <_>
      0. 0. 0. 0. 0. 0. 0. 0. 0. 0. 0. 0. 0. 0. 0. 0. 0. 0. 0. 0. 0. 0.
      0. 0. 0. 0. 0. 0. 0. 0. 0. 0. 0. 0. 0. 0. 0. 0. 0. 0. 0. 0. 0. 0.
      0. 0. 0. 0. 0. 0. 0. 2. 33. 14. 0. 0. 0. 0. 0. 0. 0. 0. 0. 0. 0.
      0. 0. 0. 0. 0. 0. 106. 218. 51. 0. 0. 0. 0. 0. 0. 0. 0. 0. 0. 0.
      0. 0. 0. 0. 0. 17. 200. 113. 0. 0. 0. 0. 0. 0. 0. 0. 0. 0. 0. 0.
      0. 0. 0. 0. 0. 44. 235. 47. 0. 0. 0. 0. 0. 0. 0. 0. 0. 0. 0. 0. 0.
      0. 0. 0. 0. 106. 218. 18. 0. 0. 0. 0. 0. 0. 0. 0. 0. 0. 0. 0. 0.
      0. 0. 0. 13. 221. 140. 0. 0. 0. 0. 0. 0. 0. 0. 0. 0. 0. 0. 0. 0.
      0. 0. 0. 75. 234. 67. 0. 0. 0. 0. 0. 0. 0. 0. 0. 0. 0. 0. 0. 0. 0.
      0. 4. 176. 192. 0. 0. 0. 0. 0. 0. 0. 0. 0. 0. 0. 0. 0. 0. 0. 0. 0.
      39. 222. 107. 0. 0. 0. 0. 0. 0. 0. 0. 0. 0. 0. 0. 0. 0. 0. 0. 0.
      92. 220. 27. 0. 0. 0. 0. 0. 0. 0. 0. 0. 0. 0. 0. 0. 0. 0. 0. 5.
      169. 187. 0. 0. 0. 0. 0. 0. 0. 0. 0. 0. 0. 0. 0. 0. 0. 0. 0. 17.
      207. 132. 0. 0. 0. 0. 0. 0. 0. 0. 0. 0. 0. 0. 0. 0. 0. 0. 0. 17.
      211. 94. 0. 0. 0. 0. 0. 0. 0. 0. 0. 0. 0. 0. 0. 0. 0. 0. 0. 10.
      182. 169. 9. 0. 0. 0. 0. 0. 0. 0. 0. 0. 0. 0. 0. 0. 0. 0. 0. 0.
      58. 217. 152. 13. 0. 0. 0. 0. 0. 0. 0. 0. 0. 0. 0. 0. 0. 0. 0. 0.
      0. 24. 36. 3. 0. 0. 0. 0. 0. 0. 0. 0. 0. 0. 0. 0. 0. 0. 0. 0. 0.
      0. 0. 0. 0. 0. 0. 0. 0. 0. 0. 0. 0. 0. 0. 0. 0. 0. 0. 0. 0. 0. 0.
      0. 0. 0. 0. 0. 0. 0. 0. 0.</_>
    <_>
      0. 0. 0. 0. 0. 0. 0. 0. 0. 0. 0. 0. 0. 0. 0. 0. 0. 0. 0. 0. 0. 0.
      0. 0. 0. 0. 0. 0. 0. 0. 0. 0. 0. 0. 0. 0. 0. 0. 0. 0. 0. 0. 0. 0.
      0. 0. 0. 8. 88. 149. 194. 118. 0. 0. 0. 0. 0. 0. 0. 0. 0. 0. 0. 0.
      0. 28. 101. 179. 210. 221. 255. 156. 2. 0. 0. 0. 0. 0. 0. 0. 0. 0.
      0. 0. 0. 73. 255. 251. 118. 33. 162. 182. 9. 0. 0. 0. 0. 0. 0. 0.
      0. 0. 0. 0. 0. 12. 60. 30. 1. 0. 135. 202. 15. 0. 0. 0. 0. 0. 0.
      0. 0. 0. 0. 0. 0. 0. 0. 0. 0. 0. 140. 204. 16. 0. 0. 0. 0. 0. 0.
      0. 0. 0. 0. 0. 0. 0. 0. 0. 0. 0. 145. 155. 0. 0. 0. 0. 0. 0. 0. 0.
      0. 0. 0. 0. 0. 0. 0. 0. 0. 0. 146. 144. 0. 0. 0. 0. 0. 0. 0. 0. 0.
      0. 0. 0. 0. 0. 0. 0. 0. 0. 143. 127. 0. 0. 0. 0. 0. 0. 0. 0. 0. 0.
      0. 0. 0. 0. 0. 0. 0. 4. 172. 90. 0. 0. 0. 0. 0. 0. 0. 0. 0. 0. 0.
      0. 0. 0. 0. 0. 0. 2. 158. 89. 0. 0. 0. 0. 0. 0. 0. 0. 0. 0. 0. 0.
      0. 0. 0. 0. 0. 4. 185. 84. 0. 0. 16. 23. 18. 0. 0. 0. 0. 0. 0. 0.
      0. 0. 0. 0. 3. 0. 162. 170. 140. 102. 171. 219. 210. 114. 2. 0. 0.
      0. 0. 0. 16. 87. 100. 91. 153. 164. 239. 255. 225. 232. 228. 253.
      198. 203. 24. 0. 0. 0. 0. 0. 38. 241. 255. 255. 236. 206. 204.
      152. 37. 69. 68. 49. 4. 31. 2. 0. 0. 0. 0. 0. 3. 81. 111. 108. 60.
      15. 13. 0. 0. 0. 0. 0. 0. 0. 0. 0. 0. 0. 0. 0. 0. 0. 0. 0. 0. 0.
      0. 0. 0. 0. 0. 0. 0. 0. 0. 0. 0. 0. 0. 0. 0. 0. 0. 0. 0. 0. 0. 0.
      0. 0. 0. 0. 0. 0. 0. 0. 0. 0. 0. 0. 0. 0. 0. 0. 0. 0. 0. 0. 0. 0.
      0. 0. 0. 0. 0. 0.</_>
    <_>
      0. 0. 0. 0. 0. 0. 0. 0. 0. 0. 0. 0. 0. 0. 0. 0. 0. 0. 0. 0. 0. 0.
      0. 0. 0. 0. 0. 0. 0. 0. 0. 0. 0. 0. 0. 0. 0. 0. 0. 0. 0. 0. 0. 0.
      0. 0. 0. 0. 0. 0. 0. 0. 0. 0. 0. 0. 0. 0. 0. 0. 0. 0. 0. 0. 0. 0.
      0. 0. 0. 1. 79. 45. 0. 0. 0. 0. 0. 0. 0. 0. 0. 0. 0. 0. 0. 0. 0.
      0. 0. 20. 238. 123. 0. 0. 0. 0. 0. 0. 0. 0. 0. 0. 0. 0. 0. 0. 0.
      0. 0. 41. 255. 121. 0. 0. 0. 0. 0. 0. 0. 0. 0. 0. 0. 0. 0. 0. 0.
      0. 0. 58. 255. 118. 0. 0. 0. 0. 0. 0. 0. 0. 0. 0. 0. 0. 0. 0. 0.
      0. 0. 155. 255. 103. 0. 0. 0. 0. 0. 0. 0. 0. 0. 0. 0. 0. 0. 0. 0.
      0. 82. 208. 226. 100. 0. 0. 0. 0. 0. 0. 0. 0. 0. 0. 0. 0. 0. 0. 0.
      91. 214. 89. 163. 127. 0. 0. 0. 0. 0. 0. 0. 0. 0. 0. 0. 0. 0. 0.
      0. 44. 25. 1. 200. 124. 0. 0. 0. 0. 0. 0. 0. 0. 0. 0. 0. 0. 0. 0.
      0. 0. 0. 6. 225. 123. 0. 0. 0. 0. 0. 0. 0. 0. 0. 0. 0. 0. 0. 0. 0.
      0. 0. 6. 226. 122. 0. 0. 0. 0. 0. 0. 0. 0. 0. 0. 0. 0. 0. 0. 0. 0.
      0. 4. 207. 123. 0. 0. 0. 0. 0. 0. 0. 0. 0. 0. 0. 0. 0. 0. 0. 0. 0.
      0. 152. 136. 0. 0. 0. 0. 0. 0. 0. 0. 0. 0. 0. 0. 0. 0. 0. 0. 0. 0.
      88. 233. 21. 0. 0. 0. 0. 0. 0. 0. 0. 0. 0. 0. 0. 0. 0. 0. 0. 0.
      54. 230. 57. 0. 0. 0. 0. 0. 0. 0. 0. 0. 0. 0. 0. 0. 0. 0. 0. 0. 4.
      150. 72. 0. 0. 0. 0. 0. 0. 0. 0. 0. 0. 0. 0. 0. 0. 0. 0. 0. 0. 0.
      0. 0. 0. 0. 0. 0. 0. 0. 0. 0. 0. 0. 0. 0. 0. 0. 0. 0. 0. 0. 0. 0.
      0. 0. 0. 0. 0. 0.</_>
    <_>
      0. 0. 0. 0. 0. 0. 0. 0. 0. 0. 0. 0. 0. 0. 0. 0. 0. 0. 0. 0. 0. 0.
      0. 0. 0. 0. 0. 0. 0. 0. 0. 0. 0. 0. 0. 0. 0. 0. 0. 0. 0. 0. 0. 0.
      0. 0. 0. 0. 0. 0. 0. 0. 0. 0. 0. 0. 0. 0. 0. 0. 0. 0. 0. 0. 0. 0.
      0. 0. 0. 0. 0. 68. 104. 15. 0. 0. 0. 0. 0. 0. 0. 0. 0. 0. 0. 0. 0.
      0. 0. 0. 0. 164. 255. 139. 3. 0. 0. 0. 0. 0. 0. 0. 0. 0. 0. 0. 0.
      0. 0. 0. 14. 185. 255. 146. 0. 0. 0. 0. 0. 0. 0. 0. 0. 0. 0. 0. 0.
      0. 0. 0. 63. 243. 245. 74. 0. 0. 0. 0. 0. 0. 0. 0. 0. 0. 0. 0. 0.
      0. 0. 1. 167. 255. 233. 33. 0. 0. 0. 0. 0. 0. 0. 0. 0. 0. 0. 0. 0.
      0. 0. 83. 247. 255. 155. 0. 0. 0. 0. 0. 0. 0. 0. 0. 0. 0. 0. 0. 0.
      0. 69. 228. 255. 255. 69. 0. 0. 0. 0. 0. 0. 0. 0. 0. 0. 0. 0. 0.
      0. 70. 231. 255. 255. 255. 69. 0. 0. 0. 0. 0. 0. 0. 0. 0. 0. 0. 0.
      0. 54. 215. 255. 191. 228. 255. 70. 0. 0. 0. 0. 0. 0. 0. 0. 0. 0.
      0. 0. 9. 180. 255. 207. 36. 153. 255. 70. 0. 0. 0. 0. 0. 0. 0. 0.
      0. 0. 0. 0. 1. 112. 187. 57. 0. 149. 255. 70. 0. 0. 0. 0. 0. 0. 0.
      0. 0. 0. 0. 0. 0. 3. 13. 0. 1. 162. 255. 70. 0. 0. 0. 0. 0. 0. 0.
      0. 0. 0. 0. 0. 0. 0. 0. 0. 0. 134. 255. 72. 0. 0. 0. 0. 0. 0. 0.
      0. 0. 0. 0. 0. 0. 0. 0. 0. 0. 137. 255. 53. 0. 0. 0. 0. 0. 0. 0.
      0. 0. 0. 0. 0. 0. 0. 0. 0. 0. 45. 129. 20. 0. 0. 0. 0. 0. 0. 0. 0.
      0. 0. 0. 0. 0. 0. 0. 0. 0. 0. 0. 0. 0. 0. 0. 0. 0. 0. 0. 0. 0. 0.
      0. 0. 0. 0. 0. 0. 0. 0. 0. 0. 0. 0. 0. 0. 0. 0. 0.</_>
    <_>
      0. 0. 0. 0. 0. 0. 0. 0. 0. 0. 0. 0. 0. 0. 0. 0. 0. 0. 0. 0. 0. 0.
      0. 0. 0. 0. 0. 0. 0. 0. 0. 0. 0. 0. 0. 0. 0. 0. 0. 0. 0. 0. 0. 0.
      0. 0. 0. 0. 0. 67. 195. 73. 2. 0. 0. 0. 0. 0. 0. 0. 0. 0. 0. 0. 0.
      0. 0. 0. 4. 184. 255. 252. 61. 0. 0. 0. 0. 0. 0. 0. 0. 0. 0. 0. 0.
      0. 0. 0. 7. 148. 255. 255. 106. 0. 0. 0. 0. 0. 0. 0. 0. 0. 0. 0.
      44. 140. 31. 70. 196. 252. 253. 255. 78. 0. 0. 0. 0. 0. 0. 0. 0.
      0. 0. 0. 101. 255. 210. 238. 255. 253. 252. 255. 73. 0. 0. 0. 0.
      0. 0. 0. 0. 0. 0. 0. 152. 255. 255. 255. 255. 255. 252. 255. 130.
      0. 0. 0. 0. 0. 0. 0. 0. 0. 0. 0. 141. 255. 251. 239. 185. 217.
      255. 255. 120. 0. 0. 0. 0. 0. 0. 0. 0. 0. 0. 0. 44. 203. 161. 68.
      11. 76. 239. 255. 182. 26. 0. 0. 0. 0. 0. 0. 0. 0. 0. 0. 0. 49.
      201. 26. 0. 1. 192. 255. 253. 97. 0. 0. 0. 0. 0. 0. 0. 0. 0. 0. 0.
      29. 118. 18. 0. 0. 96. 237. 255. 174. 16. 0. 0. 0. 0. 0. 0. 0. 0.
      0. 0. 0. 0. 0. 0. 0. 0. 170. 255. 224. 44. 0. 0. 0. 0. 0. 0. 0. 0.
      0. 0. 0. 0. 21. 0. 28. 83. 186. 255. 232. 163. 87. 81. 36. 0. 0.
      0. 0. 0. 0. 0. 0. 37. 192. 179. 212. 254. 255. 255. 255. 255. 252.
      255. 203. 28. 0. 0. 0. 0. 0. 0. 0. 61. 219. 235. 231. 227. 225.
      225. 225. 225. 227. 227. 239. 123. 0. 0. 0. 0. 0. 0. 0. 0. 42. 50.
      49. 49. 49. 49. 49. 49. 49. 49. 52. 29. 0. 0. 0. 0. 0. 0. 0. 0. 0.
      0. 0. 0. 0. 0. 0. 0. 0. 0. 0. 0. 0. 0. 0. 0. 0. 0. 0. 0. 0. 0. 0.
      0. 0. 0. 0. 0. 0. 0. 0. 0. 0. 0. 0. 0. 0. 0. 0. 0. 0. 0. 0. 0. 0.
      0. 0. 0. 0. 0. 0. 0. 0.</_>
    <_>
      0. 0. 0. 0. 0. 0. 0. 0. 0. 0. 0. 0. 0. 0. 0. 0. 0. 0. 0. 0. 0. 0.
      0. 0. 0. 0. 0. 0. 0. 0. 0. 0. 0. 0. 0. 0. 0. 0. 0. 0. 0. 0. 0. 0.
      0. 0. 0. 0. 0. 0. 0. 0. 0. 0. 0. 0. 0. 0. 0. 0. 0. 0. 0. 0. 0. 0.
      0. 0. 0. 0. 0. 0. 0. 82. 56. 0. 0. 0. 0. 0. 0. 0. 0. 0. 0. 0. 0.
      0. 0. 0. 0. 0. 120. 206. 55. 0. 0. 0. 0. 0. 0. 0. 0. 0. 0. 0. 0.
      0. 0. 0. 0. 94. 231. 77. 0. 0. 0. 0. 0. 0. 0. 0. 0. 0. 0. 0. 0. 0.
      0. 0. 54. 228. 99. 0. 0. 0. 0. 0. 0. 0. 0. 0. 0. 0. 0. 0. 0. 0. 0.
      7. 182. 181. 3. 0. 0. 0. 0. 0. 0. 0. 0. 0. 0. 0. 0. 0. 0. 0. 0.
      76. 242. 69. 0. 0. 0. 0. 0. 0. 0. 0. 0. 0. 0. 0. 0. 0. 0. 0. 0.
      157. 172. 5. 0. 0. 0. 0. 0. 0. 0. 0. 0. 0. 0. 0. 0. 0. 0. 0. 46.
      227. 99. 0. 0. 0. 0. 0. 0. 0. 0. 0. 0. 0. 0. 0. 0. 0. 0. 1. 142.
      199. 14. 0. 0. 0. 0. 0. 0. 0. 0. 0. 0. 0. 0. 0. 0. 0. 0. 21. 224.
      132. 0. 0. 0. 0. 0. 0. 0. 0. 0. 0. 0. 0. 0. 0. 0. 0. 0. 22. 228.
      103. 0. 0. 0. 0. 0. 0. 0. 0. 0. 0. 0. 0. 0. 0. 0. 0. 0. 23. 217.
      84. 0. 0. 0. 0. 0. 0. 0. 0. 0. 0. 0. 0. 0. 0. 0. 0. 0. 13. 185.
      85. 0. 0. 0. 0. 0. 0. 0. 0. 0. 0. 0. 0. 0. 0. 0. 0. 0. 3. 172.
      112. 0. 0. 0. 0. 0. 0. 0. 0. 0. 0. 0. 0. 0. 0. 0. 0. 0. 3. 145.
      93. 0. 0. 0. 0. 0. 0. 0. 0. 0. 0. 0. 0. 0. 0. 0. 0. 0. 0. 0. 0. 0.
      0. 0. 0. 0. 0. 0. 0. 0. 0. 0. 0. 0. 0. 0. 0. 0. 0. 0. 0. 0. 0. 0.
      0. 0. 0. 0. 0. 0. 0.</_></uncompressed_support_vectors>
  <decision_functions>
    <_>
      <sv_count>1</sv_count>
      <rho>4.9801973955331935e-01</rho>
      <alpha>
        1.</alpha>
      <index>
        0</index></_></decision_functions></opencv_ml_svm>
</opencv_storage>
