<?xml version="1.0"?>
<opencv_storage>
<opencv_ml_svm>
  <format>3</format>
  <svmType>C_SVC</svmType>
  <kernel>
    <type>LINEAR</type></kernel>
  <C>1.</C>
  <term_criteria><epsilon>1.0000000000000000e-02</epsilon>
    <iterations>1000</iterations></term_criteria>
  <var_count>57600</var_count>
  <class_count>2</class_count>
  <class_labels type_id="opencv-matrix">
    <rows>2</rows>
    <cols>1</cols>
    <dt>i</dt>
    <data>
      1 2</data></class_labels>
  <sv_total>1</sv_total>
  <support_vectors>
    <_>
      0. 0. 0. 0. 0. 0. 0. 0. 0. 0. 0. 0. 0. 0. 0. 0. 0. 0. 0. 0. 0. 0.
      0. 0. 0. 0. 0. 0. 0. 0. 0. 0. 0. 0. 0. 0. 0. 0. 0. 0. 0. 0. 0. 0.
      0. 0. 0. 0. 0. 0. 0. 0. 0. 0. 0. 0. 0. 0. 0. 0. 0. 0. 0. 0. 0. 0.
      0. 0. 0. 0. 0. 0. 0. 0. 0. 0. 0. 0. 0. 0. 0. 0. 0. 0. 0. 0. 0. 0.
      0. 0. 0. 0. 0. 0. 0. 0. 0. 0. 0. 0. 0. 0. 0. 0. 0. 0. 0. 0. 0. 0.
      0. 0. 0. 0. 0. 0. 0. 0. 0. 0. 0. 0. 0. 0. 0. 0. 0. 0. 0. 0. 0. 0.
      0. 0. 0. 0. 0. 0. 0. 0. 0. 0. 0. 0. 0. 0. 0. 0. 0. 0. 0. 0. 0. 0.
      0. 0. 0. 0. 0. 0. 0. 0. 0. 0. 0. 0. 0. 0. 0. 0. 0. 0. 0. 0. 0. 0.
      0. 0. 0. 0. 0. 0. 0. 0. 0. 0. 0. 0. 0. 0. 0. 0. 0. 0. 0. 0. 0. 0.
      0. 0. 0. 0. 0. 0. 0. 0. 0. 0. 0. 0. 0. 0. 0. 0. 0. 0. 0. 0. 0. 0.
      0. 0. 0. 0. 0. 0. 0. 0. 0. 0. 0. 0. 0. 0. 0. 0. 0. 0. 0. 0. 0. 0.
      0. 0. 0. 0. 0. 0. 0. 0. 0. 0. 0. 0. 0. 0. 0. 0. 0. 0. 0. 0. 0. 0.
      0. 0. 0. 0. 0. 0. 0. 0. 0. 0. 0. 0. 0. 0. 0. 0. 0. 0. 0. 0. 0. 0.
      0. 0. 0. 0. 0. 0. 0. 0. 0. 0. 0. 0. 0. 0. 0. 0. 0. 0. 0. 0. 0. 0.
      0. 0. 0. 0. 0. 0. 0. 0. 0. 0. 0. 0. 0. 0. 0. 0. 0. 0. 0. 0. 0. 0.
      0. 0. 0. 0. 0. 0. 0. 0. 0. 0. 0. 0. 0. 0. 0. 0. 0. 0. 0. 0. 0. 0.
      0. 0. 0. 0. 0. 0. 0. 0. 0. 0. 0. 0. 0. 0. 0. 0. 0. 0. 0. 0. 0. 0.
      0. 0. 0. 0. 0. 0. 0. 0. 0. 0. 0. 0. 0. 0. 0. 0. 0. 0. 0. 0. 0. 0.
      0. 0. 0. 0. 0. 0. 0. 0. 0. 0. 0. 0. 0. 0. 0. 0. 0. 0. 0. 0. 0. 0.
      0. 0. 0. 0. 0. 0. 0. 0. 0. 0. 0. 0. 0. 0. 0. 0. 0. 0. 0. 0. 0. 0.
      0. 0. 0. 0. 0. 0. 0. 0. 0. 0. 0. 0. 0. 0. 0. 0. 0. 0. 0. 0. 0. 0.
      0. 0. 0. 0. 0. 0. 0. 0. 0. 0. 0. 0. 0. 0. 0. 0. 0. 0. 0. 0. 0. 0.
      0. 0. 0. 0. 0. 0. 0. 0. 0. 0. 0. 0. 0. 0. 0. 0. 0. 0. 0. 0. 0. 0.
      0. 0. 0. 0. 0. 0. 0. 0. 0. 0. 0. 0. 0. 0. 0. 0. 0. 0. 0. 0. 0. 0.
      0. 0. 0. 0. 0. 0. 0. 0. 0. 0. 0. 0. 0. 0. 0. 0. 0. 0. 0. 0. 0. 0.
      0. 0. 0. 0. 0. 0. 0. 0. 0. 0. 0. 0. 0. 0. 0. 0. 0. 0. 0. 0. 0. 0.
      0. 0. 0. 0. 0. 0. 0. 0. 0. 0. 0. 0. 0. 0. 0. 0. 0. 0. 0. 0. 0. 0.
      0. 0. 0. 0. 0. 0. 0. 0. 0. 0. 0. 0. 0. 0. 0. 0. 0. 0. 0. 0. 0. 0.
      0. 0. 0. 0. 0. 0. 0. 0. 0. 0. 0. 0. 0. 0. 0. 0. 0. 0. 0. 0. 0. 0.
      0. 0. 0. 0. 0. 0. 0. 0. 0. 0. 0. 0. 0. 0. 0. 0. 0. 0. 0. 0. 0. 0.
      0. 0. 0. 0. 0. 0. 0. 0. 0. 0. 0. 0. 0. 0. 0. 0. 0. 0. 0. 0. 0. 0.
      0. 0. 0. 0. 0. 0. 0. 0. 0. 0. 0. 0. 0. 0. 0. 0. 0. 0. 0. 0. 0. 0.
      0. 0. 0. 0. 0. 0. 0. 0. 0. 0. 0. 0. 0. 0. 0. 0. 0. 0. 0. 0. 0. 0.
      0. 0. 0. 0. 0. 0. 0. 0. 0. 0. 0. 0. 0. 0. 0. 0. 0. 0. 0. 0. 0. 0.
      0. 0. 0. 0. 0. 0. 0. 0. 0. 0. 0. 0. 0. 0. 0. 0. 0. 0. 0. 0. 0. 0.
      0. 0. 0. 0. 0. 0. 0. 0. 0. 0. 0. 0. 0. 0. 0. 0. 0. 0. 0. 0. 0. 0.
      0. 0. 0. 0. 0. 0. 0. 0. 0. 0. 0. 0. 0. 0. 0. 0. 0. 0. 0. 0. 0. 0.
      0. 0. 0. 0. 0. 0. 0. 0. 0. 0. 0. 0. 0. 0. 0. 0. 0. 0. 0. 0. 0. 0.
      0. 0. 0. 0. 0. 0. 0. 0. 0. 0. 0. 0. 0. 0. 0. 0. 0. 0. 0. 0. 0. 0.
      0. 0. 0. 0. 0. 0. 0. 0. 0. 0. 0. 0. 0. 0. 0. 0. 0. 0. 0. 0. 0. 0.
      0. 0. 0. 0. 0. 0. 0. 0. 0. 0. 0. 0. 0. 0. 0. 0. 0. 0. 0. 0. 0. 0.
      0. 0. 0. 0. 0. 0. 0. 0. 0. 0. 0. 0. 0. 0. 0. 0. 0. 0. 0. 0. 0. 0.
      0. 0. 0. 0. 0. 0. 0. 0. 0. 0. 0. 0. 0. 0. 0. 0. 0. 0. 0. 0. 0. 0.
      0. 0. 0. 0. 0. 0. 0. 0. 0. 0. 0. 0. 0. 0. 0. 0. 0. 0. 0. 0. 0. 0.
      0. 0. 0. 0. 0. 0. 0. 0. 0. 0. 0. 0. 0. 0. 0. 0. 0. 0. 0. 0. 0. 0.
      0. 0. 0. 0. 0. 0. 0. 0. 0. 0. 0. 0. 0. 0. 0. 0. 0. 0. 0. 0. 0. 0.
      0. 0. 0. 0. 0. 0. 0. 0. 0. 0. 0. 0. 0. 0. 0. 0. 0. 0. 0. 0. 0. 0.
      0. 0. 0. 0. 0. 0. 0. 0. 0. 0. 0. 0. 0. 0. 0. 0. 0. 0. 0. 0. 0. 0.
      0. 0. 0. 0. 0. 0. 0. 0. 0. 0. 0. 0. 0. 0. 0. 0. 0. 0. 0. 0. 0. 0.
      0. 0. 0. 0. 0. 0. 0. 0. 0. 0. 0. 0. 0. 0. 0. 0. 0. 0. 0. 0. 0. 0.
      0. 0. 0. 0. 0. 0. 0. 0. 0. 0. 0. 0. 0. 0. 0. 0. 0. 0. 0. 0. 0. 0.
      0. 0. 0. 0. 0. 0. 0. 0. 0. 0. 0. 0. 0. 0. 0. 0. 0. 0. 0. 0. 0. 0.
      0. 0. 0. 0. 0. 0. 0. 0. 0. 0. 0. 0. 0. 0. 0. 0. 0. 0. 0. 0. 0. 0.
      0. 0. 0. 0. 0. 0. 0. 0. 0. 0. 0. 0. 0. 0. 0. 0. 0. 0. 0. 0. 0. 0.
      0. 0. 0. 0. 0. 0. 0. 0. 0. 0. 0. 0. 0. 0. 0. 0. 0. 0. 0. 0. 0. 0.
      0. 0. 0. 0. 0. 0. 0. 0. 0. 0. 0. 0. 0. 0. 0. 0. 0. 0. 0. 0. 0. 0.
      0. 0. 0. 0. 0. 0. 0. 0. 0. 0. 0. 0. 0. 0. 0. 0. 0. 0. 0. 0. 0. 0.
      0. 0. 0. 0. 0. 0. 0. 0. 0. 0. 0. 0. 0. 0. 0. 0. 0. 0. 0. 0. 0. 0.
      0. 0. 0. 0. 0. 0. 0. 0. 0. 0. 0. 0. 0. 0. 0. 0. 0. 0. 0. 0. 0. 0.
      0. 0. 0. 0. 0. 0. 0. 0. 0. 0. 0. 0. 0. 0. 0. 0. 0. 0. 0. 0. 0. 0.
      0. 0. 0. 0. 0. 0. 0. 0. 0. 0. 0. 0. 0. 0. 0. 0. 0. 0. 0. 0. 0. 0.
      0. 0. 0. 0. 0. 0. 0. 0. 0. 0. 0. 0. 0. 0. 0. 0. 0. 0. 0. 0. 0. 0.
      0. 0. 0. 0. 0. 0. 0. 0. 0. 0. 0. 0. 0. 0. 0. 0. 0. 0. 0. 0. 0. 0.
      0. 0. 0. 0. 0. 0. 0. 0. 0. 0. 0. 0. 0. 0. 0. 0. 0. 0. 0. 0. 0. 0.
      0. 0. 0. 0. 0. 0. 0. 0. 0. 0. 0. 0. 0. 0. 0. 0. 0. 0. 0. 0. 0. 0.
      0. 0. 0. 0. 0. 0. 0. 0. 0. 0. 0. 0. 0. 0. 0. 0. 0. 0. 0. 0. 0. 0.
      0. 0. 0. 0. 0. 0. 0. 0. 0. 0. 0. 0. 0. 0. 0. 0. 0. 0. 0. 0. 0. 0.
      0. 0. 0. 0. 0. 0. 0. 0. 0. 0. 0. 0. 0. 0. 0. 0. 0. 0. 0. 0. 0. 0.
      0. 0. 0. 0. 0. 0. 0. 0. 0. 0. 0. 0. 0. 0. 0. 0. 0. 0. 0. 0. 0. 0.
      0. 0. 0. 0. 0. 0. 0. 0. 0. 0. 0. 0. 0. 0. 0. 0. 0. 0. 0. 0. 0. 0.
      0. 0. 0. 0. 0. 0. 0. 0. 0. 0. 0. 0. 0. 0. 0. 0. 0. 0. 0. 0. 0. 0.
      0. 0. 0. 0. 0. 0. 0. 0. 0. 0. 0. 0. 0. 0. 0. 0. 0. 0. 0. 0. 0. 0.
      0. 0. 0. 0. 0. 0. 0. 0. 0. 0. 0. 0. 0. 0. 0. 0. 0. 0. 0. 0. 0. 0.
      0. 0. 0. 0. 0. 0. 0. 0. 0. 0. 0. 0. 0. 0. 0. 0. 0. 0. 0. 0. 0. 0.
      0. 0. 0. 0. 0. 0. 0. 0. 0. 0. 0. 0. 0. 0. 0. 0. 0. 0. 0. 0. 0. 0.
      0. 0. 0. 0. 0. 0. 0. 0. 0. 0. 0. 0. 0. 0. 0. 0. 0. 0. 0. 0. 0. 0.
      0. 0. 0. 0. 0. 0. 0. 0. 0. 0. 0. 0. 0. 0. 0. 0. 0. 0. 0. 0. 0. 0.
      0. 0. 0. 0. 0. 0. 0. 0. 0. 0. 0. 0. 0. 0. 0. 0. 0. 0. 0. 0. 0. 0.
      0. 0. 0. 0. 0. 0. 0. 0. 0. 0. 0. 0. 0. 0. 0. 0. 0. 0. 0. 0. 0. 0.
      0. 0. 0. 0. 0. 0. 0. 0. 0. 0. 0. 0. 0. 0. 0. 0. 0. 0. 0. 0. 0. 0.
      0. 0. 0. 0. 0. 0. 0. 0. 0. 0. 0. 0. 0. 0. 0. 0. 0. 0. 0. 0. 0. 0.
      0. 0. 0. 0. 0. 0. 0. 0. 0. 0. 0. 0. 0. 0. 0. 0. 0. 0. 0. 0. 0. 0.
      0. 0. 0. 0. 0. 0. 0. 0. 0. 0. 0. 0. 0. 0. 0. 0. 0. 0. 0. 0. 0. 0.
      0. 0. 0. 0. 0. 0. 0. 0. 0. 0. 0. 0. 0. 0. 0. 0. 0. 0. 0. 0. 0. 0.
      0. 0. 0. 0. 0. 0. 0. 0. 0. 0. 0. 0. 0. 0. 0. 0. 0. 0. 0. 0. 0. 0.
      0. 0. 0. 0. 0. 0. 0. 0. 0. 0. 0. 0. 0. 0. 0. 0. 0. 0. 0. 0. 0. 0.
      0. 0. 0. 0. 0. 0. 0. 0. 0. 0. 0. 0. 0. 0. 0. 0. 0. 0. 0. 0. 0. 0.
      0. 0. 0. 0. 0. 0. 0. 0. 0. 0. 0. 0. 0. 0. 0. 0. 0. 0. 0. 0. 0. 0.
      0. 0. 0. 0. 0. 0. 0. 0. 0. 0. 0. 0. 0. 0. 0. 0. 0. 0. 0. 0. 0. 0.
      0. 0. 0. 0. 0. 0. 0. 0. 0. 0. 0. 0. 0. 0. 0. 0. 0. 0. 0. 0. 0. 0.
      0. 0. 0. 0. 0. 0. 0. 0. 0. 0. 0. 0. 0. 0. 0. 0. 0. 0. 0. 0. 0. 0.
      0. 0. 0. 0. 0. 0. 0. 0. 0. 0. 0. 0. 0. 0. 0. 0. 0. 0. 0. 0. 0. 0.
      0. 0. 0. 0. 0. 0. 0. 0. 0. 0. 0. 0. 0. 0. 0. 0. 0. 0. 0. 0. 0. 0.
      0. 0. 0. 0. 0. 0. 0. 0. 0. 0. 0. 0. 0. 0. 0. 0. 0. 0. 0. 0. 0. 0.
      0. 0. 0. 0. 0. 0. 0. 0. 0. 0. 0. 0. 0. 0. 0. 0. 0. 0. 0. 0. 0. 0.
      0. 0. 0. 0. 0. 0. 0. 0. 0. 0. 0. 0. 0. 0. 0. 0. 0. 0. 0. 0. 0. 0.
      0. 0. 0. 0. 0. 0. 0. 0. 0. 0. 0. 0. 0. 0. 0. 0. 0. 0. 0. 0. 0. 0.
      0. 0. 0. 0. 0. 0. 0. 0. 0. 0. 0. 0. 0. 0. 0. 0. 0. 0. 0. 0. 0. 0.
      0. 0. 0. 0. 0. 0. 0. 0. 0. 0. 0. 0. 0. 0. 0. 0. 0. 0. 0. 0. 0. 0.
      0. 0. 0. 0. 0. 0. 0. 0. 0. 0. 0. 0. 0. 0. 0. 0. 0. 0. 0. 0. 0. 0.
      0. 0. 0. 0. 0. 0. 0. 0. 0. 0. 0. 0. 0. 0. 0. 0. 0. 0. 0. 0. 0. 0.
      0. 0. 0. 0. 0. 0. 0. 0. 0. 0. 0. 0. 0. 0. 0. 0. 0. 0. 0. 0. 0. 0.
      0. 0. 0. 0. 0. 0. 0. 0. 0. 0. 0. 0. 0. 0. 0. 0. 0. 0. 0. 0. 0. 0.
      0. 0. 0. 0. 0. 0. 0. 0. 0. 0. 0. 0. 0. 0. 0. 0. 0. 0. 0. 0. 0. 0.
      0. 0. 0. 0. 0. 0. 0. 0. 0. 0. 0. 0. 0. 0. 0. 0. 0. 0. 0. 0. 0. 0.
      0. 0. 0. 0. 0. 0. 0. 0. 0. 0. 0. 0. 0. 0. 0. 0. 0. 0. 0. 0. 0. 0.
      0. 0. 0. 0. 0. 0. 0. 0. 0. 0. 0. 0. 0. 0. 0. 0. 0. 0. 0. 0. 0. 0.
      0. 0. 0. 0. 0. 0. 0. 0. 0. 0. 0. 0. 0. 0. 0. 0. 0. 0. 0. 0. 0. 0.
      0. 0. 0. 0. 0. 0. 0. 0. 0. 0. 0. 0. 0. 0. 0. 0. 0. 0. 0. 0. 0. 0.
      0. 0. 0. 0. 0. 0. 0. 0. 0. 0. 0. 0. 0. 0. 0. 0. 0. 0. 0. 0. 0. 0.
      0. 0. 0. 0. 0. 0. 0. 0. 0. 0. 0. 0. 0. 0. 0. 0. 0. 0. 0. 0. 0. 0.
      0. 0. 0. 0. 0. 0. 0. 0. 0. 0. 0. 0. 0. 0. 0. 0. 0. 0. 0. 0. 0. 0.
      0. 0. 0. 0. 0. 0. 0. 0. 0. 0. 0. 0. 0. 0. 0. 0. 0. 0. 0. 0. 0. 0.
      0. 0. 0. 0. 0. 0. 0. 0. 0. 0. 0. 0. 0. 0. 0. 0. 0. 0. 0. 0. 0. 0.
      0. 0. 0. 0. 0. 0. 0. 0. 0. 0. 0. 0. 0. 0. 0. 0. 0. 0. 0. 0. 0. 0.
      0. 0. 0. 0. 0. 0. 0. 0. 0. 0. 0. 0. 0. 0. 0. 0. 0. 0. 0. 0. 0. 0.
      0. 0. 0. 0. 0. 0. 0. 0. 0. 0. 0. 0. 0. 0. 0. 0. 0. 0. 0. 0. 0. 0.
      0. 0. 0. 0. 0. 0. 0. 0. 0. 0. 0. 0. 0. 0. 0. 0. 0. 0. 0. 0. 0. 0.
      0. 0. 0. 0. 0. 0. 0. 0. 0. 0. 0. 0. 0. 0. 0. 0. 0. 0. 0. 0. 0. 0.
      0. 0. 0. 0. 0. 0. 0. 0. 0. 0. 0. 0. 0. 0. 0. 0. 0. 0. 0. 0. 0. 0.
      0. 0. 0. 0. 0. 0. 0. 0. 0. 0. 0. 0. 0. 0. 0. 0. 0. 0. 0. 0. 0. 0.
      0. 0. 0. 0. 0. 0. 0. 0. 0. 0. 0. 0. 0. 0. 0. 0. 0. 0. 0. 0. 0. 0.
      0. 0. 0. 0. 0. 0. 0. 0. 0. 0. 0. 0. 0. 0. 0. 0. 0. 0. 0. 0. 0. 0.
      0. 0. 0. 0. 0. 0. 0. 0. 0. 0. 0. 0. 0. 0. 0. 0. 0. 0. 0. 0. 0. 0.
      0. 0. 0. 0. 0. 0. 0. 0. 0. 0. 0. 0. 0. 0. 0. 0. 0. 0. 0. 0. 0. 0.
      0. 0. 0. 0. 0. 0. 0. 0. 0. 0. 0. 0. 0. 0. 0. 0. 0. 0. 0. 0. 0. 0.
      0. 0. 0. 0. 0. 0. 0. 0. 0. 0. 0. 0. 0. 0. 0. 0. 0. 0. 0. 0. 0. 0.
      0. 0. 0. 0. 0. 0. 0. 0. 0. 0. 0. 0. 0. 0. 0. 0. 0. 0. 0. 0. 0. 0.
      0. 0. 0. 0. 0. 0. 0. 0. 0. 0. 0. 0. 0. 0. 0. 0. 0. 0. 0. 0. 0. 0.
      0. 0. 0. 0. 0. 0. 0. 0. 0. 0. 0. 0. 0. 0. 0. 0. 0. 0. 0. 0. 0. 0.
      0. 0. 0. 0. 0. 0. 0. 0. 0. 0. 0. 0. 0. 0. 0. 0. 0. 0. 0. 0. 0. 0.
      0. 0. 0. 0. 0. 0. 0. 0. 0. 0. 0. 0. 0. 0. 0. 0. 0. 0. 0. 0. 0. 0.
      0. 0. 0. 0. 0. 0. 0. 0. 0. 0. 0. 0. 0. 0. 0. 0. 0. 0. 0. 0. 0. 0.
      0. 0. 0. 0. 0. 0. 0. 0. 0. 0. 0. 0. 0. 0. 0. 0. 0. 0. 0. 0. 0. 0.
      0. 0. 0. 0. 0. 0. 0. 0. 0. 0. 0. 0. 0. 0. 0. 0. 0. 0. 0. 0. 0. 0.
      0. 0. 0. 0. 0. 0. 0. 0. 0. 0. 0. 0. 0. 0. 0. 0. 0. 0. 0. 0. 0. 0.
      0. 0. 0. 0. 0. 0. 0. 0. 0. 0. 0. 0. 0. 0. 0. 0. 0. 0. 0. 0. 0. 0.
      0. 0. 0. 0. 0. 0. 0. 0. 0. 0. 0. 0. 0. 0. 0. 0. 0. 0. 0. 0. 0. 0.
      0. 0. 0. 0. 0. 0. 0. 0. 0. 0. 0. 0. 0. 0. 0. 0. 0. 0. 0. 0. 0. 0.
      0. 0. 0. 0. 0. 0. 0. 0. 0. 0. 0. 0. 0. 0. 0. 0. 0. 0. 0. 0. 0. 0.
      0. 0. 0. 0. 0. 0. 0. 0. 0. 0. 0. 0. 0. 0. 0. 0. 0. 0. 0. 0. 0. 0.
      0. 0. 0. 0. 0. 0. 0. 0. 0. 0. 0. 0. 0. 0. 0. 0. 0. 0. 0. 0. 0. 0.
      0. 0. 0. 0. 0. 0. 0. 0. 0. 0. 0. 0. 0. 0. 0. 0. 0. 0. 0. 0. 0. 0.
      0. 0. 0. 0. 0. 0. 0. 0. 0. 0. 0. 0. 0. 0. 0. 0. 0. 0. 0. 0. 0. 0.
      0. 0. 0. 0. 0. 0. 0. 0. 0. 0. 0. 0. 0. 0. 0. 0. 0. 0. 0. 0. 0. 0.
      0. 0. 0. 0. 0. 0. 0. 0. 0. 0. 0. 0. 0. 0. 0. 0. 0. 0. 0. 0. 0. 0.
      0. 0. 0. 0. 0. 0. 0. 0. 0. 0. 0. 0. 0. 0. 0. 0. 0. 0. 0. 0. 0. 0.
      0. 0. 0. 0. 0. 0. 0. 0. 0. 0. 0. 0. 0. 0. 0. 0. 0. 0. 0. 0. 0. 0.
      0. 0. 0. 0. 0. 0. 0. 0. 0. 0. 0. 0. 0. 0. 0. 0. 0. 0. 0. 0. 0. 0.
      0. 0. 0. 0. 0. 0. 0. 0. 0. 0. 0. 0. 0. 0. 0. 0. 0. 0. 0. 0. 0. 0.
      0. 0. 0. 0. 0. 0. 0. 0. 0. 0. 0. 0. 0. 0. 0. 0. 0. 0. 0. 0. 0. 0.
      0. 0. 0. 0. 0. 0. 0. 0. 0. 0. 0. 0. 0. 0. 0. 0. 0. 0. 0. 0. 0. 0.
      0. 0. 0. 0. 0. 0. 0. 0. 0. 0. 0. 0. 0. 0. 0. 0. 0. 0. 0. 0. 0. 0.
      0. 0. 0. 0. 0. 0. 0. 0. 0. 0. 0. 0. 0. 0. 0. 0. 0. 0. 0. 0. 0. 0.
      0. 0. 0. 0. 0. 0. 0. 0. 0. 0. 0. 0. 0. 0. 0. 0. 0. 0. 0. 0. 0. 0.
      0. 0. 0. 0. 0. 0. 0. 0. 0. 0. 0. 0. 0. 0. 0. 0. 0. 0. 0. 0. 0. 0.
      0. 0. 0. 0. 0. 0. 0. 0. 0. 0. 0. 0. 0. 0. 0. 0. 0. 0. 0. 0. 0. 0.
      0. 0. 0. 0. 0. 0. 0. 0. 0. 0. 0. 0. 0. 0. 0. 0. 0. 0. 0. 0. 0. 0.
      0. 0. 0. 0. 0. 0. 0. 0. 0. 0. 0. 0. 0. 0. 0. 0. 0. 0. 0. 0. 0. 0.
      0. 0. 0. 0. 0. 0. 0. 0. 0. 0. 0. 0. 0. 0. 0. 0. 0. 0. 0. 0. 0. 0.
      0. 0. 0. 0. 0. 0. 0. 0. 0. 0. 0. 0. 0. 0. 0. 0. 0. 0. 0. 0. 0. 0.
      0. 0. 0. 0. 0. 0. 0. 0. 0. 0. 0. 0. 0. 0. 0. 0. 0. 0. 0. 0. 0. 0.
      0. 0. 0. 0. 0. 0. 0. 0. 0. 0. 0. 0. 0. 0. 0. 0. 0. 0. 0. 0. 0. 0.
      0. 0. 0. 0. 0. 0. 0. 0. 0. 0. 0. 0. 0. 0. 0. 0. 0. 0. 0. 0. 0. 0.
      0. 0. 0. 0. 0. 0. 0. 0. 0. 0. 0. 0. 0. 0. 0. 0. 0. 0. 0. 0. 0. 0.
      0. 0. 0. 0. 0. 0. 0. 0. 0. 0. 0. 0. 0. 0. 0. 0. 0. 0. 0. 0. 0. 0.
      0. 0. 0. 0. 0. 0. 0. 0. 0. 0. 0. 0. 0. 0. 0. 0. 0. 0. 0. 0. 0. 0.
      0. 0. 0. 0. 0. 0. 0. 0. 0. 0. 0. 0. 0. 0. 0. 0. 0. 0. 0. 0. 0. 0.
      0. 0. 0. 0. 0. 0. 0. 0. 0. 0. 0. 0. 0. 0. 0. 0. 0. 0. 0. 0. 0. 0.
      0. 0. 0. 0. 0. 0. 0. 0. 0. 0. 0. 0. 0. 0. 0. 0. 0. 0. 0. 0. 0. 0.
      0. 0. 0. 0. 0. 0. 0. 0. 0. 0. 0. 0. 0. 0. 0. 0. 0. 0. 0. 0. 0. 0.
      0. 0. 0. 0. 0. 0. 0. 0. 0. 0. 0. 0. 0. 0. 0. 0. 0. 0. 0. 0. 0. 0.
      0. 0. 0. 0. 0. 0. 0. 0. 0. 0. 0. 0. 0. 0. 0. 0. 0. 0. 0. 0. 0. 0.
      0. 0. 0. 0. 0. 0. 0. 0. 0. 0. 0. 0. 0. 0. 0. 0. 0. 0. 0. 0. 0. 0.
      0. 0. 0. 0. 0. 0. 0. 0. 0. 0. 0. 0. 0. 0. 0. 0. 0. 0. 0. 0. 0. 0.
      0. 0. 0. 0. 0. 0. 0. 0. 0. 0. 0. 0. 0. 0. 0. 0. 0. 0. 0. 0. 0. 0.
      0. 0. 0. 0. 0. 0. 0. 0. 0. 0. 0. 0. 0. 0. 0. 0. 0. 0. 0. 0. 0. 0.
      0. 0. 0. 0. 0. 0. 0. 0. 0. 0. 0. 0. 0. 0. 0. 0. 0. 0. 0. 0. 0. 0.
      0. 0. 0. 0. 0. 0. 0. 0. 0. 0. 0. 0. 0. 0. 0. 0. 0. 0. 0. 0. 0. 0.
      0. 0. 0. 0. 0. 0. 0. 0. 0. 0. 0. 0. 0. 0. 0. 0. 0. 0. 0. 0. 0. 0.
      0. 0. 0. 0. 0. 0. 0. 0. 0. 0. 0. 0. 0. 0. 0. 0. 0. 0. 0. 0. 0. 0.
      0. 0. 0. 0. 0. 0. 0. 0. 0. 0. 0. 0. 0. 0. 0. 0. 0. 0. 0. 0. 0. 0.
      0. 0. 0. 0. 0. 0. 0. 0. 0. 0. 0. 0. 0. 0. 0. 0. 0. 0. 0. 0. 0. 0.
      0. 0. 0. 0. 0. 0. 0. 0. 0. 0. 0. 0. 0. 0. 0. 0. 0. 0. 0. 0. 0. 0.
      0. 0. 0. 0. 0. 0. 0. 0. 0. 0. 0. 0. 0. 0. 0. 0. 0. 0. 0. 0. 0. 0.
      0. 0. 0. 0. 0. 0. 0. 0. 0. 0. 0. 0. 0. 0. 0. 0. 0. 0. 0. 0. 0. 0.
      0. 0. 0. 0. 0. 0. 0. 0. 0. 0. 0. 0. 0. 0. 0. 0. 0. 0. 0. 0. 0. 0.
      0. 0. 0. 0. 0. 0. 0. 0. 0. 0. 0. 0. 0. 0. 0. 0. 0. 0. 0. 0. 0. 0.
      0. 0. 0. 0. 0. 0. 0. 0. 0. 0. 0. 0. 0. 0. 0. 0. 0. 0. 0. 0. 0. 0.
      0. 0. 0. 0. 0. 0. 0. 0. 0. 0. 0. 0. 0. 0. 0. 0. 0. 0. 0. 0. 0. 0.
      0. 0. 0. 0. 0. 0. 0. 0. 0. 0. 0. 0. 0. 0. 0. 0. 0. 0. 0. 0. 0. 0.
      0. 0. 0. 0. 0. 0. 0. 0. 0. 0. 0. 0. 0. 0. 0. 0. 0. 0. 0. 0. 0. 0.
      0. 0. 0. 0. 0. 0. 0. 0. 0. 0. 0. 0. 0. 0. 0. 0. 0. 0. 0. 0. 0. 0.
      0. 0. 0. 0. 0. 0. 0. 0. 0. 0. 0. 0. 0. 0. 0. 0. 0. 0. 0. 0. 0. 0.
      0. 0. 0. 0. 0. 0. 0. 0. 0. 0. 0. 0. 0. 0. 0. 0. 0. 0. 0. 0. 0. 0.
      0. 0. 0. 0. 0. 0. 0. 0. 0. 0. 0. 0. 0. 0. 0. 0. 0. 0. 0. 0. 0. 0.
      0. 0. 0. 0. 0. 0. 0. 0. 0. 0. 0. 0. 0. 0. 0. 0. 0. 0. 0. 0. 0. 0.
      0. 0. 0. 0. 0. 0. 0. 0. 0. 0. 0. 0. 0. 0. 0. 0. 0. 0. 0. 0. 0. 0.
      0. 0. 0. 0. 0. 0. 0. 0. 0. 0. 0. 0. 0. 0. 0. 0. 0. 0. 0. 0. 0. 0.
      0. 0. 0. 0. 0. 0. 0. 0. 0. 0. 0. 0. 0. 0. 0. 0. 0. 0. 0. 0. 0. 0.
      0. 0. 0. 0. 0. 0. 0. 0. 0. 0. 0. 0. 0. 0. 0. 0. 0. 0. 0. 0. 0. 0.
      0. 0. 0. 0. 0. 0. 0. 0. 0. 0. 0. 0. 0. 0. 0. 0. 0. 0. 0. 0. 0. 0.
      0. 0. 0. 0. 0. 0. 0. 0. 0. 0. 0. 0. 0. 0. 0. 0. 0. 0. 0. 0. 0. 0.
      0. 0. 0. 0. 0. 0. 0. 0. 0. 0. 0. 0. 0. 0. 0. 0. 0. 0. 0. 0. 0. 0.
      0. 0. 0. 0. 0. 0. 0. 0. 0. 0. 0. 0. 0. 0. 0. 0. 0. 0. 0. 0. 0. 0.
      0. 0. 0. 0. 0. 0. 0. 0. 0. 0. 0. 0. 0. 0. 0. 0. 0. 0. 0. 0. 0. 0.
      0. 0. 0. 0. 0. 0. 0. 0. 0. 0. 0. 0. 0. 0. 0. 0. 0. 0. 0. 0. 0. 0.
      0. 0. 0. 0. 0. 0. 0. 0. 0. 0. 0. 0. 0. 0. 0. 0. 0. 0. 0. 0. 0. 0.
      0. 0. 0. 0. 0. 0. 0. 0. 0. 0. 0. 0. 0. 0. 0. 0. 0. 0. 0. 0. 0. 0.
      0. 0. 0. 0. 0. 0. 0. 0. 0. 0. 0. 0. 0. 0. 0. 0. 0. 0. 0. 0. 0. 0.
      0. 0. 0. 0. 0. 0. 0. 0. 0. 0. 0. 0. 0. 0. 0. 0. 0. 0. 0. 0. 0. 0.
      0. 0. 0. 0. 0. 0. 0. 0. 0. 0. 0. 0. 0. 0. 0. 0. 0. 0. 0. 0. 0. 0.
      0. 0. 0. 0. 0. 0. 0. 0. 0. 0. 0. 0. 0. 0. 0. 0. 0. 0. 0. 0. 0. 0.
      0. 0. 0. 0. 0. 0. 0. 0. 0. 0. 0. 0. 0. 0. 0. 0. 0. 0. 0. 0. 0. 0.
      0. 0. 0. 0. 0. 0. 0. 0. 0. 0. 0. 0. 0. 0. 0. 0. 0. 0. 0. 0. 0. 0.
      0. 0. 0. 0. 0. 0. 0. 0. 0. 0. 0. 0. 0. 0. 0. 0. 0. 0. 0. 0. 0. 0.
      0. 0. 0. 0. 0. 0. 0. 0. 0. 0. 0. 0. 0. 0. 0. 0. 0. 0. 0. 0. 0. 0.
      0. 0. 0. 0. 0. 0. 0. 0. 0. 0. 0. 0. 0. 0. 0. 0. 0. 0. 0. 0. 0. 0.
      0. 0. 0. 0. 0. 0. 0. 0. 0. 0. 0. 0. 0. 0. 0. 0. 0. 0. 0. 0. 0. 0.
      0. 0. 0. 0. 0. 0. 0. 0. 0. 0. 0. 0. 0. 0. 0. 0. 0. 0. 0. 0. 0. 0.
      0. 0. 0. 0. 0. 0. 0. 0. 0. 0. 0. 0. 0. 0. 0. 0. 0. 0. 0. 0. 0. 0.
      0. 0. 0. 0. 0. 0. 0. 0. 0. 0. 0. 0. 0. 0. 0. 0. 0. 0. 0. 0. 0. 0.
      0. 0. 0. 0. 0. 0. 0. 0. 0. 0. 0. 0. 0. 0. 0. 0. 0. 0. 0. 0. 0. 0.
      0. 0. 0. 0. 0. 0. 0. 0. 0. 0. 0. 0. 0. 0. 0. 0. 0. 0. 0. 0. 0. 0.
      0. 0. 0. 0. 0. 0. 0. 0. 0. 0. 0. 0. 0. 0. 0. 0. 0. 0. 0. 0. 0. 0.
      0. 0. 0. 0. 0. 0. 0. 0. 0. 0. 0. 0. 0. 0. 0. 0. 0. 0. 0. 0. 0. 0.
      0. 0. 0. 0. 0. 0. 0. 0. 0. 0. 0. 0. 0. 0. 0. 0. 0. 0. 0. 0. 0. 0.
      0. 0. 0. 0. 0. 0. 0. 0. 0. 0. 0. 0. 0. 0. 0. 0. 0. 0. 0. 0. 0. 0.
      0. 0. 0. 0. 0. 0. 0. 0. 0. 0. 0. 0. 0. 0. 0. 0. 0. 0. 0. 0. 0. 0.
      0. 0. 0. 0. 0. 0. 0. 0. 0. 0. 0. 0. 0. 0. 0. 0. 0. 0. 0. 0. 0. 0.
      0. 0. 0. 0. 0. 0. 0. 0. 0. 0. 0. 0. 0. 0. 0. 0. 0. 0. 0. 0. 0. 0.
      0. 0. 0. 0. 0. 0. 0. 0. 0. 0. 0. 0. 0. 0. 0. 0. 0. 0. 0. 0. 0. 0.
      0. 0. 0. 0. 0. 0. 0. 0. 0. 0. 0. 0. 0. 0. 0. 0. 0. 0. 0. 0. 0. 0.
      0. 0. 0. 0. 0. 0. 0. 0. 0. 0. 0. 0. 0. 0. 0. 0. 0. 0. 0. 0. 0. 0.
      0. 0. 0. 0. 0. 0. 0. 0. 0. 0. 0. 0. 0. 0. 0. 0. 0. 0. 0. 0. 0. 0.
      0. 0. 0. 0. 0. 0. 0. 0. 0. 0. 0. 0. 0. 0. 0. 0. 0. 0. 0. 0. 0. 0.
      0. 0. 0. 0. 0. 0. 0. 0. 0. 0. 0. 0. 0. 0. 0. 0. 0. 0. 0. 0. 0. 0.
      0. 0. 0. 0. 0. 0. 0. 0. 0. 0. 0. 0. 0. 0. 0. 0. 0. 0. 0. 0. 0. 0.
      0. 0. 0. 0. 0. 0. 0. 0. 0. 0. 0. 0. 0. 0. 0. 0. 0. 0. 0. 0. 0. 0.
      0. 0. 0. 0. 0. 0. 0. 0. 0. 0. 0. 0. 0. 0. 0. 0. 0. 0. 0. 0. 0. 0.
      0. 0. 0. 0. 0. 0. 0. 0. 0. 0. 0. 0. 0. 0. 0. 0. 0. 0. 0. 0. 0. 0.
      0. 0. 0. 0. 0. 0. 0. 0. 0. 0. 0. 0. 0. 0. 0. 0. 0. 0. 0. 0. 0. 0.
      0. 0. 0. 0. 0. 0. 0. 0. 0. 0. 0. 0. 0. 0. 0. 0. 0. 0. 0. 0. 0. 0.
      0. 0. 0. 0. 0. 0. 0. 0. 0. 0. 0. 0. 0. 0. 0. 0. 0. 0. 0. 0. 0. 0.
      0. 0. 0. 0. 0. 0. 0. 0. 0. 0. 0. 0. 0. 0. 0. 0. 0. 0. 0. 0. 0. 0.
      0. 0. 0. 0. 0. 0. 0. 0. 0. 0. 0. 0. 0. 0. 0. 0. 0. 0. 0. 0. 0. 0.
      0. 0. 0. 0. 0. 0. 0. 0. 0. 0. 0. 0. 0. 0. 0. 0. 0. 0. 0. 0. 0. 0.
      0. 0. 0. 0. 0. 0. 0. 0. 0. 0. 0. 0. 0. 0. 0. 0. 0. 0. 0. 0. 0. 0.
      0. 0. 0. 0. 0. 0. 0. 0. 0. 0. 0. 0. 0. 0. 0. 0. 0. 0. 0. 0. 0. 0.
      0. 0. 0. 0. 0. 0. 0. 0. 0. 0. 0. 0. 0. 0. 0. 0. 0. 0. 0. 0. 0. 0.
      0. 0. 0. 0. 0. 0. 0. 0. 0. 0. 0. 0. 0. 0. 0. 0. 0. 0. 0. 0. 0. 0.
      0. 0. 0. 0. 0. 0. 0. 0. 0. 0. 0. 0. 0. 0. 0. 0. 0. 0. 0. 0. 0. 0.
      0. 0. 0. 0. 0. 0. 0. 0. 0. 0. 0. 0. 0. 0. 0. 0. 0. 0. 0. 0. 0. 0.
      0. 0. 0. 0. 0. 0. 0. 0. 0. 0. 0. 0. 0. 0. 0. 0. 0. 0. 0. 0. 0. 0.
      0. 0. 0. 0. 0. 0. 0. 0. 0. 0. 0. 0. 0. 0. 0. 0. 0. 0. 0. 0. 0. 0.
      0. 0. 0. 0. 0. 0. 0. 0. 0. 0. 0. 0. 0. 0. 0. 0. 0. 0. 0. 0. 0. 0.
      0. 0. 0. 0. 0. 0. 0. 0. 0. 0. 0. 0. 0. 0. 0. 0. 0. 0. 0. 0. 0. 0.
      0. 0. 0. 0. 0. 0. 0. 0. 0. 0. 0. 0. 0. 0. 0. 0. 0. 0. 0. 0. 0. 0.
      0. 0. 0. 0. 0. 0. 0. 0. 0. 0. 0. 0. 0. 0. 0. 0. 0. 0. 0. 0. 0. 0.
      0. 0. 0. 0. 0. 0. 0. 0. 0. 0. 0. 0. 0. 0. 0. 0. 0. 0. 0. 0. 0. 0.
      0. 0. 0. 0. 0. 0. 0. 0. 0. 0. 0. 0. 0. 0. 0. 0. 0. 0. 0. 0. 0. 0.
      0. 0. 0. 0. 0. 0. 0. 0. 0. 0. 0. 0. 0. 0. 0. 0. 0. 0. 0. 0. 0. 0.
      0. 0. 0. 0. 0. 0. 0. 0. 0. 0. 0. 0. 0. 0. 0. 0. 0. 0. 0. 0. 0. 0.
      0. 0. 0. 0. 0. 0. 0. 0. 0. 0. 0. 0. 0. 0. 0. 0. 0. 0. 0. 0. 0. 0.
      0. 0. 0. 0. 0. 0. 0. 0. 0. 0. 0. 0. 0. 0. 0. 0. 0. 0. 0. 0. 0. 0.
      0. 0. 0. 0. 0. 0. 0. 0. 0. 0. 0. 0. 0. 0. 0. 0. 0. 0. 0. 0. 0. 0.
      0. 0. 0. 0. 0. 0. 0. 0. 0. 0. 0. 0. 0. 0. 0. 0. 0. 0. 0. 0. 0. 0.
      0. 0. 0. 0. 0. 0. 0. 0. 0. 0. 0. 0. 0. 0. 0. 0. 0. 0. 0. 0. 0. 0.
      0. 0. 0. 0. 0. 0. 0. 0. 0. 0. 0. 0. 0. 0. 0. 0. 0. 0. 0. 0. 0. 0.
      0. 0. 0. 0. 0. 0. 0. 0. 0. 0. 0. 0. 0. 0. 0. 0. 0. 0. 0. 0. 0. 0.
      0. 0. 0. 0. 0. 0. 0. 0. 0. 0. 0. 0. 0. 0. 0. 0. 0. 0. 0. 0. 0. 0.
      0. 0. 0. 0. 0. 0. 0. 0. 0. 0. 0. 0. 0. 0. 0. 0. 0. 0. 0. 0. 0. 0.
      0. 0. 0. 0. 0. 0. 0. 0. 0. 0. 0. 0. 0. 0. 0. 0. 0. 0. 0. 0. 0. 0.
      0. 0. 0. 0. 0. 0. 0. 0. 0. 0. 0. 0. 0. 0. 0. 0. 0. 0. 0. 0. 0. 0.
      0. 0. 0. 0. 0. 0. 0. 0. 0. 0. 0. 0. 0. 0. 0. 0. 0. 0. 0. 0. 0. 0.
      0. 0. 0. 0. 0. 0. 0. 0. 0. 0. 0. 0. 0. 0. 0. 0. 0. 0. 0. 0. 0. 0.
      0. 0. 0. 0. 0. 0. 0. 0. 0. 0. 0. 0. 0. 0. 0. 0. 0. 0. 0. 0. 0. 0.
      0. 0. 0. 0. 0. 0. 0. 0. 0. 0. 0. 0. 0. 0. 0. 0. 0. 0. 0. 0. 0. 0.
      0. 0. 0. 0. 0. 0. 0. 0. 0. 0. 0. 0. 0. 0. 0. 0. 0. 0. 0. 0. 0. 0.
      0. 0. 0. 0. 0. 0. 0. 0. 0. 0. 0. 0. 0. 0. 0. 0. 0. 0. 0. 0. 0. 0.
      0. 0. 0. 0. 0. 0. 0. 0. 0. 0. 0. 0. 0. 0. 0. 0. 0. 0. 0. 0. 0. 0.
      0. 0. 0. 0. 0. 0. 0. 0. 0. 0. 0. 0. 0. 0. 0. 0. 0. 0. 0. 0. 0. 0.
      0. 0. 0. 0. 0. 0. 0. 0. 0. 0. 0. 0. 0. 0. 0. 0. 0. 0. 0. 0. 0. 0.
      0. 0. 0. 0. 0. 0. 0. 0. 0. 0. 0. 0. 0. 0. 0. 0. 0. 0. 0. 0. 0. 0.
      0. 0. 0. 0. 0. 0. 0. 0. 0. 0. 0. 0. 0. 0. 0. 0. 0. 0. 0. 0. 0. 0.
      0. 0. 0. 0. 0. 0. 0. 0. 0. 0. 0. 0. 0. 0. 0. 0. 0. 0. 0. 0. 0. 0.
      0. 0. 0. 0. 0. 0. 0. 0. 0. 0. 0. 0. 0. 0. 0. 0. 0. 0. 0. 0. 0. 0.
      0. 0. 0. 0. 0. 0. 0. 0. 0. 0. 0. 0. 0. 0. 0. 0. 0. 0. 0. 0. 0. 0.
      0. 0. 0. 0. 0. 0. 0. 0. 0. 0. 0. 0. 0. 0. 0. 0. 0. 0. 0. 0. 0. 0.
      0. 0. 0. 0. 0. 0. 0. 0. 0. 0. 0. 0. 0. 0. 0. 0. 0. 0. 0. 0. 0. 0.
      0. 0. 0. 0. 0. 0. 0. 0. 0. 0. 0. 0. 0. 0. 0. 0. 0. 0. 0. 0. 0. 0.
      0. 0. 0. 0. 0. 0. 0. 0. 0. 0. 0. 0. 0. 0. 0. 0. 0. 0. 0. 0. 0. 0.
      0. 0. 0. 0. 0. 0. 0. 0. 0. 0. 0. 0. 0. 0. 0. 0. 0. 0. 0. 0. 0. 0.
      0. 0. 0. 0. 0. 0. 0. 0. 0. 0. 0. 0. 0. 0. 0. 0. 0. 0. 0. 0. 0. 0.
      0. 0. 0. 0. 0. 0. 0. 0. 0. 0. 0. 0. 0. 0. 0. 0. 0. 0. 0. 0. 0. 0.
      0. 0. 0. 0. 0. 0. 0. 0. 0. 0. 0. 0. 0. 0. 0. 0. 0. 0. 0. 0. 0. 0.
      0. 0. 0. 0. 0. 0. 0. 0. 0. 0. 0. 0. 0. 0. 0. 0. 0. 0. 0. 0. 0. 0.
      0. 0. 0. 0. 0. 0. 0. 0. 0. 0. 0. 0. 0. 0. 0. 0. 0. 0. 0. 0. 0. 0.
      0. 0. 0. 0. 0. 0. 0. 0. 0. 0. 0. 0. 0. 0. 0. 0. 0. 0. 0. 0. 0. 0.
      0. 0. 0. 0. 0. 0. 0. 0. 0. 0. 0. 0. 0. 0. 0. 0. 0. 0. 0. 0. 0. 0.
      0. 0. 0. 0. 0. 0. 0. 0. 0. 0. 0. 0. 0. 0. 0. 0. 0. 0. 0. 0. 0. 0.
      0. 0. 0. 0. 0. 0. 0. 0. 0. 0. 0. 0. 0. 0. 0. 0. 0. 0. 0. 0. 0. 0.
      0. 0. 0. 0. 0. 0. 0. 0. 0. 0. 0. 0. 0. 0. 0. 0. 0. 0. 0. 0. 0. 0.
      0. 0. 0. 0. 0. 0. 0. 0. 0. 0. 0. 0. 0. 0. 0. 0. 0. 0. 0. 0. 0. 0.
      0. 0. 0. 0. 0. 0. 0. 0. 0. 0. 0. 0. 0. 0. 0. 0. 0. 0. 0. 0. 0. 0.
      0. 0. 0. 0. 0. 0. 0. 0. 0. 0. 0. 0. 0. 0. 0. 0. 0. 0. 0. 0. 0. 0.
      0. 0. 0. 0. 0. 0. 0. 0. 0. 0. 0. 0. 0. 0. 0. 0. 0. 0. 0. 0. 0. 0.
      0. 0. 0. 0. 0. 0. 0. 0. 0. 0. 0. 0. 0. 0. 0. 0. 0. 0. 0. 0. 0. 0.
      0. 0. 0. 0. 0. 0. 0. 0. 0. 0. 0. 0. 0. 0. 0. 0. 0. 0. 0. 0. 0. 0.
      0. 0. 0. 0. 0. 0. 0. 0. 0. 0. 0. 0. 0. 0. 0. 0. 0. 0. 0. 0. 0. 0.
      0. 0. 0. 0. 0. 0. 0. 0. 0. 0. 0. 0. 0. 0. 0. 0. 0. 0. 0. 0. 0. 0.
      0. 0. 0. 0. 0. 0. 0. 0. 0. 0. 0. 0. 0. 0. 0. 0. 0. 0. 0. 0. 0. 0.
      0. 0. 0. 0. 0. 0. 0. 0. 0. 0. 0. 0. 0. 0. 0. 0. 0. 0. 0. 0. 0. 0.
      0. 0. 0. 0. 0. 0. 0. 0. 0. 0. 0. 0. 0. 0. 0. 0. 0. 0. 0. 0. 0. 0.
      0. 0. 0. 0. 0. 0. 0. 0. 0. 0. 0. 0. 0. 0. 0. 0. 0. 0. 0. 0. 0. 0.
      0. 0. 0. 0. 0. 0. 0. 0. 0. 0. 0. 0. 0. 0. 0. 0. 0. 0. 0. 0. 0. 0.
      0. 0. 0. 0. 0. 0. 0. 0. 0. 0. 0. 0. 0. 0. 0. 0. 0. 0. 0. 0. 0. 0.
      0. 0. 0. 0. 0. 0. 0. 0. 0. 0. 0. 0. 0. 0. 0. 0. 0. 0. 0. 0. 0. 0.
      0. 0. 0. 0. 0. 0. 0. 0. 0. 0. 0. 0. 0. 0. 0. 0. 0. 0. 0. 0. 0. 0.
      0. 0. 0. 0. 0. 0. 0. 0. 0. 0. 0. 0. 0. 0. 0. 0. 0. 0. 0. 0. 0. 0.
      0. 0. 0. 0. 0. 0. 0. 0. 0. 0. 0. 0. 0. 0. 0. 0. 0. 0. 0. 0. 0. 0.
      0. 0. 0. 0. 0. 0. 0. 0. 0. 0. 0. 0. 0. 0. 0. 0. 0. 0. 0. 0. 0. 0.
      0. 0. 0. 0. 0. 0. 0. 0. 0. 0. 0. 0. 0. 0. 0. 0. 0. 0. 0. 0. 0. 0.
      0. 0. 0. 0. 0. 0. 0. 0. 0. 0. 0. 0. 0. 0. 0. 0. 0. 0. 0. 0. 0. 0.
      0. 0. 0. 0. 0. 0. 0. 0. 0. 0. 0. 0. 0. 0. 0. 0. 0. 0. 0. 0. 0. 0.
      0. 0. 0. 0. 0. 0. 0. 0. 0. 0. 0. 0. 0. 0. 0. 0. 0. 0. 0. 0. 0. 0.
      0. 0. 0. 0. 0. 0. 0. 0. 0. 0. 0. 0. 0. 0. 0. 0. 0. 0. 0. 0. 0. 0.
      0. 0. 0. 0. 0. 0. 0. 0. 0. 0. 0. 0. 0. 0. 0. 0. 0. 0. 0. 0. 0. 0.
      0. 0. 0. 0. 0. 0. 0. 0. 0. 0. 0. 0. 0. 0. 0. 0. 0. 0. 0. 0. 0. 0.
      0. 0. 0. 0. 0. 0. 0. 0. 0. 0. 0. 0. 0. 0. 0. 0. 0. 0. 0. 0. 0. 0.
      0. 0. 0. 0. 0. 0. 0. 0. 0. 0. 0. 0. 0. 0. 0. 0. 0. 0. 0. 0. 0. 0.
      0. 0. 0. 0. 0. 0. 0. 0. 0. 0. 0. 0. 0. 0. 0. 0. 0. 0. 0. 0. 0. 0.
      0. 0. 0. 0. 0. 0. 0. 0. 0. 0. 0. 0. 0. 0. 0. 0. 0. 0. 0. 0. 0. 0.
      0. 0. 0. 0. 0. 0. 0. 0. 0. 0. 0. 0. 0. 0. 0. 0. 0. 0. 0. 0. 0. 0.
      0. 0. 0. 0. 0. 0. 0. 0. 0. 0. 0. 0. 0. 0. 0. 0. 0. 0. 0. 0. 0. 0.
      0. 0. 0. 0. 0. 0. 0. 0. 0. 0. 0. 0. 0. 0. 0. 0. 0. 0. 0. 0. 0. 0.
      0. 0. 0. 0. 0. 0. 0. 0. 0. 0. 0. 0. 0. 0. 0. 0. 0. 0. 0. 0. 0. 0.
      0. 0. 0. 0. 0. 0. 0. 0. 0. 0. 0. 0. 0. 0. 0. 0. 0. 0. 0. 0. 0. 0.
      0. 0. 0. 0. 0. 0. 0. 0. 0. 0. 0. 0. 0. 0. 0. 0. 0. 0. 0. 0. 0. 0.
      0. 0. 0. 0. 0. 0. 0. 0. 0. 0. 0. 0. 0. 0. 0. 0. 0. 0. 0. 0. 0. 0.
      0. 0. 0. 0. 0. 0. 0. 0. 0. 0. 0. 0. 0. 0. 0. 0. 0. 0. 0. 0. 0. 0.
      0. 0. 0. 0. 0. 0. 0. 0. 0. 0. 0. 0. 0. 0. 0. 0. 0. 0. 0. 0. 0. 0.
      0. 0. 0. 0. 0. 0. 0. 0. 0. 0. 0. 0. 0. 0. 0. 0. 0. 0. 0. 0. 0. 0.
      0. 0. 0. 0. 0. 0. 0. 0. 0. 0. 0. 0. 0. 0. 0. 0. 0. 0. 0. 0. 0. 0.
      0. 0. 0. 0. 0. 0. 0. 0. 0. 0. 0. 0. 0. 0. 0. 0. 0. 0. 0. 0. 0. 0.
      0. 0. 0. 0. 0. 0. 0. 0. 0. 0. 0. 0. 0. 0. 0. 0. 0. 0. 0. 0. 0. 0.
      0. 0. 0. 0. 0. 0. 0. 0. 0. 0. 0. 0. 0. 0. 0. 0. 0. 0. 0. 0. 0. 0.
      0. 0. 0. 0. 0. 0. 0. 0. 0. 0. 0. 0. 0. 0. 0. 0. 0. 0. 0. 0. 0. 0.
      0. 0. 0. 0. 0. 0. 0. 0. 0. 0. 0. 0. 0. 0. 0. 0. 0. 0. 0. 0. 0. 0.
      0. 0. 0. 0. 0. 0. 0. 0. 0. 0. 0. 0. 0. 0. 0. 0. 0. 0. 0. 0. 0. 0.
      0. 0. 0. 0. 0. 0. 0. 0. 0. 0. 0. 0. 0. 0. 0. 0. 0. 0. 0. 0. 0. 0.
      0. 0. 0. 0. 0. 0. 0. 0. 0. 0. 0. 0. 0. 0. 0. 0. 0. 0. 0. 0. 0. 0.
      0. 0. 0. 0. 0. 0. 0. 0. 0. 0. 0. 0. 0. 0. 0. 0. 0. 0. 0. 0. 0. 0.
      0. 0. 0. 0. 0. 0. 0. 0. 0. 0. 0. 0. 0. 0. 0. 0. 0. 0. 0. 0. 0. 0.
      0. 0. 0. 0. 0. 0. 6.27634122e-08 2.09211368e-08 0. 2.09211368e-08
      6.97371227e-09 0. 0. 3.48685631e-08 0. 0. 4.18422736e-08
      3.48685631e-08 0. 0. 0. 0. 0. 0. 0. 0. 0. 0. 0. 0. 0. 0. 0. 0. 0.
      0. 0. 0. 0. 0. 0. 0. 0. 0. 0. 0. 0. 0. 0. 0. 0. 0. 0. 0. 0. 0. 0.
      0. 0. 0. 0. 0. 0. 0. 0. 0. 0. 0. 0. 0. 0. 0. 0. 0. 0. 0. 0. 0. 0.
      0. 0. 0. 0. 0. 0. 0. 0. 0. 0. 0. 0. 0. 0. 0. 0. 0. 0. 0. 0. 0. 0.
      0. 0. 0. 0. 0. 0. 0. 0. 0. 0. 0. 0. 0. 0. 0. 0. 0. 0. 0. 0. 0. 0.
      0. 0. 0. 0. 0. 0. 0. 0. 0. 0. 0. 0. 0. 0. 0. 0. 0. 0. 0. 0. 0. 0.
      0. 0. 0. 0. 0. 0. 0. 0. 0. 0. 0. 0. 0. 0. 0. 0. 0. 0. 0. 0. 0. 0.
      0. 0. 0. 0. 0. 0. 0. 0. 0. 0. 0. 0. 0. 0. 0. 0. 0. 0. 0. 0. 0. 0.
      0. 0. 0. 0. 0. 0. 0. 0. 0. 0. 0. 0. 0. 0. 0. 0. 0. 0. 0. 0. 0. 0.
      0. 0. 0. 0. 0. 0. 0. 0. 0. 0. 0. 0. 0. 0. 0. 0. 0. 0. 0. 0. 0. 0.
      0. 0. 0. 0. 0. 0. 0. 0. 0. 0. 0. 2.78948491e-08 6.97371227e-09 0.
      0. 2.09211368e-08 4.88159877e-08 1.39474245e-08 2.09211368e-08
      6.97371227e-09 2.09211368e-08 3.48685631e-08 1.39474245e-08 0. 0.
      2.78948491e-08 2.09211368e-08 0. 0. 0. 0. 0. 0. 0. 0. 0. 0. 0. 0.
      0. 0. 0. 0. 0. 0. 0. 0. 0. 0. 0. 0. 0. 0. 0. 0. 0. 0. 0. 0. 0. 0.
      0. 0. 0. 0. 0. 0. 0. 0. 0. 0. 0. 0. 0. 0. 0. 0. 0. 0. 0. 0. 0. 0.
      0. 0. 0. 0. 0. 0. 0. 0. 0. 0. 0. 0. 0. 0. 0. 0. 0. 0. 0. 0. 0. 0.
      0. 0. 0. 0. 0. 0. 0. 0. 0. 0. 0. 0. 0. 0. 0. 0. 0. 0. 0. 0. 0. 0.
      0. 0. 0. 0. 0. 0. 0. 0. 0. 0. 0. 0. 0. 0. 0. 0. 0. 0. 0. 0. 0. 0.
      0. 0. 0. 0. 0. 0. 0. 0. 0. 0. 0. 0. 0. 0. 0. 0. 0. 0. 0. 0. 0. 0.
      0. 0. 0. 0. 0. 0. 0. 0. 0. 0. 0. 0. 0. 0. 0. 0. 0. 0. 0. 0. 0. 0.
      0. 0. 0. 0. 0. 0. 0. 0. 0. 0. 0. 0. 0. 0. 0. 0. 0. 0. 0. 0. 0. 0.
      0. 0. 0. 0. 0. 0. 0. 0. 0. 0. 0. 0. 0. 0. 0. 0. 0. 0. 0. 0. 0. 0.
      0. 0. 0. 0. 0. 0. 0. 0. 0. 0. 0. 0. 0. 0. 6.97371227e-09
      2.78948491e-08 0. 6.97371227e-09 4.88159877e-08 1.39474245e-08 0.
      2.78948491e-08 0. 0. 6.97371227e-09 1.39474245e-08 0. 0.
      3.48685631e-08 0. 0. 0. 0. 0. 0. 0. 0. 0. 0. 0. 0. 0. 0. 0. 0. 0.
      0. 0. 0. 0. 0. 0. 0. 0. 0. 0. 0. 0. 0. 0. 0. 0. 0. 0. 0. 0. 0. 0.
      0. 0. 0. 0. 0. 0. 0. 0. 0. 0. 0. 0. 0. 0. 0. 0. 0. 0. 0. 0. 0. 0.
      0. 0. 0. 0. 0. 0. 0. 0. 0. 0. 0. 0. 0. 0. 0. 0. 0. 0. 0. 0. 0. 0.
      0. 0. 0. 0. 0. 0. 0. 0. 0. 0. 0. 0. 0. 0. 0. 0. 0. 0. 0. 0. 0. 0.
      0. 0. 0. 0. 0. 0. 0. 0. 0. 0. 0. 0. 0. 0. 0. 0. 0. 0. 0. 0. 0. 0.
      0. 0. 0. 0. 0. 0. 0. 0. 0. 0. 0. 0. 0. 0. 0. 0. 0. 0. 0. 0. 0. 0.
      0. 0. 0. 0. 0. 0. 0. 0. 0. 0. 0. 0. 0. 0. 0. 0. 0. 0. 0. 0. 0. 0.
      0. 0. 0. 0. 0. 0. 0. 0. 0. 0. 0. 0. 0. 0. 0. 0. 0. 0. 0. 0. 0. 0.
      0. 0. 0. 0. 0. 0. 0. 0. 0. 0. 0. 0. 0. 0. 0. 0. 0. 0. 0. 0. 0. 0.
      0. 0. 0. 0. 0. 0. 0. 0. 0. 0. 0. 2.09211368e-08 0. 4.88159877e-08
      2.09211368e-08 0. 0. 3.48685631e-08 2.78948491e-08 6.97371227e-09
      0. 0. 4.18422736e-08 0. 2.78948491e-08 0. 0. 0. 0. 0. 0. 0. 0. 0.
      0. 0. 0. 0. 0. 0. 0. 0. 0. 0. 0. 0. 0. 0. 0. 0. 0. 0. 0. 0. 0. 0.
      0. 0. 0. 0. 0. 0. 0. 0. 0. 0. 0. 0. 0. 0. 0. 0. 0. 0. 0. 0. 0. 0.
      0. 0. 0. 0. 0. 0. 0. 0. 0. 0. 0. 0. 0. 0. 0. 0. 0. 0. 0. 0. 0. 0.
      0. 0. 0. 0. 0. 0. 0. 0. 0. 0. 0. 0. 0. 0. 0. 0. 0. 0. 0. 0. 0. 0.
      0. 0. 0. 0. 0. 0. 0. 0. 0. 0. 0. 0. 0. 0. 0. 0. 0. 0. 0. 0. 0. 0.
      0. 0. 0. 0. 0. 0. 0. 0. 0. 0. 0. 0. 0. 0. 0. 0. 0. 0. 0. 0. 0. 0.
      0. 0. 0. 0. 0. 0. 0. 0. 0. 0. 0. 0. 0. 0. 0. 0. 0. 0. 0. 0. 0. 0.
      0. 0. 0. 0. 0. 0. 0. 0. 0. 0. 0. 0. 0. 0. 0. 0. 0. 0. 0. 0. 0. 0.
      0. 0. 0. 0. 0. 0. 0. 0. 0. 0. 0. 0. 0. 0. 0. 0. 0. 0. 0. 0. 0. 0.
      0. 0. 0. 0. 0. 0. 0. 0. 0. 0. 0. 0. 0. 0. 0. 0. 0. 0. 0.
      2.09211368e-08 0. 2.78948491e-08 0. 3.48685631e-08 1.39474245e-08
      1.39474245e-08 0. 6.27634122e-08 2.09211368e-08 0. 5.57896982e-08
      0. 3.48685631e-08 1.39474245e-08 0. 0. 0. 0. 0. 0. 0. 0. 0. 0. 0.
      0. 0. 0. 0. 0. 0. 0. 0. 0. 0. 0. 0. 0. 0. 0. 0. 0. 0. 0. 0. 0. 0.
      0. 0. 0. 0. 0. 0. 0. 0. 0. 0. 0. 0. 0. 0. 0. 0. 0. 0. 0. 0. 0. 0.
      0. 0. 0. 0. 0. 0. 0. 0. 0. 0. 0. 0. 0. 0. 0. 0. 0. 0. 0. 0. 0. 0.
      0. 0. 0. 0. 0. 0. 0. 0. 0. 0. 0. 0. 0. 0. 0. 0. 0. 0. 0. 0. 0. 0.
      0. 0. 0. 0. 0. 0. 0. 0. 0. 0. 0. 0. 0. 0. 0. 0. 0. 0. 0. 0. 0. 0.
      0. 0. 0. 0. 0. 0. 0. 0. 0. 0. 0. 0. 0. 0. 0. 0. 0. 0. 0. 0. 0. 0.
      0. 0. 0. 0. 0. 0. 0. 0. 0. 0. 0. 0. 0. 0. 0. 0. 0. 0. 0. 0. 0. 0.
      0. 0. 0. 0. 0. 0. 0. 0. 0. 0. 0. 0. 0. 0. 0. 0. 0. 0. 0. 0. 0. 0.
      0. 0. 0. 0. 0. 0. 0. 0. 0. 0. 0. 0. 0. 0. 0. 0. 0. 0. 0. 0. 0. 0.
      0. 0. 0. 0. 0. 0. 0. 0. 0. 0. 0. 0. 0. 0. 0. 6.97371227e-09
      6.97371227e-09 6.97371227e-09 0. 0. 6.27634122e-08 0.
      1.04605682e-07 0. 0. 5.57896982e-08 0. 2.78948491e-08 0.
      2.09211368e-08 1.39474245e-08 0. 0. 0. 0. 0. 0. 0. 0. 0. 0. 0. 0.
      0. 0. 0. 0. 0. 0. 0. 0. 0. 0. 0. 0. 0. 0. 0. 0. 0. 0. 0. 0. 0. 0.
      0. 0. 0. 0. 0. 0. 0. 0. 0. 0. 0. 0. 0. 0. 0. 0. 0. 0. 0. 0. 0. 0.
      0. 0. 0. 0. 0. 0. 0. 0. 0. 0. 0. 0. 0. 0. 0. 0. 0. 0. 0. 0. 0. 0.
      0. 0. 0. 0. 0. 0. 0. 0. 0. 0. 0. 0. 0. 0. 0. 0. 0. 0. 0. 0. 0. 0.
      0. 0. 0. 0. 0. 0. 0. 0. 0. 0. 0. 0. 0. 0. 0. 0. 0. 0. 0. 0. 0. 0.
      0. 0. 0. 0. 0. 0. 0. 0. 0. 0. 0. 0. 0. 0. 0. 0. 0. 0. 0. 0. 0. 0.
      0. 0. 0. 0. 0. 0. 0. 0. 0. 0. 0. 0. 0. 0. 0. 0. 0. 0. 0. 0. 0. 0.
      0. 0. 0. 0. 0. 0. 0. 0. 0. 0. 0. 0. 0. 0. 0. 0. 0. 0. 0. 0. 0. 0.
      0. 0. 0. 0. 0. 0. 0. 0. 0. 0. 0. 0. 0. 0. 0. 0. 0. 0. 0. 0. 0. 0.
      0. 0. 0. 0. 0. 0. 0. 0. 0. 0. 0. 0. 0. 0. 0. 0. 6.97371227e-09 0.
      0. 1.39474245e-08 1.39474245e-08 8.08950631e-07 4.88159856e-07 0.
      2.78948491e-08 0. 6.97371227e-09 0. 0. 0. 0. 0. 0. 0. 0. 0. 0. 0.
      0. 0. 0. 0. 0. 0. 0. 0. 0. 0. 0. 0. 0. 0. 0. 0. 0. 0. 0. 0. 0. 0.
      0. 0. 0. 0. 0. 0. 0. 0. 0. 0. 0. 0. 0. 0. 0. 0. 0. 0. 0. 0. 0. 0.
      0. 0. 0. 0. 0. 0. 0. 0. 0. 0. 0. 0. 0. 0. 0. 0. 0. 0. 0. 0. 0. 0.
      0. 0. 0. 0. 0. 0. 0. 0. 0. 0. 0. 0. 0. 0. 0. 0. 0. 0. 0. 0. 0. 0.
      0. 0. 0. 0. 0. 0. 0. 0. 0. 0. 0. 0. 0. 0. 0. 0. 0. 0. 0. 0. 0. 0.
      0. 0. 0. 0. 0. 0. 0. 0. 0. 0. 0. 0. 0. 0. 0. 0. 0. 0. 0. 0. 0. 0.
      0. 0. 0. 0. 0. 0. 0. 0. 0. 0. 0. 0. 0. 0. 0. 0. 0. 0. 0. 0. 0. 0.
      0. 0. 0. 0. 0. 0. 0. 0. 0. 0. 0. 0. 0. 0. 0. 0. 0. 0. 0. 0. 0. 0.
      0. 0. 0. 0. 0. 0. 0. 0. 0. 0. 0. 0. 0. 0. 0. 0. 0. 0. 0. 0. 0. 0.
      0. 0. 0. 0. 0. 0. 0. 0. 0. 0. 0. 0. 0. 0. 0. 0. 0. 0.
      2.09211368e-08 0. 6.97371227e-09 6.97371227e-09 2.09211368e-08 0.
      2.23158793e-07 1.74342813e-06 1.27618932e-06 9.06582613e-08 0. 0.
      0. 3.48685631e-08 0. 0. 0. 0. 0. 0. 0. 0. 0. 0. 0. 0. 0. 0. 0. 0.
      0. 0. 0. 0. 0. 0. 0. 0. 0. 0. 0. 0. 0. 0. 0. 0. 0. 0. 0. 0. 0. 0.
      0. 0. 0. 0. 0. 0. 0. 0. 0. 0. 0. 0. 0. 0. 0. 0. 0. 0. 0. 0. 0. 0.
      0. 0. 0. 0. 0. 0. 0. 0. 0. 0. 0. 0. 0. 0. 0. 0. 0. 0. 0. 0. 0. 0.
      0. 0. 0. 0. 0. 0. 0. 0. 0. 0. 0. 0. 0. 0. 0. 0. 0. 0. 0. 0. 0. 0.
      0. 0. 0. 0. 0. 0. 0. 0. 0. 0. 0. 0. 0. 0. 0. 0. 0. 0. 0. 0. 0. 0.
      0. 0. 0. 0. 0. 0. 0. 0. 0. 0. 0. 0. 0. 0. 0. 0. 0. 0. 0. 0. 0. 0.
      0. 0. 0. 0. 0. 0. 0. 0. 0. 0. 0. 0. 0. 0. 0. 0. 0. 0. 0. 0. 0. 0.
      0. 0. 0. 0. 0. 0. 0. 0. 0. 0. 0. 0. 0. 0. 0. 0. 0. 0. 0. 0. 0. 0.
      0. 0. 0. 0. 0. 0. 0. 0. 0. 0. 0. 0. 0. 0. 0. 0. 0. 0. 0. 0. 0. 0.
      0. 0. 0. 0. 0. 0. 0. 0. 0. 0. 0. 0. 1.39474245e-08 0.
      6.97371227e-09 1.39474245e-08 2.78948491e-08 6.97371227e-09
      1.17158368e-06 1.77829668e-06 1.77132290e-06 6.34607829e-07 0. 0.
      2.78948491e-08 0. 2.09211368e-08 2.78948491e-08 0. 0. 0. 0. 0. 0.
      0. 0. 0. 0. 0. 0. 0. 0. 0. 0. 0. 0. 0. 0. 0. 0. 0. 0. 0. 0. 0. 0.
      0. 0. 0. 0. 0. 0. 0. 0. 0. 0. 0. 0. 0. 0. 0. 0. 0. 0. 0. 0. 0. 0.
      0. 0. 0. 0. 0. 0. 0. 0. 0. 0. 0. 0. 0. 0. 0. 0. 0. 0. 0. 0. 0. 0.
      0. 0. 0. 0. 0. 0. 0. 0. 0. 0. 0. 0. 0. 0. 0. 0. 0. 0. 0. 0. 0. 0.
      0. 0. 0. 0. 0. 0. 0. 0. 0. 0. 0. 0. 0. 0. 0. 0. 0. 0. 0. 0. 0. 0.
      0. 0. 0. 0. 0. 0. 0. 0. 0. 0. 0. 0. 0. 0. 0. 0. 0. 0. 0. 0. 0. 0.
      0. 0. 0. 0. 0. 0. 0. 0. 0. 0. 0. 0. 0. 0. 0. 0. 0. 0. 0. 0. 0. 0.
      0. 0. 0. 0. 0. 0. 0. 0. 0. 0. 0. 0. 0. 0. 0. 0. 0. 0. 0. 0. 0. 0.
      0. 0. 0. 0. 0. 0. 0. 0. 0. 0. 0. 0. 0. 0. 0. 0. 0. 0. 0. 0. 0. 0.
      0. 0. 0. 0. 0. 0. 0. 0. 0. 0. 0. 0. 0. 0. 0. 0. 0. 0. 0. 0.
      2.09211368e-08 0. 3.48685631e-08 0. 3.48685631e-08 4.39343864e-07
      1.75737546e-06 1.74342813e-06 1.77829668e-06 1.47842707e-06
      1.11579396e-07 1.11579396e-07 0. 8.36845473e-08 0. 6.97371227e-09
      0. 0. 0. 0. 0. 0. 0. 0. 0. 0. 0. 0. 0. 0. 0. 0. 0. 0. 0. 0. 0. 0.
      0. 0. 0. 0. 0. 0. 0. 0. 0. 0. 0. 0. 0. 0. 0. 0. 0. 0. 0. 0. 0. 0.
      0. 0. 0. 0. 0. 0. 0. 0. 0. 0. 0. 0. 0. 0. 0. 0. 0. 0. 0. 0. 0. 0.
      0. 0. 0. 0. 0. 0. 0. 0. 0. 0. 0. 0. 0. 0. 0. 0. 0. 0. 0. 0. 0. 0.
      0. 0. 0. 0. 0. 0. 0. 0. 0. 0. 0. 0. 0. 0. 0. 0. 0. 0. 0. 0. 0. 0.
      0. 0. 0. 0. 0. 0. 0. 0. 0. 0. 0. 0. 0. 0. 0. 0. 0. 0. 0. 0. 0. 0.
      0. 0. 0. 0. 0. 0. 0. 0. 0. 0. 0. 0. 0. 0. 0. 0. 0. 0. 0. 0. 0. 0.
      0. 0. 0. 0. 0. 0. 0. 0. 0. 0. 0. 0. 0. 0. 0. 0. 0. 0. 0. 0. 0. 0.
      0. 0. 0. 0. 0. 0. 0. 0. 0. 0. 0. 0. 0. 0. 0. 0. 0. 0. 0. 0. 0. 0.
      0. 0. 0. 0. 0. 0. 0. 0. 0. 0. 0. 0. 0. 0. 0. 0. 0. 0. 0. 0. 0. 0.
      0. 0. 0. 0. 2.09211368e-08 0. 6.27634122e-08 2.09211368e-08 0.
      1.40171619e-06 1.77829668e-06 1.77829668e-06 1.71553324e-06
      1.77829668e-06 8.57766622e-07 0. 1.39474245e-08 1.39474245e-08
      2.09211368e-08 2.09211368e-08 0. 0. 0. 0. 0. 0. 0. 0. 0. 0. 0. 0.
      0. 0. 0. 0. 0. 0. 0. 0. 0. 0. 0. 0. 0. 0. 0. 0. 0. 0. 0. 0. 0. 0.
      0. 0. 0. 0. 0. 0. 0. 0. 0. 0. 0. 0. 0. 0. 0. 0. 0. 0. 0. 0. 0. 0.
      0. 0. 0. 0. 0. 0. 0. 0. 0. 0. 0. 0. 0. 0. 0. 0. 0. 0. 0. 0. 0. 0.
      0. 0. 0. 0. 0. 0. 0. 0. 0. 0. 0. 0. 0. 0. 0. 0. 0. 0. 0. 0. 0. 0.
      0. 0. 0. 0. 0. 0. 0. 0. 0. 0. 0. 0. 0. 0. 0. 0. 0. 0. 0. 0. 0. 0.
      0. 0. 0. 0. 0. 0. 0. 0. 0. 0. 0. 0. 0. 0. 0. 0. 0. 0. 0. 0. 0. 0.
      0. 0. 0. 0. 0. 0. 0. 0. 0. 0. 0. 0. 0. 0. 0. 0. 0. 0. 0. 0. 0. 0.
      0. 0. 0. 0. 0. 0. 0. 0. 0. 0. 0. 0. 0. 0. 0. 0. 0. 0. 0. 0. 0. 0.
      0. 0. 0. 0. 0. 0. 0. 0. 0. 0. 0. 0. 0. 0. 0. 0. 0. 0. 0. 0. 0. 0.
      0. 0. 0. 0. 0. 0. 0. 0. 0. 0. 0. 0. 0. 0. 0. 6.27634122e-08 0. 0.
      6.41581551e-07 1.77829668e-06 1.73645435e-06 1.76434924e-06
      1.75737546e-06 1.75040179e-06 1.68763836e-06 2.09211365e-07
      3.48685631e-08 0. 3.48685631e-08 0. 0. 0. 0. 0. 0. 0. 0. 0. 0. 0.
      0. 0. 0. 0. 0. 0. 0. 0. 0. 0. 0. 0. 0. 0. 0. 0. 0. 0. 0. 0. 0. 0.
      0. 0. 0. 0. 0. 0. 0. 0. 0. 0. 0. 0. 0. 0. 0. 0. 0. 0. 0. 0. 0. 0.
      0. 0. 0. 0. 0. 0. 0. 0. 0. 0. 0. 0. 0. 0. 0. 0. 0. 0. 0. 0. 0. 0.
      0. 0. 0. 0. 0. 0. 0. 0. 0. 0. 0. 0. 0. 0. 0. 0. 0. 0. 0. 0. 0. 0.
      0. 0. 0. 0. 0. 0. 0. 0. 0. 0. 0. 0. 0. 0. 0. 0. 0. 0. 0. 0. 0. 0.
      0. 0. 0. 0. 0. 0. 0. 0. 0. 0. 0. 0. 0. 0. 0. 0. 0. 0. 0. 0. 0. 0.
      0. 0. 0. 0. 0. 0. 0. 0. 0. 0. 0. 0. 0. 0. 0. 0. 0. 0. 0. 0. 0. 0.
      0. 0. 0. 0. 0. 0. 0. 0. 0. 0. 0. 0. 0. 0. 0. 0. 0. 0. 0. 0. 0. 0.
      0. 0. 0. 0. 0. 0. 0. 0. 0. 0. 0. 0. 0. 0. 0. 0. 0. 0. 0. 0. 0. 0.
      0. 0. 0. 0. 0. 0. 0. 0. 0. 0. 0. 0. 0. 0. 0. 0. 4.18422736e-08 0.
      1.39474245e-08 1.11579396e-07 1.61092760e-06 1.69461214e-06
      1.77829668e-06 1.74342813e-06 1.77829668e-06 1.71553324e-06
      1.77829668e-06 1.11579402e-06 0. 6.97371263e-08 0. 2.78948491e-08
      0. 0. 0. 0. 0. 0. 0. 0. 0. 0. 0. 0. 0. 0. 0. 0. 0. 0. 0. 0. 0. 0.
      0. 0. 0. 0. 0. 0. 0. 0. 0. 0. 0. 0. 0. 0. 0. 0. 0. 0. 0. 0. 0. 0.
      0. 0. 0. 0. 0. 0. 0. 0. 0. 0. 0. 0. 0. 0. 0. 0. 0. 0. 0. 0. 0. 0.
      0. 0. 0. 0. 0. 0. 0. 0. 0. 0. 0. 0. 0. 0. 0. 0. 0. 0. 0. 0. 0. 0.
      0. 0. 0. 0. 0. 0. 0. 0. 0. 0. 0. 0. 0. 0. 0. 0. 0. 0. 0. 0. 0. 0.
      0. 0. 0. 0. 0. 0. 0. 0. 0. 0. 0. 0. 0. 0. 0. 0. 0. 0. 0. 0. 0. 0.
      0. 0. 0. 0. 0. 0. 0. 0. 0. 0. 0. 0. 0. 0. 0. 0. 0. 0. 0. 0. 0. 0.
      0. 0. 0. 0. 0. 0. 0. 0. 0. 0. 0. 0. 0. 0. 0. 0. 0. 0. 0. 0. 0. 0.
      0. 0. 0. 0. 0. 0. 0. 0. 0. 0. 0. 0. 0. 0. 0. 0. 0. 0. 0. 0. 0. 0.
      0. 0. 0. 0. 0. 0. 0. 0. 0. 0. 0. 0. 0. 0. 0. 0. 0. 0. 0. 0. 0. 0.
      0. 0. 0. 0. 2.78948491e-08 0. 0. 8.85661450e-07 1.77829668e-06
      1.77829668e-06 1.77132290e-06 1.77829668e-06 1.75040179e-06
      1.76434924e-06 1.73645435e-06 1.75737546e-06 4.67238721e-07 0.
      6.97371227e-09 3.48685631e-08 0. 0. 0. 0. 0. 0. 0. 0. 0. 0. 0. 0.
      0. 0. 0. 0. 0. 0. 0. 0. 0. 0. 0. 0. 0. 0. 0. 0. 0. 0. 0. 0. 0. 0.
      0. 0. 0. 0. 0. 0. 0. 0. 0. 0. 0. 0. 0. 0. 0. 0. 0. 0. 0. 0. 0. 0.
      0. 0. 0. 0. 0. 0. 0. 0. 0. 0. 0. 0. 0. 0. 0. 0. 0. 0. 0. 0. 0. 0.
      0. 0. 0. 0. 0. 0. 0. 0. 0. 0. 0. 0. 0. 0. 0. 0. 0. 0. 0. 0. 0. 0.
      0. 0. 0. 0. 0. 0. 0. 0. 0. 0. 0. 0. 0. 0. 0. 0. 0. 0. 0. 0. 0. 0.
      0. 0. 0. 0. 0. 0. 0. 0. 0. 0. 0. 0. 0. 0. 0. 0. 0. 0. 0. 0. 0. 0.
      0. 0. 0. 0. 0. 0. 0. 0. 0. 0. 0. 0. 0. 0. 0. 0. 0. 0. 0. 0. 0. 0.
      0. 0. 0. 0. 0. 0. 0. 0. 0. 0. 0. 0. 0. 0. 0. 0. 0. 0. 0. 0. 0. 0.
      0. 0. 0. 0. 0. 0. 0. 0. 0. 0. 0. 0. 0. 0. 0. 0. 0. 0. 0. 0. 0. 0.
      0. 0. 0. 0. 0. 0. 0. 0. 0. 0. 0. 0. 0. 0. 0. 1.32500531e-07
      2.30132514e-07 1.72948069e-06 1.64579615e-06 1.77829668e-06
      1.77829668e-06 1.75040179e-06 1.75737546e-06 1.77829668e-06
      1.77829668e-06 1.77829668e-06 1.28316310e-06 7.67108332e-08
      2.78948491e-08 0. 0. 0. 0. 0. 0. 0. 0. 0. 0. 0. 0. 0. 0. 0. 0. 0.
      0. 0. 0. 0. 0. 0. 0. 0. 0. 0. 0. 0. 0. 0. 0. 0. 0. 0. 0. 0. 0. 0.
      0. 0. 0. 0. 0. 0. 0. 0. 0. 0. 0. 0. 0. 0. 0. 0. 0. 0. 0. 0. 0. 0.
      0. 0. 0. 0. 0. 0. 0. 0. 0. 0. 0. 0. 0. 0. 0. 0. 0. 0. 0. 0. 0. 0.
      0. 0. 0. 0. 0. 0. 0. 0. 0. 0. 0. 0. 0. 0. 0. 0. 0. 0. 0. 0. 0. 0.
      0. 0. 0. 0. 0. 0. 0. 0. 0. 0. 0. 0. 0. 0. 0. 0. 0. 0. 0. 0. 0. 0.
      0. 0. 0. 0. 0. 0. 0. 0. 0. 0. 0. 0. 0. 0. 0. 0. 0. 0. 0. 0. 0. 0.
      0. 0. 0. 0. 0. 0. 0. 0. 0. 0. 0. 0. 0. 0. 0. 0. 0. 0. 0. 0. 0. 0.
      0. 0. 0. 0. 0. 0. 0. 0. 0. 0. 0. 0. 0. 0. 0. 0. 0. 0. 0. 0. 0. 0.
      0. 0. 0. 0. 0. 0. 0. 0. 0. 0. 0. 0. 0. 0. 0. 0. 0. 0. 0. 0. 0. 0.
      0. 0. 0. 0. 0. 0. 0. 0. 0. 0. 4.18422736e-08 0. 1.19947856e-06
      1.77829668e-06 1.76434924e-06 1.77132290e-06 1.75737546e-06
      1.77132290e-06 1.74342813e-06 1.77132290e-06 1.77829668e-06
      1.70855958e-06 1.77829668e-06 7.04344927e-07 6.97371227e-09
      4.88159877e-08 0. 0. 0. 0. 0. 0. 0. 0. 0. 0. 0. 0. 0. 0. 0. 0. 0.
      0. 0. 0. 0. 0. 0. 0. 0. 0. 0. 0. 0. 0. 0. 0. 0. 0. 0. 0. 0. 0. 0.
      0. 0. 0. 0. 0. 0. 0. 0. 0. 0. 0. 0. 0. 0. 0. 0. 0. 0. 0. 0. 0. 0.
      0. 0. 0. 0. 0. 0. 0. 0. 0. 0. 0. 0. 0. 0. 0. 0. 0. 0. 0. 0. 0. 0.
      0. 0. 0. 0. 0. 0. 0. 0. 0. 0. 0. 0. 0. 0. 0. 0. 0. 0. 0. 0. 0. 0.
      0. 0. 0. 0. 0. 0. 0. 0. 0. 0. 0. 0. 0. 0. 0. 0. 0. 0. 0. 0. 0. 0.
      0. 0. 0. 0. 0. 0. 0. 0. 0. 0. 0. 0. 0. 0. 0. 0. 0. 0. 0. 0. 0. 0.
      0. 0. 0. 0. 0. 0. 0. 0. 0. 0. 0. 0. 0. 0. 0. 0. 0. 0. 0. 0. 0. 0.
      0. 0. 0. 0. 0. 0. 0. 0. 0. 0. 0. 0. 0. 0. 0. 0. 0. 0. 0. 0. 0. 0.
      0. 0. 0. 0. 0. 0. 0. 0. 0. 0. 0. 0. 0. 0. 0. 0. 0. 0. 0. 0. 0. 0.
      0. 1.39474245e-08 0. 4.18422736e-08 0. 2.78948491e-08
      1.39474245e-08 0. 0. 6.97371227e-09 5.16054740e-07 1.65974359e-06
      1.77829668e-06 1.65974359e-06 1.77829668e-06 1.71553324e-06
      1.77829668e-06 1.77132290e-06 1.72250691e-06 1.77829668e-06
      1.73645435e-06 1.77829668e-06 1.64579615e-06 8.36845473e-08
      1.39474245e-08 0. 2.09211368e-08 1.39474245e-08 0. 2.78948491e-08
      0. 2.78948491e-08 0. 0. 0. 0. 0. 0. 0. 0. 0. 0. 0. 0. 0. 0. 0. 0.
      0. 0. 0. 0. 0. 0. 0. 0. 0. 0. 0. 0. 0. 0. 0. 0. 0. 0. 0. 0. 0. 0.
      0. 0. 0. 0. 0. 0. 0. 0. 0. 0. 0. 0. 0. 0. 0. 0. 0. 0. 0. 0. 0. 0.
      0. 0. 0. 0. 0. 0. 0. 0. 0. 0. 0. 0. 0. 0. 0. 0. 0. 0. 0. 0. 0. 0.
      0. 0. 0. 0. 0. 0. 0. 0. 0. 0. 0. 0. 0. 0. 0. 0. 0. 0. 0. 0. 0. 0.
      0. 0. 0. 0. 0. 0. 0. 0. 0. 0. 0. 0. 0. 0. 0. 0. 0. 0. 0. 0. 0. 0.
      0. 0. 0. 0. 0. 0. 0. 0. 0. 0. 0. 0. 0. 0. 0. 0. 0. 0. 0. 0. 0. 0.
      0. 0. 0. 0. 0. 0. 0. 0. 0. 0. 0. 0. 0. 0. 0. 0. 0. 0. 0. 0. 0. 0.
      0. 0. 0. 0. 0. 0. 0. 0. 0. 0. 0. 0. 0. 0. 0. 0. 0. 0. 0. 0. 0. 0.
      0. 0. 0. 0. 0. 0. 0. 0. 0. 0. 0. 0. 0. 0. 0. 0. 0. 0.
      6.97371227e-09 1.39474245e-08 2.78948491e-08 0. 1.39474245e-08
      6.27634122e-08 2.78948491e-08 2.09211368e-08 1.35987386e-06
      1.77132290e-06 1.70855958e-06 1.76434924e-06 1.71553324e-06
      1.77132290e-06 1.72948069e-06 1.73645435e-06 1.74342813e-06
      1.73645435e-06 1.77829668e-06 1.75040179e-06 1.73645435e-06
      9.90267154e-07 0. 4.88159877e-08 0. 0. 2.09211368e-08 0. 0.
      1.39474245e-08 2.78948491e-08 0. 0. 0. 0. 0. 0. 0. 0. 0. 0. 0. 0.
      0. 0. 0. 0. 0. 0. 0. 0. 0. 0. 0. 0. 0. 0. 0. 0. 0. 0. 0. 0. 0. 0.
      0. 0. 0. 0. 0. 0. 0. 0. 0. 0. 0. 0. 0. 0. 0. 0. 0. 0. 0. 0. 0. 0.
      0. 0. 0. 0. 0. 0. 0. 0. 0. 0. 0. 0. 0. 0. 0. 0. 0. 0. 0. 0. 0. 0.
      0. 0. 0. 0. 0. 0. 0. 0. 0. 0. 0. 0. 0. 0. 0. 0. 0. 0. 0. 0. 0. 0.
      0. 0. 0. 0. 0. 0. 0. 0. 0. 0. 0. 0. 0. 0. 0. 0. 0. 0. 0. 0. 0. 0.
      0. 0. 0. 0. 0. 0. 0. 0. 0. 0. 0. 0. 0. 0. 0. 0. 0. 0. 0. 0. 0. 0.
      0. 0. 0. 0. 0. 0. 0. 0. 0. 0. 0. 0. 0. 0. 0. 0. 0. 0. 0. 0. 0. 0.
      0. 0. 0. 0. 0. 0. 0. 0. 0. 0. 0. 0. 0. 0. 0. 0. 0. 0. 0. 0. 0. 0.
      0. 0. 0. 0. 0. 0. 0. 0. 0. 0. 0. 0. 0. 0. 0. 0. 0. 0. 0. 0. 0.
      1.39474245e-08 0. 4.18422736e-08 0. 2.78948491e-08 2.78948491e-08
      0. 7.11318648e-07 1.75040179e-06 1.77829668e-06 1.68763836e-06
      1.77829668e-06 1.70855958e-06 1.77829668e-06 1.77829668e-06
      1.77829668e-06 1.77829668e-06 1.75737546e-06 1.77829668e-06
      1.73645435e-06 1.77132290e-06 1.70855958e-06 3.13817054e-07 0.
      5.57896982e-08 6.97371227e-09 2.78948491e-08 2.09211368e-08
      6.97371227e-09 0. 2.78948491e-08 0. 0. 0. 0. 0. 0. 0. 0. 0. 0. 0.
      0. 0. 0. 0. 0. 0. 0. 0. 0. 0. 0. 0. 0. 0. 0. 0. 0. 0. 0. 0. 0. 0.
      0. 0. 0. 0. 0. 0. 0. 0. 0. 0. 0. 0. 0. 0. 0. 0. 0. 0. 0. 0. 0. 0.
      0. 0. 0. 0. 0. 0. 0. 0. 0. 0. 0. 0. 0. 0. 0. 0. 0. 0. 0. 0. 0. 0.
      0. 0. 0. 0. 0. 0. 0. 0. 0. 0. 0. 0. 0. 0. 0. 0. 0. 0. 0. 0. 0. 0.
      0. 0. 0. 0. 0. 0. 0. 0. 0. 0. 0. 0. 0. 0. 0. 0. 0. 0. 0. 0. 0. 0.
      0. 0. 0. 0. 0. 0. 0. 0. 0. 0. 0. 0. 0. 0. 0. 0. 0. 0. 0. 0. 0. 0.
      0. 0. 0. 0. 0. 0. 0. 0. 0. 0. 0. 0. 0. 0. 0. 0. 0. 0. 0. 0. 0. 0.
      0. 0. 0. 0. 0. 0. 0. 0. 0. 0. 0. 0. 0. 0. 0. 0. 0. 0. 0. 0. 0. 0.
      0. 0. 0. 0. 0. 0. 0. 0. 0. 0. 0. 0. 0. 0. 0. 0. 0. 0. 0. 0. 0. 0.
      1.39474245e-08 1.39474245e-08 6.97371227e-09 0. 6.27634122e-08 0.
      1.81316523e-07 1.61092760e-06 1.74342813e-06 1.76434924e-06
      1.77829668e-06 1.77132290e-06 1.73645435e-06 1.77829668e-06
      1.77829668e-06 1.77829668e-06 1.72948069e-06 1.77829668e-06
      1.73645435e-06 1.77829668e-06 1.77132290e-06 1.77829668e-06
      1.17158368e-06 0. 1.39474245e-08 2.09211368e-08 0. 4.18422736e-08
      0. 0. 6.97371227e-09 0. 0. 0. 0. 0. 0. 0. 0. 0. 0. 0. 0. 0. 0. 0.
      0. 0. 0. 0. 0. 0. 0. 0. 0. 0. 0. 0. 0. 0. 0. 0. 0. 0. 0. 0. 0. 0.
      0. 0. 0. 0. 0. 0. 0. 0. 0. 0. 0. 0. 0. 0. 0. 0. 0. 0. 0. 0. 0. 0.
      0. 0. 0. 0. 0. 0. 0. 0. 0. 0. 0. 0. 0. 0. 0. 0. 0. 0. 0. 0. 0. 0.
      0. 0. 0. 0. 0. 0. 0. 0. 0. 0. 0. 0. 0. 0. 0. 0. 0. 0. 0. 0. 0. 0.
      0. 0. 0. 0. 0. 0. 0. 0. 0. 0. 0. 0. 0. 0. 0. 0. 0. 0. 0. 0. 0. 0.
      0. 0. 0. 0. 0. 0. 0. 0. 0. 0. 0. 0. 0. 0. 0. 0. 0. 0. 0. 0. 0. 0.
      0. 0. 0. 0. 0. 0. 0. 0. 0. 0. 0. 0. 0. 0. 0. 0. 0. 0. 0. 0. 0. 0.
      0. 0. 0. 0. 0. 0. 0. 0. 0. 0. 0. 0. 0. 0. 0. 0. 0. 0. 0. 0. 0. 0.
      0. 0. 0. 0. 0. 0. 0. 0. 0. 0. 0. 0. 0. 0. 0. 0. 0. 0.
      6.97371227e-09 3.48685631e-08 0. 4.88159877e-08 3.48685631e-08 0.
      9.34477441e-07 1.77829668e-06 1.77829668e-06 1.75040179e-06
      1.77829668e-06 1.77829668e-06 1.75737546e-06 1.77829668e-06
      1.72948069e-06 1.76434924e-06 1.73645435e-06 1.77829668e-06
      1.72250691e-06 1.77829668e-06 1.75737546e-06 1.71553324e-06
      1.76434924e-06 6.06713002e-07 0. 4.18422736e-08 0. 4.18422736e-08
      2.09211368e-08 0. 0. 0. 0. 0. 0. 0. 0. 0. 0. 0. 0. 0. 0. 0. 0. 0.
      0. 0. 0. 0. 0. 0. 0. 0. 0. 0. 0. 0. 0. 0. 0. 0. 0. 0. 0. 0. 0. 0.
      0. 0. 0. 0. 0. 0. 0. 0. 0. 0. 0. 0. 0. 0. 0. 0. 0. 0. 0. 0. 0. 0.
      0. 0. 0. 0. 0. 0. 0. 0. 0. 0. 0. 0. 0. 0. 0. 0. 0. 0. 0. 0. 0. 0.
      0. 0. 0. 0. 0. 0. 0. 0. 0. 0. 0. 0. 0. 0. 0. 0. 0. 0. 0. 0. 0. 0.
      0. 0. 0. 0. 0. 0. 0. 0. 0. 0. 0. 0. 0. 0. 0. 0. 0. 0. 0. 0. 0. 0.
      0. 0. 0. 0. 0. 0. 0. 0. 0. 0. 0. 0. 0. 0. 0. 0. 0. 0. 0. 0. 0. 0.
      0. 0. 0. 0. 0. 0. 0. 0. 0. 0. 0. 0. 0. 0. 0. 0. 0. 0. 0. 0. 0. 0.
      0. 0. 0. 0. 0. 0. 0. 0. 0. 0. 0. 0. 0. 0. 0. 0. 0. 0. 0. 0. 0. 0.
      0. 0. 0. 0. 0. 0. 0. 0. 0. 0. 0. 0. 0. 0. 0. 0. 0. 0. 0.
      6.97371227e-09 0. 4.88159877e-08 0. 3.41711910e-07 1.67369092e-06
      1.68763836e-06 1.74342813e-06 1.74342813e-06 1.74342813e-06
      1.76434924e-06 1.77829668e-06 1.77829668e-06 1.75737546e-06
      1.76434924e-06 1.77829668e-06 1.75040179e-06 1.76434924e-06
      1.73645435e-06 1.75040179e-06 1.76434924e-06 1.77829668e-06
      1.46447962e-06 8.36845473e-08 6.97371227e-09 2.78948491e-08 0.
      3.48685631e-08 0. 1.39474245e-08 0. 0. 0. 0. 0. 0. 0. 0. 0. 0. 0.
      0. 0. 0. 0. 0. 0. 0. 0. 0. 0. 0. 0. 0. 0. 0. 0. 0. 0. 0. 0. 0. 0.
      0. 0. 0. 0. 0. 0. 0. 0. 0. 0. 0. 0. 0. 0. 0. 0. 0. 0. 0. 0. 0. 0.
      0. 0. 0. 0. 0. 0. 0. 0. 0. 0. 0. 0. 0. 0. 0. 0. 0. 0. 0. 0. 0. 0.
      0. 0. 0. 0. 0. 0. 0. 0. 0. 0. 0. 0. 0. 0. 0. 0. 0. 0. 0. 0. 0. 0.
      0. 0. 0. 0. 0. 0. 0. 0. 0. 0. 0. 0. 0. 0. 0. 0. 0. 0. 0. 0. 0. 0.
      0. 0. 0. 0. 0. 0. 0. 0. 0. 0. 0. 0. 0. 0. 0. 0. 0. 0. 0. 0. 0. 0.
      0. 0. 0. 0. 0. 0. 0. 0. 0. 0. 0. 0. 0. 0. 0. 0. 0. 0. 0. 0. 0. 0.
      0. 0. 0. 0. 0. 0. 0. 0. 0. 0. 0. 0. 0. 0. 0. 0. 0. 0. 0. 0. 0. 0.
      0. 0. 0. 0. 0. 0. 0. 0. 0. 0. 0. 0. 0. 0. 0. 0. 0. 0. 0. 0. 0. 0.
      0. 0. 6.97371227e-09 0. 8.36845473e-08 1.08092536e-06
      1.77829668e-06 1.77829668e-06 1.70158580e-06 1.76434924e-06
      1.76434924e-06 1.73645435e-06 1.76434924e-06 1.73645435e-06
      1.75737546e-06 1.73645435e-06 1.77829668e-06 1.72250691e-06
      1.77829668e-06 1.73645435e-06 1.76434924e-06 1.77829668e-06
      1.74342813e-06 1.74342813e-06 7.53160919e-07 0. 0. 0.
      6.97371227e-09 6.97371227e-09 2.78948491e-08 0. 0. 0. 0. 0. 0. 0.
      0. 0. 0. 0. 0. 0. 0. 0. 0. 0. 0. 0. 0. 0. 0. 0. 0. 0. 0. 0. 0. 0.
      0. 0. 0. 0. 0. 0. 0. 0. 0. 0. 0. 0. 0. 0. 0. 0. 0. 0. 0. 0. 0. 0.
      0. 0. 0. 0. 0. 0. 0. 0. 0. 0. 0. 0. 0. 0. 0. 0. 0. 0. 0. 0. 0. 0.
      0. 0. 0. 0. 0. 0. 0. 0. 0. 0. 0. 0. 0. 0. 0. 0. 0. 0. 0. 0. 0. 0.
      0. 0. 0. 0. 0. 0. 0. 0. 0. 0. 0. 0. 0. 0. 0. 0. 0. 0. 0. 0. 0. 0.
      0. 0. 0. 0. 0. 0. 0. 0. 0. 0. 0. 0. 0. 0. 0. 0. 0. 0. 0. 0. 0. 0.
      0. 0. 0. 0. 0. 0. 0. 0. 0. 0. 0. 0. 0. 0. 0. 0. 0. 0. 0. 0. 0. 0.
      0. 0. 0. 0. 0. 0. 0. 0. 0. 0. 0. 0. 0. 0. 0. 0. 0. 0. 0. 0. 0. 0.
      0. 0. 0. 0. 0. 0. 0. 0. 0. 0. 0. 0. 0. 0. 0. 0. 0. 0. 0. 0. 0. 0.
      0. 0. 0. 0. 0. 0. 6.97371263e-08 0. 3.69606767e-07 1.77829668e-06
      1.72948069e-06 1.75737546e-06 1.77829668e-06 1.76434924e-06
      1.77829668e-06 1.77829668e-06 1.75737546e-06 1.77829668e-06
      1.76434924e-06 1.77829668e-06 1.76434924e-06 1.77829668e-06
      1.77132290e-06 1.77829668e-06 1.72250691e-06 1.77132290e-06
      1.74342813e-06 1.75737546e-06 1.70158580e-06 1.67369095e-07 0.
      5.57896982e-08 0. 6.97371227e-09 0. 0. 0. 0. 0. 0. 0. 0. 0. 0. 0.
      0. 0. 0. 0. 0. 0. 0. 0. 0. 0. 0. 0. 0. 0. 0. 0. 0. 0. 0. 0. 0. 0.
      0. 0. 0. 0. 0. 0. 0. 0. 0. 0. 0. 0. 0. 0. 0. 0. 0. 0. 0. 0. 0. 0.
      0. 0. 0. 0. 0. 0. 0. 0. 0. 0. 0. 0. 0. 0. 0. 0. 0. 0. 0. 0. 0. 0.
      0. 0. 0. 0. 0. 0. 0. 0. 0. 0. 0. 0. 0. 0. 0. 0. 0. 0. 0. 0. 0. 0.
      0. 0. 0. 0. 0. 0. 0. 0. 0. 0. 0. 0. 0. 0. 0. 0. 0. 0. 0. 0. 0. 0.
      0. 0. 0. 0. 0. 0. 0. 0. 0. 0. 0. 0. 0. 0. 0. 0. 0. 0. 0. 0. 0. 0.
      0. 0. 0. 0. 0. 0. 0. 0. 0. 0. 0. 0. 0. 0. 0. 0. 0. 0.
      -6.97371227e-09 -2.09211368e-08 0. -6.97371227e-09 -1.39474245e-08
      -1.39474245e-08 -2.78948491e-08 0. -6.97371227e-09 -6.97371227e-09
      -6.97371227e-09 -6.97371227e-09 -6.97371227e-09 -6.97371227e-09
      -6.97371227e-09 -6.97371227e-09 -6.97371227e-09 -6.97371227e-09
      -6.97371227e-09 -6.97371227e-09 -6.97371227e-09 -6.97371227e-09
      -6.97371227e-09 -6.97371227e-09 -6.97371227e-09 -6.97371227e-09
      -6.97371227e-09 -6.97371227e-09 -6.97371227e-09 -6.97371227e-09
      -6.97371227e-09 -6.97371227e-09 -6.97371227e-09 -6.97371227e-09
      -6.97371227e-09 -6.97371227e-09 -6.97371227e-09 -6.97371227e-09
      -6.97371227e-09 -6.97371227e-09 -6.97371227e-09 -6.97371227e-09
      -6.97371227e-09 -6.97371227e-09 -6.97371227e-09 -6.97371227e-09
      -6.97371227e-09 -6.97371227e-09 3.48685631e-08 6.97371227e-09
      -6.97371227e-09 -6.97371227e-09 6.27634122e-08 1.56211161e-06
      1.72948069e-06 1.77132290e-06 1.77132290e-06 1.77132290e-06
      1.77132290e-06 1.77132290e-06 1.77132290e-06 1.77132290e-06
      1.77132290e-06 1.77132290e-06 1.77132290e-06 1.77132290e-06
      1.77132290e-06 1.77132290e-06 1.77132290e-06 1.77132290e-06
      1.77132290e-06 1.77132290e-06 1.69461214e-06 1.77132290e-06
      1.06697803e-06 -6.97371227e-09 -6.97371227e-09 3.48685631e-08
      6.97371227e-09 -6.97371227e-09 -6.97371227e-09 -6.97371227e-09
      -6.97371227e-09 -6.97371227e-09 -6.97371227e-09 -6.97371227e-09
      -6.97371227e-09 -6.97371227e-09 -6.97371227e-09 -6.97371227e-09
      -6.97371227e-09 -6.97371227e-09 -6.97371227e-09 -6.97371227e-09
      -6.97371227e-09 -6.97371227e-09 -6.97371227e-09 -6.97371227e-09
      -6.97371227e-09 -6.97371227e-09 -6.97371227e-09 -6.97371227e-09
      -6.97371227e-09 -6.97371227e-09 -6.97371227e-09 -6.97371227e-09
      -6.97371227e-09 -6.97371227e-09 -6.97371227e-09 -6.97371227e-09
      -6.97371227e-09 -6.97371227e-09 -2.09211368e-08 0. -1.39474245e-08
      0. -2.78948491e-08 0. -1.39474245e-08 0. 0. 0. 0. 0. 0. 0. 0. 0.
      0. 0. 0. 0. 0. 0. 0. 0. 0. 0. 0. 0. 0. 0. 0. 0. 0. 0. 0. 0. 0. 0.
      0. 0. 0. 0. 0. 0. 0. 0. 0. 0. 0. 0. 0. 0. 0. 0. 0. 0. 0. 0. 0. 0.
      0. 0. 0. 0. 0. 0. 0. 0. 0. 0. 0. 0. 0. 0. 0. 0. 0. 0. 0. 0. 0. 0.
      0. 0. 0. 0. 0. 0. 0. 0. 0. 0. 0. 0. 0. 0. 0. 0. 0. 0. 0. 0. 0. 0.
      0. 0. 0. 0. 0. 0. 0. 0. 0. 0. 0. 0. 0. 0. 0. 0. 0. 0. 0. 0. 0. 0.
      0. 0. -3.48685631e-08 -2.09211368e-08 -6.97371263e-08
      -1.39474245e-08 -2.09211368e-08 -6.97371227e-09 -3.48685631e-08 0.
      0. 0. 0. 0. 0. 0. 0. 0. 0. 0. 0. 0. 0. 0. 0. 0. 0. 0. 0. 0. 0. 0.
      0. 0. 0. 0. 0. 0. 0. 0. 0. 0. 0. 0. 0. 0. 0. 0. 0. 0.
      4.18422736e-08 0. 8.36845473e-08 0. 8.08950631e-07 1.68763836e-06
      1.72250691e-06 1.77132290e-06 1.77829668e-06 1.77829668e-06
      1.77829668e-06 1.77829668e-06 1.77829668e-06 1.77829668e-06
      1.77829668e-06 1.77829668e-06 1.77829668e-06 1.77829668e-06
      1.77829668e-06 1.77829668e-06 1.77829668e-06 1.77829668e-06
      1.77829668e-06 1.77829668e-06 1.77829668e-06 1.73645435e-06
      1.74342813e-06 4.60265028e-07 2.09211368e-08 0. 4.18422736e-08 0.
      0. 0. 0. 0. 0. 0. 0. 0. 0. 0. 0. 0. 0. 0. 0. 0. 0. 0. 0. 0. 0. 0.
      0. 0. 0. 0. 0. 0. 0. 0. 0. 0. 0. 0. -5.57896982e-08
      -2.09211368e-08 0. 0. -7.67108332e-08 -2.78948491e-08 0. 0. 0. 0.
      0. 0. 0. 0. 0. 0. 0. 0. 0. 0. 0. 0. 0. 0. 0. 0. 0. 0. 0. 0. 0. 0.
      0. 0. 0. 0. 0. 0. 0. 0. 0. 0. 0. 0. 0. 0. 0. 0. 0. 0. 0. 0. 0. 0.
      0. 0. 0. 0. 0. 0. 0. 0. 0. 0. 0. 0. 0. 0. 0. 0. 0. 0. 0. 0. 0. 0.
      0. 0. 0. 0. 0. 0. 0. 0. 0. 0. 0. 0. 0. 0. 0. 0. 0. 0. 0. 0. 0. 0.
      0. 0. 0. 0. 0. 0. 0. 0. 0. 0. 0. 0. 0. 0. 0. 0. 0. 0. 0. 0. 0. 0.
      0. 0. 0. 0. 0. 0. -3.48685631e-08 0. 0. 0. 0. 0. 0.
      -4.18422736e-08 -2.09211368e-08 -2.09211368e-08 -2.09211368e-08
      -2.09211368e-08 -2.09211368e-08 -2.09211368e-08 -2.09211368e-08
      -2.09211368e-08 -2.09211368e-08 -2.09211368e-08 -2.09211368e-08
      -2.09211368e-08 -2.09211368e-08 -2.09211368e-08 -2.09211368e-08
      -2.09211368e-08 -2.09211368e-08 -2.09211368e-08 -2.09211368e-08
      -2.09211368e-08 -2.09211368e-08 -2.09211368e-08 -2.09211368e-08
      -2.09211368e-08 -2.09211368e-08 -2.09211368e-08 -2.09211368e-08
      -2.09211368e-08 -2.09211368e-08 -2.09211368e-08 -2.09211368e-08
      -2.09211368e-08 -2.09211368e-08 -2.09211368e-08 -2.09211368e-08
      -2.09211368e-08 -2.09211368e-08 -2.09211368e-08 -2.09211368e-08
      -2.09211368e-08 0. -6.97371227e-09 2.78948491e-08 1.95263951e-07
      1.60395382e-06 1.72948069e-06 1.75737546e-06 1.75737546e-06
      1.75737546e-06 1.75737546e-06 1.75737546e-06 1.75737546e-06
      1.75737546e-06 1.75737546e-06 1.75737546e-06 1.75737546e-06
      1.75737546e-06 1.75737546e-06 1.75737546e-06 1.75737546e-06
      1.75737546e-06 1.75737546e-06 1.75737546e-06 1.75737546e-06
      1.72250691e-06 1.71553324e-06 1.75737546e-06 1.26921566e-06
      2.78948491e-08 6.97371227e-09 -2.09211368e-08 2.09211368e-08
      -2.09211368e-08 -2.09211368e-08 -2.09211368e-08 -2.09211368e-08
      -2.09211368e-08 -2.09211368e-08 -2.09211368e-08 -2.09211368e-08
      -2.09211368e-08 -2.09211368e-08 -2.09211368e-08 -2.09211368e-08
      -2.09211368e-08 -2.09211368e-08 -2.09211368e-08 -2.09211368e-08
      -2.09211368e-08 -2.09211368e-08 -2.09211368e-08 -2.09211368e-08
      -2.09211368e-08 -2.09211368e-08 -2.09211368e-08 -2.09211368e-08
      -2.09211368e-08 -2.09211368e-08 -2.09211368e-08 -2.09211368e-08
      -2.09211368e-08 -2.09211368e-08 -2.09211368e-08 -2.09211368e-08
      -2.09211368e-08 0. 0. 0. -9.76319754e-08 -2.09211368e-08 0.
      -6.97371227e-09 0. 0. 0. 0. 0. 0. 0. 0. 0. 0. 0. 0. 0. 0. 0. 0. 0.
      0. 0. 0. 0. 0. 0. 0. 0. 0. 0. 0. 0. 0. 0. 0. 0. 0. 0. 0. 0. 0. 0.
      0. 0. 0. 0. 0. 0. 0. 0. 0. 0. 0. 0. 0. 0. 0. 0. 0. 0. 0. 0. 0. 0.
      0. 0. 0. 0. 0. 0. 0. 0. 0. 0. 0. 0. 0. 0. 0. 0. 0. 0. 0. 0. 0. 0.
      0. 0. 0. 0. 0. 0. 0. 0. 0. 0. 0. 0. 0. 0. 0. 0. 0. 0. 0. 0. 0. 0.
      0. 0. 0. 0. 0. 0. 0. 0. 0. 0. 0. 0. 0. 0. 0. 0. -2.09211368e-08 0.
      -6.27634122e-08 -2.09211368e-08 -4.18422736e-08 0. 0. 0. 0. 0. 0.
      0. 0. 0. 0. 0. 0. 0. 0. 0. 0. 0. 0. 0. 0. 0. 0. 0. 0. 0. 0. 0. 0.
      0. 0. 0. 0. 0. 0. 0. 0. 0. 0. 0. 0. 0. 0. 0. 6.27634122e-08 0.
      9.41451162e-07 1.77829668e-06 1.74342813e-06 1.77829668e-06
      1.75737546e-06 1.77829668e-06 1.77829668e-06 1.77829668e-06
      1.77829668e-06 1.77829668e-06 1.77829668e-06 1.77829668e-06
      1.77829668e-06 1.77829668e-06 1.77829668e-06 1.77829668e-06
      1.77829668e-06 1.77829668e-06 1.77829668e-06 1.77829668e-06
      1.77829668e-06 1.73645435e-06 1.77829668e-06 1.62487493e-06
      1.77829668e-06 6.48555272e-07 0. 0. 1.39474245e-08 0. 0. 0. 0. 0.
      0. 0. 0. 0. 0. 0. 0. 0. 0. 0. 0. 0. 0. 0. 0. 0. 0. 0. 0. 0. 0. 0.
      0. 0. 0. 0. 0. -3.48685631e-08 -2.78948491e-08 -4.88159877e-08 0.
      -6.97371227e-09 0. 0. -5.57896982e-08 0. 0. 0. 0. 0. 0. 0. 0. 0.
      0. 0. 0. 0. 0. 0. 0. 0. 0. 0. 0. 0. 0. 0. 0. 0. 0. 0. 0. 0. 0. 0.
      0. 0. 0. 0. 0. 0. 0. 0. 0. 0. 0. 0. 0. 0. 0. 0. 0. 0. 0. 0. 0. 0.
      0. 0. 0. 0. 0. 0. 0. 0. 0. 0. 0. 0. 0. 0. 0. 0. 0. 0. 0. 0. 0. 0.
      0. 0. 0. 0. 0. 0. 0. 0. 0. 0. 0. 0. 0. 0. 0. 0. 0. 0. 0. 0. 0. 0.
      0. 0. 0. 0. 0. 0. 0. 0. 0. 0. 0. 0. 0. 0. 0. 0. 0. 0. 0. 0. 0. 0.
      0. 0. -6.97371263e-08 0. 0. 0. 0. -6.27634122e-08 0. 0. 0. 0. 0.
      0. 0. 0. 0. 0. 0. 0. 0. 0. 0. 0. 0. 0. 0. 0. 0. 0. 0. 0. 0. 0. 0.
      0. 0. 0. 0. 0. 0. 0. 0. 0. 0. 0. 0. 0. 0. 0. 1.39474245e-08
      3.62633045e-07 1.68763836e-06 1.72250691e-06 1.77829668e-06
      1.74342813e-06 1.76434924e-06 1.77829668e-06 1.77829668e-06
      1.77829668e-06 1.77829668e-06 1.77829668e-06 1.77829668e-06
      1.77829668e-06 1.77829668e-06 1.77829668e-06 1.77829668e-06
      1.77829668e-06 1.77829668e-06 1.77829668e-06 1.77829668e-06
      1.77829668e-06 1.77829668e-06 1.77829668e-06 1.75040179e-06
      1.77829668e-06 1.73645435e-06 1.57605893e-06 9.06582613e-08
      2.09211368e-08 2.78948491e-08 0. 0. 0. 0. 0. 0. 0. 0. 0. 0. 0. 0.
      0. 0. 0. 0. 0. 0. 0. 0. 0. 0. 0. 0. 0. 0. 0. 0. 0. 0. 0. 0. 0. 0.
      -7.67108332e-08 0. 0. -4.88159877e-08 -3.48685631e-08 0. 0. 0. 0.
      0. 0. 0. 0. 0. 0. 0. 0. 0. 0. 0. 0. 0. 0. 0. 0. 0. 0. 0. 0. 0. 0.
      0. 0. 0. 0. 0. 0. 0. 0. 0. 0. 0. 0. 0. 0. 0. 0. 0. 0. 0. 0. 0. 0.
      0. 0. 0. 0. 0. 0. 0. 0. 0. 0. 0. 0. 0. 0. 0. 0. 0. 0. 0. 0. 0. 0.
      0. 0. 0. 0. 0. 0. 0. 0. 0. 0. 0. 0. 0. 0. 0. 0. 0. 0. 0. 0. 0. 0.
      0. 0. 0. 0. 0. 0. 0. 0. 0. 0. 0. 0. 0. 0. 0. 0. 0. 0. 0. 0. 0. 0.
      0. 0. 0. 0. 0. 0. 0. -3.48685631e-08 0. -1.39474245e-08
      -3.48685631e-08 -1.25526824e-07 0. -2.09211368e-08 -4.18422736e-08
      0. 0. 0. 0. 0. 0. 0. 0. 0. 0. 0. 0. 0. 0. 0. 0. 0. 0. 0. 0. 0. 0.
      0. 0. 0. 0. 0. 0. 0. 0. 0. 0. 0. 0. 0. 0. 0. 0. 0. 0.
      1.39474245e-08 0. 1.22737333e-06 1.77829668e-06 1.77829668e-06
      1.77132290e-06 1.77132290e-06 1.77829668e-06 1.77829668e-06
      1.77829668e-06 1.77829668e-06 1.77829668e-06 1.77829668e-06
      1.77829668e-06 1.77829668e-06 1.77829668e-06 1.77829668e-06
      1.77829668e-06 1.77829668e-06 1.77829668e-06 1.77829668e-06
      1.77829668e-06 1.77829668e-06 1.77829668e-06 1.77829668e-06
      1.72250691e-06 1.77132290e-06 1.74342813e-06 1.77829668e-06
      8.85661450e-07 0. 2.09211368e-08 0. 0. 0. 0. 0. 0. 0. 0. 0. 0. 0.
      0. 0. 0. 0. 0. 0. 0. 0. 0. 0. 0. 0. 0. 0. 0. 0. 0. 0. 0. 0. 0.
      -4.18422736e-08 -6.97371227e-09 0. -6.97371227e-09 -8.36845473e-08
      0. 0. -1.04605682e-07 0. 0. 0. 0. 0. 0. 0. 0. 0. 0. 0. 0. 0. 0. 0.
      0. 0. 0. 0. 0. 0. 0. 0. 0. 0. 0. 0. 0. 0. 0. 0. 0. 0. 0. 0. 0. 0.
      0. 0. 0. 0. 0. 0. 0. 0. 0. 0. 0. 0. 0. 0. 0. 0. 0. 0. 0. 0. 0. 0.
      0. 0. 0. 0. 0. 0. 0. 0. 0. 0. 0. 0. 0. 0. 0. 0. 0. 0. 0. 0. 0. 0.
      0. 0. 0. 0. 0. 0. 0. 0. 0. 0. 0. 0. 0. 0. 0. 0. 0. 0. 0. 0. 0. 0.
      0. 0. 0. 0. 0. 0. 0. 0. 0. 0. 0. 0. 0. 0. 0. 0. 0. -6.27634122e-08
      0. -1.39474245e-08 -1.39474245e-08 0. -1.39474253e-07 0. 0. 0. 0.
      0. 0. 0. 0. 0. 0. 0. 0. 0. 0. 0. 0. 0. 0. 0. 0. 0. 0. 0. 0. 0. 0.
      0. 0. 0. 0. 0. 0. 0. 0. 0. 0. 0. 0. 0. 0. 0. 0. 0. 5.71844396e-07
      1.74342813e-06 1.68763836e-06 1.77829668e-06 1.70158580e-06
      1.77829668e-06 1.75737546e-06 1.77829668e-06 1.77829668e-06
      1.77829668e-06 1.77829668e-06 1.77829668e-06 1.77829668e-06
      1.77829668e-06 1.77829668e-06 1.77829668e-06 1.77829668e-06
      1.77829668e-06 1.77829668e-06 1.77829668e-06 1.77829668e-06
      1.77829668e-06 1.77829668e-06 1.77829668e-06 1.77829668e-06
      1.65276981e-06 1.77829668e-06 1.61092760e-06 1.64579615e-06
      2.99869640e-07 0. 0. 0. 0. 0. 0. 0. 0. 0. 0. 0. 0. 0. 0. 0. 0. 0.
      0. 0. 0. 0. 0. 0. 0. 0. 0. 0. 0. 0. 0. 0. 0. 0. 0. -5.57896982e-08
      0. -6.97371227e-09 -2.09211368e-08 0. -9.76319754e-08 0. 0. 0. 0.
      0. 0. 0. 0. 0. 0. 0. 0. 0. 0. 0. 0. 0. 0. 0. 0. 0. 0. 0. 0. 0. 0.
      0. 0. 0. 0. 0. 0. 0. 0. 0. 0. 0. 0. 0. 0. 0. 0. 0. 0. 0. 0. 0. 0.
      0. 0. 0. 0. 0. 0. 0. 0. 0. 0. 0. 0. 0. 0. 0. 0. 0. 0. 0. 0. 0. 0.
      0. 0. 0. 0. 0. 0. 0. 0. 0. 0. 0. 0. 0. 0. 0. 0. 0. 0. 0. 0. 0. 0.
      0. 0. 0. 0. 0. 0. 0. 0. 0. 0. 0. 0. 0. 0. 0. 0. 0. 0. 0. 0. 0. 0.
      0. 0. 0. 0. 0. 0. 0. 0. -5.57896982e-08 -3.48685631e-08 0.
      -9.06582613e-08 -1.63184870e-06 -1.75040179e-06 -1.77829668e-06
      -1.77132290e-06 -1.77132290e-06 -1.77132290e-06 -1.77132290e-06
      -1.77132290e-06 -1.77132290e-06 -1.77132290e-06 -1.77132290e-06
      -1.77132290e-06 -1.77132290e-06 -1.77132290e-06 -1.77132290e-06
      -1.77132290e-06 -1.77132290e-06 -1.77132290e-06 -1.77132290e-06
      -1.77132290e-06 -1.77132290e-06 -1.77132290e-06 -1.77132290e-06
      -1.77132290e-06 -1.77132290e-06 -1.77132290e-06 -1.77132290e-06
      -1.77132290e-06 -1.77132290e-06 -1.77132290e-06 -1.77132290e-06
      -1.77132290e-06 -1.77132290e-06 -1.77132290e-06 -1.77132290e-06
      -1.77132290e-06 -1.77132290e-06 -1.77132290e-06 -1.77132290e-06
      -1.77132290e-06 -1.77132290e-06 -1.77132290e-06 -1.77132290e-06
      -1.70158580e-06 -2.58027370e-07 6.97371227e-09 6.97371227e-09
      -3.48685631e-08 6.97371227e-09 6.97371227e-09 6.97371227e-09
      6.97371227e-09 6.97371227e-09 6.97371227e-09 6.97371227e-09
      6.97371227e-09 6.97371227e-09 6.97371227e-09 6.97371227e-09
      6.97371227e-09 6.97371227e-09 6.97371227e-09 6.97371227e-09
      6.97371227e-09 6.97371227e-09 6.97371227e-09 6.97371227e-09
      -2.09211368e-08 0. 6.97371227e-09 -6.27634122e-08 6.97371227e-09
      6.97371227e-09 -6.62502657e-07 -1.71553324e-06 -1.77132290e-06
      -1.77132290e-06 -1.77132290e-06 -1.77132290e-06 -1.77132290e-06
      -1.77132290e-06 -1.77132290e-06 -1.77132290e-06 -1.77132290e-06
      -1.77132290e-06 -1.77132290e-06 -1.77132290e-06 -1.77132290e-06
      -1.77132290e-06 -1.77132290e-06 -1.77132290e-06 -1.77132290e-06
      -1.77132290e-06 -1.77132290e-06 -1.77132290e-06 -1.77132290e-06
      -1.77132290e-06 -1.77132290e-06 -1.77132290e-06 -1.77132290e-06
      -1.77132290e-06 -1.77132290e-06 -1.77132290e-06 -1.77132290e-06
      -1.77132290e-06 -1.77132290e-06 -1.77132290e-06 -1.77829668e-06
      -1.76434924e-06 -1.75737546e-06 -1.77829668e-06 -1.68763836e-06
      -1.77829668e-06 -1.61790126e-06 -6.27634122e-08 0. 0. 0. 0. 0. 0.
      0. 0. 0. 0. 0. 0. 0. 0. 0. 0. 0. 0. 0. 0. 0. 0. 0. 0. 0. 0. 0. 0.
      0. 0. 0. 0. 0. 0. 0. 0. 0. 0. 0. 0. 0. 0. 0. 0. 0. 0. 0. 0. 0. 0.
      0. 0. 0. 0. 0. 0. 0. 0. 0. 0. 0. 0. 0. 0. 0. 0. 0. 0. 0. 0. 0. 0.
      0. 0. 0. 0. 0. 0. 0. 0. 0. 0. 0. 0. 0. 0. 0. 0. 0. 0. 0. 0. 0. 0.
      0. 0. 0. 0. 0. 0. 0. 0. 0. 0. 0. 0. 0. 0. 0. 0. 0. 0. 0. 0. 0. 0.
      0. 0. 0. 0. -1.39474245e-08 0. 0. -1.39474245e-08 0.
      -1.77829668e-06 -1.76434924e-06 -1.77132290e-06 -1.77829668e-06
      -1.77829668e-06 -1.77829668e-06 -1.77829668e-06 -1.77829668e-06
      -1.77829668e-06 -1.77829668e-06 -1.77829668e-06 -1.77829668e-06
      -1.77829668e-06 -1.77829668e-06 -1.77829668e-06 -1.77829668e-06
      -1.77829668e-06 -1.77829668e-06 -1.77829668e-06 -1.77829668e-06
      -1.77829668e-06 -1.77829668e-06 -1.77829668e-06 -1.77829668e-06
      -1.77829668e-06 -1.77829668e-06 -1.77829668e-06 -1.77829668e-06
      -1.77829668e-06 -1.77829668e-06 -1.77829668e-06 -1.77829668e-06
      -1.77829668e-06 -1.77829668e-06 -1.77829668e-06 -1.74342813e-06
      -1.75040179e-06 -1.77829668e-06 -1.74342813e-06 -1.77829668e-06
      -1.72948069e-06 -1.77829668e-06 -1.77829668e-06 -9.34477441e-07
      -1.88290230e-07 0. -1.39474245e-08 0. -5.57896982e-08
      -6.97371227e-09 -1.39474245e-08 0. 0. 0. 0. 0. 0. 0. 0. 0. 0. 0.
      0. 0. 0. 0. 0. -1.39474245e-08 -3.48685631e-08 0. -2.09211368e-08
      -8.36845473e-08 0. -1.95263951e-07 -1.29711054e-06 -1.77829668e-06
      -1.77829668e-06 -1.73645435e-06 -1.77829668e-06 -1.73645435e-06
      -1.77829668e-06 -1.74342813e-06 -1.77829668e-06 -1.77829668e-06
      -1.77829668e-06 -1.77829668e-06 -1.77829668e-06 -1.77829668e-06
      -1.77829668e-06 -1.77829668e-06 -1.77829668e-06 -1.77829668e-06
      -1.77829668e-06 -1.77829668e-06 -1.77829668e-06 -1.77829668e-06
      -1.77829668e-06 -1.77829668e-06 -1.77829668e-06 -1.77829668e-06
      -1.77829668e-06 -1.77829668e-06 -1.77829668e-06 -1.77829668e-06
      -1.77829668e-06 -1.77829668e-06 -1.77829668e-06 -1.77829668e-06
      -1.77829668e-06 -1.74342813e-06 -1.77132290e-06 -1.77132290e-06
      -1.77829668e-06 -1.77829668e-06 -6.97371227e-09 0. 0. 0. 0. 0. 0.
      0. 0. 0. 0. 0. 0. 0. 0. 0. 0. 0. 0. 0. 0. 0. 0. 0. 0. 0. 0. 0. 0.
      0. 0. 0. 0. 0. 0. 0. 0. 0. 0. 0. 0. 0. 0. 0. 0. 0. 0. 0. 0. 0. 0.
      0. 0. 0. 0. 0. 0. 0. 0. 0. 0. 0. 0. 0. 0. 0. 0. 0. 0. 0. 0. 0. 0.
      0. 0. 0. 0. 0. 0. 0. 0. 0. 0. 0. 0. 0. 0. 0. 0. 0. 0. 0. 0. 0. 0.
      0. 0. 0. 0. 0. 0. 0. 0. 0. 0. 0. 0. 0. 0. 0. 0. 0. 0. 0. 0. 0. 0.
      0. 0. 0. 0. -1.39474245e-08 0. 0. -1.39474245e-08 0.
      -1.77829668e-06 -1.76434924e-06 -1.77132290e-06 -1.77829668e-06
      -1.77829668e-06 -1.77829668e-06 -1.77829668e-06 -1.77829668e-06
      -1.77829668e-06 -1.77829668e-06 -1.77829668e-06 -1.77829668e-06
      -1.77829668e-06 -1.77829668e-06 -1.77829668e-06 -1.77829668e-06
      -1.77829668e-06 -1.77829668e-06 -1.77829668e-06 -1.77829668e-06
      -1.77829668e-06 -1.77829668e-06 -1.77829668e-06 -1.77829668e-06
      -1.77829668e-06 -1.77829668e-06 -1.77829668e-06 -1.77829668e-06
      -1.77829668e-06 -1.77829668e-06 -1.77829668e-06 -1.77829668e-06
      -1.77829668e-06 -1.77829668e-06 -1.77829668e-06 -1.77829668e-06
      -1.70158580e-06 -1.76434924e-06 -1.77132290e-06 -1.77829668e-06
      -1.77829668e-06 -1.77132290e-06 -1.54816416e-06 -2.71974784e-07 0.
      -6.97371227e-09 -2.78948491e-08 0. -3.48685631e-08 0.
      -6.97371227e-09 0. 0. 0. 0. 0. 0. 0. 0. 0. 0. 0. 0. 0. 0. 0. 0.
      -4.18422736e-08 -3.48685631e-08 0. 0. -2.78948491e-08 0. 0.
      -4.11449037e-07 -1.75737546e-06 -1.73645435e-06 -1.77829668e-06
      -1.76434924e-06 -1.75737546e-06 -1.77829668e-06 -1.72250691e-06
      -1.77132290e-06 -1.77829668e-06 -1.77829668e-06 -1.77829668e-06
      -1.77829668e-06 -1.77829668e-06 -1.77829668e-06 -1.77829668e-06
      -1.77829668e-06 -1.77829668e-06 -1.77829668e-06 -1.77829668e-06
      -1.77829668e-06 -1.77829668e-06 -1.77829668e-06 -1.77829668e-06
      -1.77829668e-06 -1.77829668e-06 -1.77829668e-06 -1.77829668e-06
      -1.77829668e-06 -1.77829668e-06 -1.77829668e-06 -1.77829668e-06
      -1.77829668e-06 -1.77829668e-06 -1.77829668e-06 -1.74342813e-06
      -1.77132290e-06 -1.77132290e-06 -1.77829668e-06 -1.77829668e-06
      -6.97371227e-09 0. 0. 0. 0. 0. 0. 0. 0. 0. 0. 0. 0. 0. 0. 0. 0. 0.
      0. 0. 0. 0. 0. 0. 0. 0. 0. 0. 0. 0. 0. 0. 0. 0. 0. 0. 0. 0. 0. 0.
      0. 0. 0. 0. 0. 0. 0. 0. 0. 0. 0. 0. 0. 0. 0. 0. 0. 0. 0. 0. 0. 0.
      0. 0. 0. 0. 0. 0. 0. 0. 0. 0. 0. 0. 0. 0. 0. 0. 0. 0. 0. 0. 0. 0.
      0. 0. 0. 0. 0. 0. 0. 0. 0. 0. 0. 0. 0. 0. 0. 0. 0. 0. 0. 0. 0. 0.
      0. 0. 0. 0. 0. 0. 0. 0. 0. 0. 0. 0. 0. 0. 0. -1.39474245e-08 0. 0.
      -1.39474245e-08 0. -1.77829668e-06 -1.76434924e-06 -1.77132290e-06
      -1.77829668e-06 -1.77829668e-06 -1.77829668e-06 -1.77829668e-06
      -1.77829668e-06 -1.77829668e-06 -1.77829668e-06 -1.77829668e-06
      -1.77829668e-06 -1.77829668e-06 -1.77829668e-06 -1.77829668e-06
      -1.77829668e-06 -1.77829668e-06 -1.77829668e-06 -1.77829668e-06
      -1.77829668e-06 -1.77829668e-06 -1.77829668e-06 -1.77829668e-06
      -1.77829668e-06 -1.77829668e-06 -1.77829668e-06 -1.77829668e-06
      -1.77829668e-06 -1.77829668e-06 -1.77829668e-06 -1.77829668e-06
      -1.77829668e-06 -1.77829668e-06 -1.77829668e-06 -1.77829668e-06
      -1.72948069e-06 -1.77829668e-06 -1.77829668e-06 -1.67369092e-06
      -1.77829668e-06 -1.75737546e-06 -1.77829668e-06 -6.90397542e-07
      -1.39474245e-08 0. -6.27634122e-08 -4.18422736e-08 -2.78948491e-08
      -4.18422736e-08 0. 0. 0. 0. 0. 0. 0. 0. 0. 0. 0. 0. 0. 0. 0. 0. 0.
      0. 0. -6.97371227e-09 -3.48685631e-08 -6.97371227e-09 0.
      -8.36845473e-08 -2.09211368e-08 -6.97371227e-09 -1.06000425e-06
      -1.77829668e-06 -1.72250691e-06 -1.77829668e-06 -1.75737546e-06
      -1.77829668e-06 -1.75737546e-06 -1.77829668e-06 -1.77829668e-06
      -1.77829668e-06 -1.77829668e-06 -1.77829668e-06 -1.77829668e-06
      -1.77829668e-06 -1.77829668e-06 -1.77829668e-06 -1.77829668e-06
      -1.77829668e-06 -1.77829668e-06 -1.77829668e-06 -1.77829668e-06
      -1.77829668e-06 -1.77829668e-06 -1.77829668e-06 -1.77829668e-06
      -1.77829668e-06 -1.77829668e-06 -1.77829668e-06 -1.77829668e-06
      -1.77829668e-06 -1.77829668e-06 -1.77829668e-06 -1.77829668e-06
      -1.77829668e-06 -1.74342813e-06 -1.77132290e-06 -1.77132290e-06
      -1.77829668e-06 -1.77829668e-06 -6.97371227e-09 0. 0. 0. 0. 0. 0.
      0. 0. 0. 0. 0. 0. 0. 0. 0. 0. 0. 0. 0. 0. 0. 0. 0. 0. 0. 0. 0. 0.
      0. 0. 0. 0. 0. 0. 0. 0. 0. 0. 0. 0. 0. 0. 0. 0. 0. 0. 0. 0. 0. 0.
      0. 0. 0. 0. 0. 0. 0. 0. 0. 0. 0. 0. 0. 0. 0. 0. 0. 0. 0. 0. 0. 0.
      0. 0. 0. 0. 0. 0. 0. 0. 0. 0. 0. 0. 0. 0. 0. 0. 0. 0. 0. 0. 0. 0.
      0. 0. 0. 0. 0. 0. 0. 0. 0. 0. 0. 0. 0. 0. 0. 0. 0. 0. 0. 0. 0. 0.
      0. 0. 0. 0. -1.39474245e-08 0. 0. -1.39474245e-08 0.
      -1.77829668e-06 -1.76434924e-06 -1.77132290e-06 -1.77829668e-06
      -1.77829668e-06 -1.77829668e-06 -1.77829668e-06 -1.77829668e-06
      -1.77829668e-06 -1.77829668e-06 -1.77829668e-06 -1.77829668e-06
      -1.77829668e-06 -1.77829668e-06 -1.77829668e-06 -1.77829668e-06
      -1.77829668e-06 -1.77829668e-06 -1.77829668e-06 -1.77829668e-06
      -1.77829668e-06 -1.77829668e-06 -1.77829668e-06 -1.77829668e-06
      -1.77829668e-06 -1.77829668e-06 -1.77829668e-06 -1.77829668e-06
      -1.77829668e-06 -1.77829668e-06 -1.77829668e-06 -1.77829668e-06
      -1.77829668e-06 -1.77829668e-06 -1.77829668e-06 -1.75737546e-06
      -1.77829668e-06 -1.77132290e-06 -1.77829668e-06 -1.77829668e-06
      -1.75737546e-06 -1.35290020e-06 -9.06582613e-08 0. -1.39474245e-08
      0. 0. -1.39474245e-08 -1.39474245e-08 0. -1.39474245e-08 0. 0. 0.
      0. 0. 0. 0. 0. 0. 0. 0. 0. 0. 0. 0. 0. 0. 0. -3.48685631e-08
      -2.09211368e-08 0. -1.39474245e-08 -5.57896982e-08 -6.97371227e-09
      -1.88290230e-07 -1.59000638e-06 -1.76434924e-06 -1.77829668e-06
      -1.76434924e-06 -1.75040179e-06 -1.77829668e-06 -1.77829668e-06
      -1.77829668e-06 -1.77829668e-06 -1.77829668e-06 -1.77829668e-06
      -1.77829668e-06 -1.77829668e-06 -1.77829668e-06 -1.77829668e-06
      -1.77829668e-06 -1.77829668e-06 -1.77829668e-06 -1.77829668e-06
      -1.77829668e-06 -1.77829668e-06 -1.77829668e-06 -1.77829668e-06
      -1.77829668e-06 -1.77829668e-06 -1.77829668e-06 -1.77829668e-06
      -1.77829668e-06 -1.77829668e-06 -1.77829668e-06 -1.77829668e-06
      -1.77829668e-06 -1.77829668e-06 -1.74342813e-06 -1.77132290e-06
      -1.77132290e-06 -1.77829668e-06 -1.77829668e-06 -6.97371227e-09 0.
      0. 0. 0. 0. 0. 0. 0. 0. 0. 0. 0. 0. 0. 0. 0. 0. 0. 0. 0. 0. 0. 0.
      0. 0. 0. 0. 0. 0. 0. 0. 0. 0. 0. 0. 0. 0. 0. 0. 0. 0. 0. 0. 0. 0.
      0. 0. 0. 0. 0. 0. 0. 0. 0. 0. 0. 0. 0. 0. 0. 0. 0. 0. 0. 0. 0. 0.
      0. 0. 0. 0. 0. 0. 0. 0. 0. 0. 0. 0. 0. 0. 0. 0. 0. 0. 0. 0. 0. 0.
      0. 0. 0. 0. 0. 0. 0. 0. 0. 0. 0. 0. 0. 0. 0. 0. 0. 0. 0. 0. 0. 0.
      0. 0. 0. 0. 0. 0. 0. 0. 0. -1.39474245e-08 0. 0. -1.39474245e-08
      0. -1.77829668e-06 -1.76434924e-06 -1.77132290e-06 -1.77829668e-06
      -1.77829668e-06 -1.77829668e-06 -1.77829668e-06 -1.77829668e-06
      -1.77829668e-06 -1.77829668e-06 -1.77829668e-06 -1.77829668e-06
      -1.77829668e-06 -1.77829668e-06 -1.77829668e-06 -1.77829668e-06
      -1.77829668e-06 -1.77829668e-06 -1.77829668e-06 -1.77829668e-06
      -1.77829668e-06 -1.77829668e-06 -1.77829668e-06 -1.77829668e-06
      -1.77829668e-06 -1.77829668e-06 -1.77829668e-06 -1.77829668e-06
      -1.77829668e-06 -1.77829668e-06 -1.77829668e-06 -1.77829668e-06
      -1.77829668e-06 -1.77829668e-06 -1.77829668e-06 -1.77829668e-06
      -1.75040179e-06 -1.74342813e-06 -1.77829668e-06 -1.73645435e-06
      -1.77829668e-06 -4.67238721e-07 -2.78948491e-08 0. 0. 0.
      -1.39474245e-08 0. 0. -6.97371227e-09 -2.09211368e-08 0. 0. 0. 0.
      0. 0. 0. 0. 0. 0. 0. 0. 0. 0. 0. 0. -4.18422736e-08
      -1.39474245e-08 0. -2.09211368e-08 -2.78948491e-08 0. 0. 0. 0.
      -8.01976910e-07 -1.77829668e-06 -1.68763836e-06 -1.77829668e-06
      -1.75040179e-06 -1.77132290e-06 -1.77132290e-06 -1.77829668e-06
      -1.77829668e-06 -1.77829668e-06 -1.77829668e-06 -1.77829668e-06
      -1.77829668e-06 -1.77829668e-06 -1.77829668e-06 -1.77829668e-06
      -1.77829668e-06 -1.77829668e-06 -1.77829668e-06 -1.77829668e-06
      -1.77829668e-06 -1.77829668e-06 -1.77829668e-06 -1.77829668e-06
      -1.77829668e-06 -1.77829668e-06 -1.77829668e-06 -1.77829668e-06
      -1.77829668e-06 -1.77829668e-06 -1.77829668e-06 -1.77829668e-06
      -1.77829668e-06 -1.74342813e-06 -1.77132290e-06 -1.77132290e-06
      -1.77829668e-06 -1.77829668e-06 -6.97371227e-09 0. 0. 0. 0. 0. 0.
      0. 0. 0. 0. 0. 0. 0. 0. 0. 0. 0. 0. 0. 0. 0. 0. 0. 0. 0. 0. 0. 0.
      0. 0. 0. 0. 0. 0. 0. 0. 0. 0. 0. 0. 0. 0. 0. 0. 0. 0. 0. 0. 0. 0.
      0. 0. 0. 0. 0. 0. 0. 0. 0. 0. 0. 0. 0. 0. 0. 0. 0. 0. 0. 0. 0. 0.
      0. 0. 0. 0. 0. 0. 0. 0. 0. 0. 0. 0. 0. 0. 0. 0. 0. 0. 0. 0. 0. 0.
      0. 0. 0. 0. 0. 0. 0. 0. 0. 0. 0. 0. 0. 0. 0. 0. 0. 0. 0. 0. 0. 0.
      0. 0. 0. 0. -1.39474245e-08 0. 0. -1.39474245e-08 0.
      -1.77829668e-06 -1.76434924e-06 -1.77132290e-06 -1.77829668e-06
      -1.77829668e-06 -1.77829668e-06 -1.77829668e-06 -1.77829668e-06
      -1.77829668e-06 -1.77829668e-06 -1.77829668e-06 -1.77829668e-06
      -1.77829668e-06 -1.77829668e-06 -1.77829668e-06 -1.77829668e-06
      -1.77829668e-06 -1.77829668e-06 -1.77829668e-06 -1.77829668e-06
      -1.77829668e-06 -1.77829668e-06 -1.77829668e-06 -1.77829668e-06
      -1.77829668e-06 -1.77829668e-06 -1.77829668e-06 -1.77829668e-06
      -1.77829668e-06 -1.77829668e-06 -1.77829668e-06 -1.77829668e-06
      -1.77829668e-06 -1.77829668e-06 -1.77829668e-06 -1.73645435e-06
      -1.75737546e-06 -1.77829668e-06 -1.70855958e-06 -1.77829668e-06
      -1.17158368e-06 0. -2.09211368e-08 -4.18422736e-08 -4.88159877e-08
      -4.88159877e-08 -4.18422736e-08 -1.39474245e-08 -1.39474245e-08
      -2.78948491e-08 -6.97371227e-09 0. 0. 0. 0. 0. 0. 0. 0. 0. 0. 0.
      0. 0. 0. 0. 0. -3.48685631e-08 -2.09211368e-08 0. 0.
      -9.06582613e-08 -2.78948491e-08 -6.97371227e-09 -4.18422736e-08
      -6.27634122e-08 -7.67108332e-08 -1.41566363e-06 -1.77829668e-06
      -1.75737546e-06 -1.75737546e-06 -1.77829668e-06 -1.75737546e-06
      -1.77829668e-06 -1.77829668e-06 -1.77829668e-06 -1.77829668e-06
      -1.77829668e-06 -1.77829668e-06 -1.77829668e-06 -1.77829668e-06
      -1.77829668e-06 -1.77829668e-06 -1.77829668e-06 -1.77829668e-06
      -1.77829668e-06 -1.77829668e-06 -1.77829668e-06 -1.77829668e-06
      -1.77829668e-06 -1.77829668e-06 -1.77829668e-06 -1.77829668e-06
      -1.77829668e-06 -1.77829668e-06 -1.77829668e-06 -1.77829668e-06
      -1.77829668e-06 -1.77829668e-06 -1.74342813e-06 -1.77132290e-06
      -1.77132290e-06 -1.77829668e-06 -1.77829668e-06 -6.97371227e-09 0.
      0. 0. 0. 0. 0. 0. 0. 0. 0. 0. 0. 0. 0. 0. 0. 0. 0. 0. 0. 0. 0. 0.
      0. 0. 0. 0. 0. 0. 0. 0. 0. 0. 0. 0. 0. 0. 0. 0. 0. 0. 0. 0. 0. 0.
      0. 0. 0. 0. 0. 0. 0. 0. 0. 0. 0. 0. 0. 0. 0. 0. 0. 0. 0. 0. 0. 0.
      0. 0. 0. 0. 0. 0. 0. 0. 0. 0. 0. 0. 0. 0. 0. 0. 0. 0. 0. 0. 0. 0.
      0. 0. 0. 0. 0. 0. 0. 0. 0. 0. 0. 0. 0. 0. 0. 0. 0. 0. 0. 0. 0. 0.
      0. 0. 0. 0. 0. 0. 0. 0. 0. -1.39474245e-08 0. 0. -1.39474245e-08
      0. -1.77829668e-06 -1.76434924e-06 -1.77132290e-06 -1.77829668e-06
      -1.77829668e-06 -1.77829668e-06 -1.77829668e-06 -1.77829668e-06
      -1.77829668e-06 -1.77829668e-06 -1.77829668e-06 -1.77829668e-06
      -1.77829668e-06 -1.77829668e-06 -1.77829668e-06 -1.77829668e-06
      -1.77829668e-06 -1.77829668e-06 -1.77829668e-06 -1.77829668e-06
      -1.77829668e-06 -1.77829668e-06 -1.77829668e-06 -1.77829668e-06
      -1.77829668e-06 -1.77829668e-06 -1.77829668e-06 -1.77829668e-06
      -1.77829668e-06 -1.77829668e-06 -1.77829668e-06 -1.77829668e-06
      -1.77829668e-06 -1.77829668e-06 -1.77829668e-06 -1.77829668e-06
      -1.77132290e-06 -1.77829668e-06 -1.76434924e-06 -1.66671725e-06
      -2.78948505e-07 0. -4.88159877e-08 -1.39474245e-08 -6.97371227e-09
      0. 0. 0. -3.48685631e-08 -2.78948491e-08 -2.78948491e-08 0. 0. 0.
      0. 0. 0. 0. 0. 0. 0. 0. 0. 0. 0. 0. 0. -6.97371227e-09
      -1.39474245e-08 -4.18422736e-08 0. -1.39474245e-08 0.
      -6.97371227e-09 -2.09211368e-08 -3.48685631e-08 0. -5.85791838e-07
      -1.73645435e-06 -1.76434924e-06 -1.77132290e-06 -1.77829668e-06
      -1.77829668e-06 -1.77829668e-06 -1.77829668e-06 -1.77829668e-06
      -1.77829668e-06 -1.77829668e-06 -1.77829668e-06 -1.77829668e-06
      -1.77829668e-06 -1.77829668e-06 -1.77829668e-06 -1.77829668e-06
      -1.77829668e-06 -1.77829668e-06 -1.77829668e-06 -1.77829668e-06
      -1.77829668e-06 -1.77829668e-06 -1.77829668e-06 -1.77829668e-06
      -1.77829668e-06 -1.77829668e-06 -1.77829668e-06 -1.77829668e-06
      -1.77829668e-06 -1.77829668e-06 -1.77829668e-06 -1.74342813e-06
      -1.77132290e-06 -1.77132290e-06 -1.77829668e-06 -1.77829668e-06
      -6.97371227e-09 0. 0. 0. 0. 0. 0. 0. 0. 0. 0. 0. 0. 0. 0. 0. 0. 0.
      0. 0. 0. 0. 0. 0. 0. 0. 0. 0. 0. 0. 0. 0. 0. 0. 0. 0. 0. 0. 0. 0.
      0. 0. 0. 0. 0. 0. 0. 0. 0. 0. 0. 0. 0. 0. 0. 0. 0. 0. 0. 0. 0. 0.
      0. 0. 0. 0. 0. 0. 0. 0. 0. 0. 0. 0. 0. 0. 0. 0. 0. 0. 0. 0. 0. 0.
      0. 0. 0. 0. 0. 0. 0. 0. 0. 0. 0. 0. 0. 0. 0. 0. 0. 0. 0. 0. 0. 0.
      0. 0. 0. 0. 0. 0. 0. 0. 0. 0. 0. 0. 0. 0. 0. -1.39474245e-08 0. 0.
      -1.39474245e-08 0. -1.77829668e-06 -1.76434924e-06 -1.77132290e-06
      -1.77829668e-06 -1.77829668e-06 -1.77829668e-06 -1.77829668e-06
      -1.77829668e-06 -1.77829668e-06 -1.77829668e-06 -1.77829668e-06
      -1.77829668e-06 -1.77829668e-06 -1.77829668e-06 -1.77829668e-06
      -1.77829668e-06 -1.77829668e-06 -1.77829668e-06 -1.77829668e-06
      -1.77829668e-06 -1.77829668e-06 -1.77829668e-06 -1.77829668e-06
      -1.77829668e-06 -1.77829668e-06 -1.77829668e-06 -1.77829668e-06
      -1.77829668e-06 -1.77829668e-06 -1.77829668e-06 -1.77829668e-06
      -1.77829668e-06 -1.77829668e-06 -1.77829668e-06 -1.77829668e-06
      -1.74342813e-06 -1.77132290e-06 -1.77829668e-06 -1.77132290e-06
      -9.83293489e-07 0. -2.78948491e-08 0. 0. 0. -1.39474245e-08 0.
      -2.09211368e-08 -6.97371227e-09 0. -4.88159877e-08 0. 0. 0. 0. 0.
      0. 0. 0. 0. 0. 0. 0. 0. 0. 0. 0. 0. 0. -9.76319754e-08
      -2.09211368e-08 0. -6.97371227e-09 -4.18422736e-08 0. 0.
      -5.57896982e-08 -6.97371227e-09 -1.26921566e-06 -1.77829668e-06
      -1.77829668e-06 -1.75040179e-06 -1.77829668e-06 -1.77829668e-06
      -1.77829668e-06 -1.77829668e-06 -1.77829668e-06 -1.77829668e-06
      -1.77829668e-06 -1.77829668e-06 -1.77829668e-06 -1.77829668e-06
      -1.77829668e-06 -1.77829668e-06 -1.77829668e-06 -1.77829668e-06
      -1.77829668e-06 -1.77829668e-06 -1.77829668e-06 -1.77829668e-06
      -1.77829668e-06 -1.77829668e-06 -1.77829668e-06 -1.77829668e-06
      -1.77829668e-06 -1.77829668e-06 -1.77829668e-06 -1.77829668e-06
      -1.77829668e-06 -1.74342813e-06 -1.77132290e-06 -1.77132290e-06
      -1.77829668e-06 -1.77829668e-06 -6.97371227e-09 0. 0. 0. 0. 0. 0.
      0. 0. 0. 0. 0. 0. 0. 0. 0. 0. 0. 0. 0. 0. 0. 0. 0. 0. 0. 0. 0. 0.
      0. 0. 0. 0. 0. 0. 0. 0. 0. 0. 0. 0. 0. 0. 0. 0. 0. 0. 0. 0. 0. 0.
      0. 0. 0. 0. 0. 0. 0. 0. 0. 0. 0. 0. 0. 0. 0. 0. 0. 0. 0. 0. 0. 0.
      0. 0. 0. 0. 0. 0. 0. 0. 0. 0. 0. 0. 0. 0. 0. 0. 0. 0. 0. 0. 0. 0.
      0. 0. 0. 0. 0. 0. 0. 0. 0. 0. 0. 0. 0. 0. 0. 0. 0. 0. 0. 0. 0. 0.
      0. 0. 0. 0. -1.39474245e-08 0. 0. -1.39474245e-08 0.
      -1.77829668e-06 -1.76434924e-06 -1.77132290e-06 -1.77829668e-06
      -1.77829668e-06 -1.77829668e-06 -1.77829668e-06 -1.77829668e-06
      -1.77829668e-06 -1.77829668e-06 -1.77829668e-06 -1.77829668e-06
      -1.77829668e-06 -1.77829668e-06 -1.77829668e-06 -1.77829668e-06
      -1.77829668e-06 -1.77829668e-06 -1.77829668e-06 -1.77829668e-06
      -1.77829668e-06 -1.77829668e-06 -1.77829668e-06 -1.77829668e-06
      -1.77829668e-06 -1.77829668e-06 -1.77829668e-06 -1.77829668e-06
      -1.76434924e-06 -1.76434924e-06 -1.77829668e-06 -1.77132290e-06
      -1.75737546e-06 -1.75737546e-06 -1.77829668e-06 -1.72948069e-06
      -1.76434924e-06 -1.76434924e-06 -1.61790126e-06 -4.88159877e-08
      -6.97371227e-09 -9.06582613e-08 0. 0. 0. 0. 0. 0. 0. 0. 0. 0. 0.
      0. 0. 0. 0. 0. 0. 0. 0. 0. 0. 0. 0. 0. 0. 0. 0. 0. 0. 0. 0. 0. 0.
      0. 0. -4.18422736e-08 -2.23158793e-07 -1.70158580e-06
      -1.70158580e-06 -1.77829668e-06 -1.77132290e-06 -1.77829668e-06
      -1.77829668e-06 -1.77132290e-06 -1.76434924e-06 -1.75737546e-06
      -1.76434924e-06 -1.76434924e-06 -1.77132290e-06 -1.77829668e-06
      -1.77829668e-06 -1.77829668e-06 -1.77829668e-06 -1.77829668e-06
      -1.77829668e-06 -1.77829668e-06 -1.77829668e-06 -1.77829668e-06
      -1.77829668e-06 -1.77829668e-06 -1.77829668e-06 -1.77829668e-06
      -1.77829668e-06 -1.77829668e-06 -1.77829668e-06 -1.77829668e-06
      -1.77829668e-06 -1.74342813e-06 -1.77132290e-06 -1.77132290e-06
      -1.77829668e-06 -1.77829668e-06 -6.97371227e-09 0. 0. 0. 0. 0. 0.
      0. 0. 0. 0. 0. 0. 0. 0. 0. 0. 0. 0. 0. 0. 0. 0. 0. 0. 0. 0. 0. 0.
      0. 0. 0. 0. 0. 0. 0. 0. 0. 0. 0. 0. 0. 0. 0. 0. 0. 0. 0. 0. 0. 0.
      0. 0. 0. 0. 0. 0. 0. 0. 0. 0. 0. 0. 0. 0. 0. 0. 0. 0. 0. 0. 0. 0.
      0. 0. 0. 0. 0. 0. 0. 0. 0. 0. 0. 0. 0. 0. 0. 0. 0. 0. 0. 0. 0. 0.
      0. 0. 0. 0. 0. 0. 0. 0. 0. 0. 0. 0. 0. 0. 0. 0. 0. 0. 0. 0. 0. 0.
      0. 0. 0. 0. -1.39474245e-08 0. 0. -1.39474245e-08 0.
      -1.77829668e-06 -1.76434924e-06 -1.77132290e-06 -1.77829668e-06
      -1.77829668e-06 -1.77829668e-06 -1.77829668e-06 -1.77829668e-06
      -1.77829668e-06 -1.77829668e-06 -1.77829668e-06 -1.77829668e-06
      -1.77829668e-06 -1.77829668e-06 -1.77829668e-06 -1.77829668e-06
      -1.77829668e-06 -1.77829668e-06 -1.77829668e-06 -1.77829668e-06
      -1.77829668e-06 -1.77829668e-06 -1.77829668e-06 -1.77829668e-06
      -1.77829668e-06 -1.77829668e-06 -1.77829668e-06 -1.76434924e-06
      -1.75737546e-06 -1.76434924e-06 -1.77829668e-06 -1.77829668e-06
      -1.76434924e-06 -1.76434924e-06 -1.77829668e-06 -1.77132290e-06
      -1.71553324e-06 -1.77829668e-06 -6.69476378e-07 -2.09211368e-08
      -2.09211368e-08 0. -4.18422736e-08 0. 0. 0. 0. 0. 0. 0. 0. 0. 0.
      0. 0. 0. 0. 0. 0. 0. 0. 0. 0. 0. 0. 0. 0. 0. 0. 0. 0. 0. 0. 0. 0.
      -3.48685631e-08 -3.48685631e-08 0. -1.11579396e-07 -9.06582613e-07
      -1.77829668e-06 -1.68763836e-06 -1.77829668e-06 -1.77829668e-06
      -1.77829668e-06 -1.77829668e-06 -1.77829668e-06 -1.77132290e-06
      -1.77132290e-06 -1.76434924e-06 -1.76434924e-06 -1.77829668e-06
      -1.77829668e-06 -1.77829668e-06 -1.77829668e-06 -1.77829668e-06
      -1.77829668e-06 -1.77829668e-06 -1.77829668e-06 -1.77829668e-06
      -1.77829668e-06 -1.77829668e-06 -1.77829668e-06 -1.77829668e-06
      -1.77829668e-06 -1.77829668e-06 -1.77829668e-06 -1.77829668e-06
      -1.77829668e-06 -1.74342813e-06 -1.77132290e-06 -1.77132290e-06
      -1.77829668e-06 -1.77829668e-06 -6.97371227e-09 0. 0. 0. 0. 0. 0.
      0. 0. 0. 0. 0. 0. 0. 0. 0. 0. 0. 0. 0. 0. 0. 0. 0. 0. 0. 0. 0. 0.
      0. 0. 0. 0. 0. 0. 0. 0. 0. 0. 0. 0. 0. 0. 0. 0. 0. 0. 0. 0. 0. 0.
      0. 0. 0. 0. 0. 0. 0. 0. 0. 0. 0. 0. 0. 0. 0. 0. 0. 0. 0. 0. 0. 0.
      0. 0. 0. 0. 0. 0. 0. 0. 0. 0. 0. 0. 0. 0. 0. 0. 0. 0. 0. 0. 0. 0.
      0. 0. 0. 0. 0. 0. 0. 0. 0. 0. 0. 0. 0. 0. 0. 0. 0. 0. 0. 0. 0. 0.
      0. 0. 0. 0. -1.39474245e-08 0. 0. -1.39474245e-08 0.
      -1.77829668e-06 -1.76434924e-06 -1.77132290e-06 -1.77829668e-06
      -1.77829668e-06 -1.77829668e-06 -1.77829668e-06 -1.77829668e-06
      -1.77829668e-06 -1.77829668e-06 -1.77829668e-06 -1.77829668e-06
      -1.77829668e-06 -1.77829668e-06 -1.77829668e-06 -1.77829668e-06
      -1.77829668e-06 -1.77829668e-06 -1.77829668e-06 -1.77829668e-06
      -1.77829668e-06 -1.77829668e-06 -1.77829668e-06 -1.77829668e-06
      -1.77829668e-06 -1.77829668e-06 -1.77829668e-06 -1.76434924e-06
      -1.76434924e-06 -1.77829668e-06 -1.77829668e-06 -1.77829668e-06
      -1.76434924e-06 -1.76434924e-06 -1.77829668e-06 -1.77132290e-06
      -1.77829668e-06 -1.36684764e-06 0. 0. -2.78948491e-08 0.
      -3.48685631e-08 0. 0. 0. 0. 0. 0. 0. 0. 0. 0. 0. 0. 0. 0. 0. 0. 0.
      0. 0. 0. 0. 0. 0. 0. 0. 0. 0. 0. 0. 0. 0. 0. -6.97371227e-09
      -2.09211368e-08 0. 0. -1.53421666e-07 -1.56211161e-06
      -1.77829668e-06 -1.73645435e-06 -1.77132290e-06 -1.77829668e-06
      -1.77829668e-06 -1.77829668e-06 -1.77829668e-06 -1.77829668e-06
      -1.77132290e-06 -1.76434924e-06 -1.77829668e-06 -1.77829668e-06
      -1.77829668e-06 -1.77829668e-06 -1.77829668e-06 -1.77829668e-06
      -1.77829668e-06 -1.77829668e-06 -1.77829668e-06 -1.77829668e-06
      -1.77829668e-06 -1.77829668e-06 -1.77829668e-06 -1.77829668e-06
      -1.77829668e-06 -1.77829668e-06 -1.77829668e-06 -1.77829668e-06
      -1.74342813e-06 -1.77132290e-06 -1.77132290e-06 -1.77829668e-06
      -1.77829668e-06 -6.97371227e-09 0. 0. 0. 0. 0. 0. 0. 0. 0. 0. 0.
      0. 0. 0. 0. 0. 0. 0. 0. 0. 0. 0. 0. 0. 0. 0. 0. 0. 0. 0. 0. 0. 0.
      0. 0. 0. 0. 0. 0. 0. 0. 0. 0. 0. 0. 0. 0. 0. 0. 0. 0. 0. 0. 0. 0.
      0. 0. 0. 0. 0. 0. 0. 0. 0. 0. 0. 0. 0. 0. 0. 0. 0. 0. 0. 0. 0. 0.
      0. 0. 0. 0. 0. 0. 0. 0. 0. 0. 0. 0. 0. 0. 0. 0. 0. 0. 0. 0. 0. 0.
      0. 0. 0. 0. 0. 0. 0. 0. 0. 0. 0. 0. 0. 0. 0. 0. 0. 0. 0. 0. 0.
      -1.39474245e-08 0. 0. -1.39474245e-08 0. -1.77829668e-06
      -1.76434924e-06 -1.77132290e-06 -1.77829668e-06 -1.77829668e-06
      -1.77829668e-06 -1.77829668e-06 -1.77829668e-06 -1.77829668e-06
      -1.77829668e-06 -1.77829668e-06 -1.77829668e-06 -1.77829668e-06
      -1.77829668e-06 -1.77829668e-06 -1.77829668e-06 -1.77829668e-06
      -1.77829668e-06 -1.77829668e-06 -1.77829668e-06 -1.77829668e-06
      -1.77829668e-06 -1.77829668e-06 -1.77829668e-06 -1.77829668e-06
      -1.77829668e-06 -1.77829668e-06 -1.77829668e-06 -1.77829668e-06
      -1.77829668e-06 -1.77829668e-06 -1.77132290e-06 -1.75737546e-06
      -1.76434924e-06 -1.77829668e-06 -1.72948069e-06 -1.75040179e-06
      -5.23028405e-07 -1.39474245e-08 0. 0. -5.57896982e-08 0. 0. 0. 0.
      0. 0. 0. 0. 0. 0. 0. 0. 0. 0. 0. 0. 0. 0. 0. 0. 0. 0. 0. 0. 0. 0.
      0. 0. 0. 0. 0. 0. 0. -2.09211368e-08 -6.97371227e-09
      -1.39474245e-08 0. 0. -6.83423821e-07 -1.77829668e-06
      -1.70855958e-06 -1.77829668e-06 -1.77829668e-06 -1.77829668e-06
      -1.77829668e-06 -1.77829668e-06 -1.77829668e-06 -1.77829668e-06
      -1.77132290e-06 -1.77829668e-06 -1.77829668e-06 -1.77829668e-06
      -1.77829668e-06 -1.77829668e-06 -1.77829668e-06 -1.77829668e-06
      -1.77829668e-06 -1.77829668e-06 -1.77829668e-06 -1.77829668e-06
      -1.77829668e-06 -1.77829668e-06 -1.77829668e-06 -1.77829668e-06
      -1.77829668e-06 -1.77829668e-06 -1.77829668e-06 -1.74342813e-06
      -1.77132290e-06 -1.77132290e-06 -1.77829668e-06 -1.77829668e-06
      -6.97371227e-09 0. 0. 0. 0. 0. 0. 0. 0. 0. 0. 0. 0. 0. 0. 0. 0. 0.
      0. 0. 0. 0. 0. 0. 0. 0. 0. 0. 0. 0. 0. 0. 0. 0. 0. 0. 0. 0. 0. 0.
      0. 0. 0. 0. 0. 0. 0. 0. 0. 0. 0. 0. 0. 0. 0. 0. 0. 0. 0. 0. 0. 0.
      0. 0. 0. 0. 0. 0. 0. 0. 0. 0. 0. 0. 0. 0. 0. 0. 0. 0. 0. 0. 0. 0.
      0. 0. 0. 0. 0. 0. 0. 0. 0. 0. 0. 0. 0. 0. 0. 0. 0. 0. 0. 0. 0. 0.
      0. 0. 0. 0. 0. 0. 0. 0. 0. 0. 0. 0. 0. 0. 0. -1.39474245e-08 0. 0.
      -1.39474245e-08 0. -1.77829668e-06 -1.76434924e-06 -1.77132290e-06
      -1.77829668e-06 -1.77829668e-06 -1.77829668e-06 -1.77829668e-06
      -1.77829668e-06 -1.77829668e-06 -1.77829668e-06 -1.77829668e-06
      -1.77829668e-06 -1.77829668e-06 -1.77829668e-06 -1.77829668e-06
      -1.77829668e-06 -1.77829668e-06 -1.77829668e-06 -1.77829668e-06
      -1.77829668e-06 -1.77829668e-06 -1.77829668e-06 -1.77829668e-06
      -1.77829668e-06 -1.77829668e-06 -1.77829668e-06 -1.77829668e-06
      -1.77132290e-06 -1.77829668e-06 -1.77829668e-06 -1.77132290e-06
      -1.75737546e-06 -1.76434924e-06 -1.77132290e-06 -1.77829668e-06
      -1.77829668e-06 -1.10882024e-06 0. -1.46447960e-07 0. 0.
      -7.67108332e-08 0. 0. 0. 0. 0. 0. 0. 0. 0. 0. 0. 0. 0. 0. 0. 0. 0.
      0. 0. 0. 0. 0. 0. 0. 0. 0. 0. 0. 0. 0. 0. 0. 0. -1.39474245e-08 0.
      -3.48685631e-08 -6.97371227e-09 -4.18422736e-08 -6.97371227e-09
      -1.33197909e-06 -1.77829668e-06 -1.77829668e-06 -1.77829668e-06
      -1.77829668e-06 -1.77132290e-06 -1.77132290e-06 -1.77829668e-06
      -1.77829668e-06 -1.77829668e-06 -1.77829668e-06 -1.77829668e-06
      -1.77829668e-06 -1.77829668e-06 -1.77829668e-06 -1.77829668e-06
      -1.77829668e-06 -1.77829668e-06 -1.77829668e-06 -1.77829668e-06
      -1.77829668e-06 -1.77829668e-06 -1.77829668e-06 -1.77829668e-06
      -1.77829668e-06 -1.77829668e-06 -1.77829668e-06 -1.77829668e-06
      -1.74342813e-06 -1.77132290e-06 -1.77132290e-06 -1.77829668e-06
      -1.77829668e-06 -6.97371227e-09 0. 0. 0. 0. 0. 0. 0. 0. 0. 0. 0.
      0. 0. 0. 0. 0. 0. 0. 0. 0. 0. 0. 0. 0. 0. 0. 0. 0. 0. 0. 0. 0. 0.
      0. 0. 0. 0. 0. 0. 0. 0. 0. 0. 0. 0. 0. 0. 0. 0. 0. 0. 0. 0. 0. 0.
      0. 0. 0. 0. 0. 0. 0. 0. 0. 0. 0. 0. 0. 0. 0. 0. 0. 0. 0. 0. 0. 0.
      0. 0. 0. 0. 0. 0. 0. 0. 0. 0. 0. 0. 0. 0. 0. 0. 0. 0. 0. 0. 0. 0.
      0. 0. 0. 0. 0. 0. 0. 0. 0. 0. 0. 0. 0. 0. 0. 0. 0. 0. 0. 0. 0.
      -1.39474245e-08 0. 0. -1.39474245e-08 0. -1.77829668e-06
      -1.76434924e-06 -1.77132290e-06 -1.77829668e-06 -1.77829668e-06
      -1.77829668e-06 -1.77829668e-06 -1.77829668e-06 -1.77829668e-06
      -1.77829668e-06 -1.77829668e-06 -1.77829668e-06 -1.77829668e-06
      -1.77829668e-06 -1.77829668e-06 -1.77829668e-06 -1.77829668e-06
      -1.77829668e-06 -1.77829668e-06 -1.77829668e-06 -1.77829668e-06
      -1.77829668e-06 -1.77829668e-06 -1.77829668e-06 -1.77829668e-06
      -1.77829668e-06 -1.77829668e-06 -1.75737546e-06 -1.76434924e-06
      -1.76434924e-06 -1.75737546e-06 -1.76434924e-06 -1.77829668e-06
      -1.77829668e-06 -1.77829668e-06 -1.69461214e-06 -3.20790775e-07 0.
      -2.78948491e-08 -2.09211368e-08 0. -6.97371227e-09 -4.18422736e-08
      0. 0. 0. 0. 0. 0. 0. 0. 0. 0. 0. 0. 0. 0. 0. 0. 0. 0. 0. 0. 0. 0.
      0. 0. 0. 0. 0. 0. 0. 0. 0. 0. 0. -6.97371227e-09 0.
      -1.39474245e-08 -1.39474245e-08 0. -4.95133577e-07 -1.75737546e-06
      -1.77829668e-06 -1.77829668e-06 -1.77132290e-06 -1.76434924e-06
      -1.77132290e-06 -1.77829668e-06 -1.77829668e-06 -1.77829668e-06
      -1.77829668e-06 -1.77829668e-06 -1.77829668e-06 -1.77829668e-06
      -1.77829668e-06 -1.77829668e-06 -1.77829668e-06 -1.77829668e-06
      -1.77829668e-06 -1.77829668e-06 -1.77829668e-06 -1.77829668e-06
      -1.77829668e-06 -1.77829668e-06 -1.77829668e-06 -1.77829668e-06
      -1.77829668e-06 -1.77829668e-06 -1.74342813e-06 -1.77132290e-06
      -1.77132290e-06 -1.77829668e-06 -1.77829668e-06 -6.97371227e-09 0.
      0. 0. 0. 0. 0. 0. 0. 0. 0. 0. 0. 0. 0. 0. 0. 0. 0. 0. 0. 0. 0. 0.
      0. 0. 0. 0. 0. 0. 0. 0. 0. 0. 0. 0. 0. 0. 0. 0. 0. 0. 0. 0. 0. 0.
      0. 0. 0. 0. 0. 0. 0. 0. 0. 0. 0. 0. 0. 0. 0. 0. 0. 0. 0. 0. 0. 0.
      0. 0. 0. 0. 0. 0. 0. 0. 0. 0. 0. 0. 0. 0. 0. 0. 0. 0. 0. 0. 0. 0.
      0. 0. 0. 0. 0. 0. 0. 0. 0. 0. 0. 0. 0. 0. 0. 0. 0. 0. 0. 0. 0. 0.
      0. 0. 0. 0. 0. 0. 0. 0. 0. -1.39474245e-08 0. 0. -1.39474245e-08
      0. -1.77829668e-06 -1.76434924e-06 -1.77132290e-06 -1.77829668e-06
      -1.77829668e-06 -1.77829668e-06 -1.77829668e-06 -1.77829668e-06
      -1.77829668e-06 -1.77829668e-06 -1.77829668e-06 -1.77829668e-06
      -1.77829668e-06 -1.77829668e-06 -1.77829668e-06 -1.77829668e-06
      -1.77829668e-06 -1.77829668e-06 -1.77829668e-06 -1.77829668e-06
      -1.77829668e-06 -1.77829668e-06 -1.77829668e-06 -1.77829668e-06
      -1.77829668e-06 -1.77829668e-06 -1.77829668e-06 -1.75737546e-06
      -1.76434924e-06 -1.76434924e-06 -1.76434924e-06 -1.77132290e-06
      -1.77829668e-06 -1.76434924e-06 -1.72948069e-06 -9.62372269e-07 0.
      -1.11579396e-07 0. -4.18422736e-08 0. 0. -2.78948491e-08 0. 0. 0.
      0. 0. 0. 0. 0. 0. 0. 0. 0. 0. 0. 0. 0. 0. 0. 0. 0. 0. 0. 0. 0. 0.
      0. 0. 0. 0. 0. 0. 0. -1.39474245e-08 -4.88159877e-08
      -6.97371227e-09 -5.57896982e-08 0. -1.39474253e-07 -6.97371263e-08
      -1.10882024e-06 -1.76434924e-06 -1.76434924e-06 -1.77132290e-06
      -1.77132290e-06 -1.77132290e-06 -1.77829668e-06 -1.77829668e-06
      -1.77829668e-06 -1.77829668e-06 -1.77829668e-06 -1.77829668e-06
      -1.77829668e-06 -1.77829668e-06 -1.77829668e-06 -1.77829668e-06
      -1.77829668e-06 -1.77829668e-06 -1.77829668e-06 -1.77829668e-06
      -1.77829668e-06 -1.77829668e-06 -1.77829668e-06 -1.77829668e-06
      -1.77829668e-06 -1.77829668e-06 -1.77829668e-06 -1.74342813e-06
      -1.77132290e-06 -1.77132290e-06 -1.77829668e-06 -1.77829668e-06
      -6.97371227e-09 0. 0. 0. 0. 0. 0. 0. 0. 0. 0. 0. 0. 0. 0. 0. 0. 0.
      0. 0. 0. 0. 0. 0. 0. 0. 0. 0. 0. 0. 0. 0. 0. 0. 0. 0. 0. 0. 0. 0.
      0. 0. 0. 0. 0. 0. 0. 0. 0. 0. 0. 0. 0. 0. 0. 0. 0. 0. 0. 0. 0. 0.
      0. 0. 0. 0. 0. 0. 0. 0. 0. 0. 0. 0. 0. 0. 0. 0. 0. 0. 0. 0. 0. 0.
      0. 0. 0. 0. 0. 0. 0. 0. 0. 0. 0. 0. 0. 0. 0. 0. 0. 0. 0. 0. 0. 0.
      0. 0. 0. 0. 0. 0. 0. 0. 0. 0. 0. 0. 0. 0. 0. -1.39474245e-08 0. 0.
      -1.39474245e-08 0. -1.77829668e-06 -1.76434924e-06 -1.77132290e-06
      -1.77829668e-06 -1.77829668e-06 -1.77829668e-06 -1.77829668e-06
      -1.77829668e-06 -1.77829668e-06 -1.77829668e-06 -1.77829668e-06
      -1.77829668e-06 -1.77829668e-06 -1.77829668e-06 -1.77829668e-06
      -1.77829668e-06 -1.77829668e-06 -1.77829668e-06 -1.77829668e-06
      -1.77829668e-06 -1.77829668e-06 -1.77829668e-06 -1.77829668e-06
      -1.77829668e-06 -1.77829668e-06 -1.77829668e-06 -1.77829668e-06
      -1.77829668e-06 -1.77829668e-06 -1.77829668e-06 -1.77829668e-06
      -1.77829668e-06 -1.77829668e-06 -1.72948069e-06 -1.66671725e-06
      -3.48685631e-08 0. 0. -1.39474245e-08 -6.97371227e-09 0.
      -6.27634122e-08 0. 0. 0. 0. 0. 0. 0. 0. 0. 0. 0. 0. 0. 0. 0. 0. 0.
      0. 0. 0. 0. 0. 0. 0. 0. 0. 0. 0. 0. 0. 0. 0. 0. -6.97371227e-09
      -1.39474245e-08 0. -2.78948491e-08 0. -6.97371227e-09 0.
      -1.81316523e-07 -1.75040179e-06 -1.75737546e-06 -1.77132290e-06
      -1.77829668e-06 -1.77829668e-06 -1.77829668e-06 -1.77132290e-06
      -1.77132290e-06 -1.77829668e-06 -1.77829668e-06 -1.77829668e-06
      -1.77829668e-06 -1.77829668e-06 -1.77829668e-06 -1.77829668e-06
      -1.77829668e-06 -1.77829668e-06 -1.77829668e-06 -1.77829668e-06
      -1.77829668e-06 -1.77829668e-06 -1.77829668e-06 -1.77829668e-06
      -1.77829668e-06 -1.77829668e-06 -1.77829668e-06 -1.74342813e-06
      -1.77132290e-06 -1.77132290e-06 -1.77829668e-06 -1.77829668e-06
      -6.97371227e-09 0. 0. 0. 0. 0. 0. 0. 0. 0. 0. 0. 0. 0. 0. 0. 0. 0.
      0. 0. 0. 0. 0. 0. 0. 0. 0. 0. 0. 0. 0. 0. 0. 0. 0. 0. 0. 0. 0. 0.
      0. 0. 0. 0. 0. 0. 0. 0. 0. 0. 0. 0. 0. 0. 0. 0. 0. 0. 0. 0. 0. 0.
      0. 0. 0. 0. 0. 0. 0. 0. 0. 0. 0. 0. 0. 0. 0. 0. 0. 0. 0. 0. 0. 0.
      0. 0. 0. 0. 0. 0. 0. 0. 0. 0. 0. 0. 0. 0. 0. 0. 0. 0. 0. 0. 0. 0.
      0. 0. 0. 0. 0. 0. 0. 0. 0. 0. 0. 0. 0. 0. 0. -1.39474245e-08 0. 0.
      -1.39474245e-08 0. -1.77829668e-06 -1.76434924e-06 -1.77132290e-06
      -1.77829668e-06 -1.77829668e-06 -1.77829668e-06 -1.77829668e-06
      -1.77829668e-06 -1.77829668e-06 -1.77829668e-06 -1.77829668e-06
      -1.77829668e-06 -1.77829668e-06 -1.77829668e-06 -1.77829668e-06
      -1.77829668e-06 -1.77829668e-06 -1.77829668e-06 -1.77829668e-06
      -1.77829668e-06 -1.77829668e-06 -1.77829668e-06 -1.77829668e-06
      -1.77829668e-06 -1.77829668e-06 -1.77829668e-06 -1.77829668e-06
      -1.77132290e-06 -1.77829668e-06 -1.77829668e-06 -1.77829668e-06
      -1.75737546e-06 -1.77829668e-06 -1.77829668e-06 -5.71844396e-07 0.
      0. 0. 0. 0. 0. 0. 0. 0. 0. 0. 0. 0. 0. 0. 0. 0. 0. 0. 0. 0. 0. 0.
      0. 0. 0. 0. 0. 0. 0. 0. 0. 0. 0. 0. 0. 0. 0. 0. 0. 0. 0. 0. 0. 0.
      0. 0. 0. -7.95003189e-07 -1.77829668e-06 -1.77829668e-06
      -1.75737546e-06 -1.76434924e-06 -1.77132290e-06 -1.77829668e-06
      -1.72250691e-06 -1.77829668e-06 -1.77829668e-06 -1.77829668e-06
      -1.77829668e-06 -1.77829668e-06 -1.77829668e-06 -1.77829668e-06
      -1.77829668e-06 -1.77829668e-06 -1.77829668e-06 -1.77829668e-06
      -1.77829668e-06 -1.77829668e-06 -1.77829668e-06 -1.77829668e-06
      -1.77829668e-06 -1.77829668e-06 -1.77829668e-06 -1.74342813e-06
      -1.77132290e-06 -1.77132290e-06 -1.77829668e-06 -1.77829668e-06
      -6.97371227e-09 0. 0. 0. 0. 0. 0. 0. 0. 0. 0. 0. 0. 0. 0. 0. 0. 0.
      0. 0. 0. 0. 0. 0. 0. 0. 0. 0. 0. 0. 0. 0. 0. 0. 0. 0. 0. 0. 0. 0.
      0. 0. 0. 0. 0. 0. 0. 0. 0. 0. 0. 0. 0. 0. 0. 0. 0. 0. 0. 0. 0. 0.
      0. 0. 0. 0. 0. 0. 0. 0. 0. 0. 0. 0. 0. 0. 0. 0. 0. 0. 0. 0. 0. 0.
      0. 0. 0. 0. 0. 0. 0. 0. 0. 0. 0. 0. 0. 0. 0. 0. 0. 0. 0. 0. 0. 0.
      0. 0. 0. 0. 0. 0. 0. 0. 0. 0. 0. 0. 0. 0. 0. -1.39474245e-08 0. 0.
      -1.39474245e-08 0. -1.77829668e-06 -1.76434924e-06 -1.77132290e-06
      -1.77829668e-06 -1.77829668e-06 -1.77829668e-06 -1.77829668e-06
      -1.77829668e-06 -1.77829668e-06 -1.77829668e-06 -1.77829668e-06
      -1.77829668e-06 -1.77829668e-06 -1.77829668e-06 -1.77829668e-06
      -1.77829668e-06 -1.77829668e-06 -1.77829668e-06 -1.77829668e-06
      -1.77829668e-06 -1.77829668e-06 -1.77829668e-06 -1.77829668e-06
      -1.77829668e-06 -1.77829668e-06 -1.77829668e-06 -1.77829668e-06
      -1.77829668e-06 -1.74342813e-06 -1.75737546e-06 -1.76434924e-06
      -1.77829668e-06 -1.77829668e-06 -1.33895276e-06 -9.76319754e-08 0.
      0. 0. 0. 0. 0. 0. 0. 0. 0. 0. 0. 0. 0. 0. 0. 0. 0. 0. 0. 0. 0. 0.
      0. 0. 0. 0. 0. 0. 0. 0. 0. 0. 0. 0. 0. 0. 0. 0. 0. 0. 0. 0. 0. 0.
      0. 0. 0. -1.46447960e-07 -1.52026928e-06 -1.72948069e-06
      -1.76434924e-06 -1.76434924e-06 -1.77829668e-06 -1.71553324e-06
      -1.77829668e-06 -1.77829668e-06 -1.77829668e-06 -1.77829668e-06
      -1.77829668e-06 -1.77829668e-06 -1.77829668e-06 -1.77829668e-06
      -1.77829668e-06 -1.77829668e-06 -1.77829668e-06 -1.77829668e-06
      -1.77829668e-06 -1.77829668e-06 -1.77829668e-06 -1.77829668e-06
      -1.77829668e-06 -1.77829668e-06 -1.77829668e-06 -1.74342813e-06
      -1.77132290e-06 -1.77132290e-06 -1.77829668e-06 -1.77829668e-06
      -6.97371227e-09 0. 0. 0. 0. 0. 0. 0. 0. 0. 0. 0. 0. 0. 0. 0. 0. 0.
      0. 0. 0. 0. 0. 0. 0. 0. 0. 0. 0. 0. 0. 0. 0. 0. 0. 0. 0. 0. 0. 0.
      0. 0. 0. 0. 0. 0. 0. 0. 0. 0. 0. 0. 0. 0. 0. 0. 0. 0. 0. 0. 0. 0.
      0. 0. 0. 0. 0. 0. 0. 0. 0. 0. 0. 0. 0. 0. 0. 0. 0. 0. 0. 0. 0. 0.
      0. 0. 0. 0. 0. 0. 0. 0. 0. 0. 0. 0. 0. 0. 0. 0. 0. 0. 0. 0. 0. 0.
      0. 0. 0. 0. 0. 0. 0. 0. 0. 0. 0. 0. 0. 0. 0. -1.39474245e-08 0. 0.
      -1.39474245e-08 0. -1.77829668e-06 -1.76434924e-06 -1.77132290e-06
      -1.77829668e-06 -1.77829668e-06 -1.77829668e-06 -1.77829668e-06
      -1.77829668e-06 -1.77829668e-06 -1.77829668e-06 -1.77829668e-06
      -1.77829668e-06 -1.77829668e-06 -1.77829668e-06 -1.77829668e-06
      -1.77829668e-06 -1.77829668e-06 -1.77829668e-06 -1.77829668e-06
      -1.77829668e-06 -1.77829668e-06 -1.77829668e-06 -1.77829668e-06
      -1.77829668e-06 -1.77829668e-06 -1.77829668e-06 -1.77829668e-06
      -1.77829668e-06 -1.73645435e-06 -1.76434924e-06 -1.77829668e-06
      -1.75040179e-06 -1.70158580e-06 -5.09081019e-07 0. 0. 0. 0. 0. 0.
      0. 0. 0. 0. 0. 0. 0. 0. 0. 0. 0. 0. 0. 0. 0. 0. 0. 0. 0. 0. 0. 0.
